svm_type c_svc
kernel_type linear
nr_class 2
total_sv 1556
rho -0.0398026
label 1 0
probA -1.06539
probB 0.0127903
nr_sv 770 786
SV
1 556:1 
0.9600316790868029 770:1 
0.6937979052349084 893:1 1029:1 2281:1 
0.0001796579137332871 3466:1 3494:1 
0.5042556712577922 614:1 3753:1 
0.6142738159438039 382:1 406:1 825:1 1472:1 1636:1 1696:1 2398:1 
0.4327299906305396 237:1 1068:1 2222:1 2861:1 3272:1 
0.2968975056982692 682:1 2377:1 3329:1 
0.1489083752595474 115:1 137:1 245:1 2202:1 3207:1 
0.4800635006042316 716:1 1879:1 
0.4742108519262108 2230:1 3318:1 
1 3272:1 
0.1016709577029592 591:1 1075:1 2382:1 2866:1 
0.4800039977625128 1546:1 3738:1 
1 1356:1 2622:1 
0.6958747908285722 1157:1 1961:1 3576:1 
1 
0.4801131996990246 3046:1 3196:1 
0.7125576822955593 704:1 1069:1 2281:1 2874:1 
0.6475926075683247 15:1 1332:1 1360:1 1596:1 1976:1 2635:1 3290:1 3625:1 
1 3259:1 
0.681056884610476 1221:1 2775:1 
1 1245:1 1696:1 
1 3349:1 
0.2578668587575088 1108:1 1244:1 1487:1 1680:1 2523:1 
1 2139:1 3753:1 
0.4769488311197221 2106:1 2492:1 
1 266:1 1245:1 3013:1 3304:1 3544:1 
0.05327394139805993 3135:1 3436:1 3522:1 3590:1 
1 1370:1 2541:1 
0.2274111766050098 17:1 365:1 1264:1 1595:1 1942:1 2000:1 2202:1 2883:1 3649:1 
0.2792565537530949 31:1 1880:1 
1 2313:1 
0.09146501231867925 511:1 1921:1 
0.2928212139509676 879:1 1511:1 3731:1 
0.6451285509620602 37:1 818:1 1746:1 2951:1 3681:1 3764:1 
0.3618286488983462 1205:1 1801:1 3147:1 3656:1 
0.4222273345475822 337:1 894:1 1662:1 2734:1 2775:1 3573:1 
0.0784810193594782 639:1 1631:1 2288:1 2395:1 2628:1 3115:1 3365:1 
0.3199909743291651 579:1 873:1 3300:1 
0.981893089038377 208:1 2305:1 2686:1 3134:1 
1 201:1 747:1 1179:1 2281:1 
0.2810439271055463 332:1 1082:1 3407:1 
0.2540886630084975 269:1 842:1 1258:1 2141:1 2362:1 2826:1 2969:1 3230:1 3660:1 3724:1 
0.9599823978272678 2255:1 
0.1633746517222892 2294:1 2966:1 
0.4710132648679545 271:1 612:1 3073:1 3134:1 3399:1 
0.009675801711331448 65:1 973:1 1264:1 1431:1 3139:1 3159:1 3526:1 
0.9600068173048235 552:1 
0.39635827419946 136:1 1936:1 2817:1 
0.2943452484167969 496:1 1003:1 1900:1 3744:1 
1 981:1 1185:1 1245:1 2878:1 
0.879033939708961 115:1 1480:1 3226:1 
0.2532994419488587 741:1 1800:1 3421:1 
0.479994047906733 670:1 1307:1 
0.0008156093326326616 143:1 3526:1 
0.2298227482978895 85:1 152:1 1348:1 
0.3182748632391549 1047:1 1119:1 1770:1 2018:1 3060:1 3189:1 
0.06330233730189115 618:1 1650:1 1800:1 2796:1 3213:1 3421:1 
0.3200217045787098 1160:1 1377:1 3626:1 
0.3551663564420724 685:1 1023:1 1316:1 3362:1 
0.3995895814822851 1140:1 
0.9599759964242278 3005:1 
0.4801174937863624 131:1 483:1 
0.2419783574768787 145:1 1165:1 1606:1 2011:1 2284:1 2307:1 2782:1 
1 3073:1 
0.4839856762837961 2407:1 3008:1 3753:1 
1 1625:1 
0.175156928562679 143:1 266:1 426:1 1041:1 1245:1 1622:1 2300:1 2318:1 2983:1 3482:1 
0.286703135181662 266:1 1253:1 1577:1 3568:1 3696:1 
0.218173936901167 1041:1 1846:1 2273:1 2364:1 2910:1 3733:1 
1 
0.5920340682476138 747:1 2628:1 3534:1 
1 
0.04077245616769448 22:1 96:1 1185:1 2279:1 2775:1 
0.139360454547563 638:1 686:1 1067:1 1759:1 3105:1 3289:1 
0.7218791115900592 680:1 1757:1 1758:1 1799:1 1800:1 3155:1 
0.3200406697069228 90:1 1203:1 3428:1 
0.1076705296575857 1996:1 2304:1 2627:1 3134:1 3476:1 3560:1 
0.08019358238408701 152:1 190:1 556:1 1279:1 1394:1 2142:1 2548:1 3171:1 3200:1 3678:1 
0.1970623406682193 997:1 1136:1 2135:1 2358:1 2736:1 2999:1 3744:1 
0.5064647079087429 1057:1 1800:1 3175:1 
1 842:1 2950:1 
0.420705545152325 422:1 887:1 969:1 3128:1 3166:1 3761:1 
0.4294470500549191 862:1 1504:1 1570:1 2082:1 3134:1 3264:1 
0.6028924854500444 1144:1 1480:1 
0.2283211433946948 280:1 690:1 939:1 1245:1 1862:1 2120:1 2600:1 2628:1 
1 603:1 
0.6275785269840862 603:1 1059:1 3264:1 
1 
1 
1 2957:1 
1 1806:1 
0.1691345322027134 53:1 1575:1 2025:1 
0.2695545627647294 559:1 1127:1 1800:1 3282:1 3614:1 
0.5044467177893549 967:1 3753:1 
0.03097203739803107 316:1 2082:1 3029:1 
1 1069:1 
0.2349048682194965 3048:1 3134:1 
1 1894:1 3438:1 
0.09416737542378054 63:1 616:1 931:1 1281:1 2527:1 3508:1 3765:1 
0.05871170852014639 2025:1 2518:1 2775:1 
1 637:1 852:1 2736:1 
0.2401179992650083 1685:1 1924:1 3321:1 3546:1 
1 1346:1 
0.1536682533834035 111:1 379:1 832:1 871:1 1143:1 1409:1 2628:1 3512:1 
1 2139:1 
0.4137983598456451 745:1 752:1 1138:1 
0.1713106245180581 173:1 378:1 929:1 1180:1 1232:1 1360:1 3341:1 
0.7198521058337388 108:1 2519:1 
0.5953745123961295 936:1 1245:1 1296:1 1736:1 
0.2465844758125422 15:1 533:1 674:1 803:1 1021:1 1450:1 2322:1 2794:1 2944:1 
0.7825389887552743 1157:1 1781:1 
0.6952263678775915 60:1 461:1 3359:1 
0.2942462896324402 807:1 1894:1 2535:1 
0.9602220841612585 1287:1 
0.2714756624425528 52:1 62:1 539:1 856:1 3111:1 
0.3221044572013403 2541:1 2574:1 3134:1 
0.2983779615893302 1886:1 3297:1 
0.9065797077766196 964:1 2198:1 
0.959936119073117 2934:1 
0.2727913494563439 731:1 747:1 1299:1 1921:1 1931:1 2281:1 2837:1 3142:1 3272:1 3362:1 
0.05190215418452054 143:1 536:1 738:1 954:1 1921:1 2352:1 2400:1 3377:1 
1 2232:1 3134:1 
0.9599019759032181 1475:1 
1 47:1 815:1 1245:1 2574:1 
0.385347922109435 457:1 542:1 815:1 3153:1 3358:1 
1 
1 1240:1 
0.4800808632928207 19:1 3723:1 
0.4525794317624814 459:1 752:1 1245:1 1911:1 1983:1 2917:1 3315:1 
1 
0.2550818004169355 281:1 747:1 2241:1 3648:1 
0.3858450073940525 316:1 955:1 995:1 1103:1 1945:1 2139:1 2313:1 
1 2262:1 3134:1 
1 3494:1 
0.9599165657524792 276:1 
1 3629:1 
0.9064172777401056 236:1 1308:1 2622:1 
0.1692058123867861 13:1 183:1 1921:1 
0.1439359334419489 306:1 1085:1 1530:1 2665:1 2745:1 3234:1 3239:1 3419:1 3636:1 
0.7652077745857404 920:1 1544:1 2281:1 3016:1 
0.7537393425392357 1220:1 
0.9598465339568731 407:1 
0.9600087047533911 2067:1 
0.9600310215320877 650:1 
0.960016019399362 2038:1 
1 
1 143:1 3177:1 3721:1 
0.5527900001292283 1541:1 2620:1 
0.1566986241647654 667:1 957:1 1010:1 1365:1 1701:1 2322:1 2373:1 2408:1 2726:1 3224:1 
1 1304:1 2628:1 
0.1157602192296532 454:1 752:1 772:1 791:1 1047:1 1324:1 1851:1 2279:1 2819:1 2844:1 
0.9161364808826995 3587:1 
0.2659289428293808 9:1 722:1 1060:1 1480:1 1601:1 2042:1 2816:1 2887:1 
0.3704256601830002 326:1 747:1 777:1 1245:1 1957:1 2090:1 3127:1 3191:1 
0.2410375537714025 56:1 2234:1 2300:1 2531:1 2788:1 3427:1 3460:1 
0.9763476023272526 542:1 1332:1 1570:1 1932:1 2716:1 3017:1 
0.4259454116084586 1245:1 1761:1 2628:1 2892:1 3017:1 
0.9600281457987361 48:1 
0.2146250092179026 1255:1 1491:1 2092:1 2121:1 2938:1 3155:1 
0.2488849964796983 512:1 914:1 931:1 1631:1 
1 1048:1 
0.3112881694215786 10:1 351:1 1800:1 2551:1 
1 2828:1 3134:1 
0.3329218432215436 1331:1 2718:1 2771:1 2859:1 3187:1 
1 2883:1 
0.6798043780157322 229:1 1176:1 
0.1644460539418458 302:1 366:1 1140:1 1245:1 1957:1 1959:1 
0.958023311178996 1247:1 
1 351:1 
0.4751679619334788 1431:1 3542:1 
1 
0.1384055496694393 1061:1 2082:1 2861:1 3259:1 
0.4801152606057557 2669:1 2818:1 
1 
0.6457870951672554 1856:1 
0.1893577330049317 322:1 1968:1 2662:1 3229:1 
0.3604181807542068 664:1 3132:1 3519:1 3617:1 3660:1 
0.1388461813999866 547:1 1184:1 1275:1 1344:1 1561:1 3144:1 3661:1 
0.3200552860623969 199:1 1087:1 2087:1 
0.4907025831821218 3336:1 3362:1 3436:1 3579:1 
1 769:1 1882:1 
0.3903037251563149 314:1 502:1 887:1 890:1 
1 2009:1 
0.9599949686795551 2177:1 
1 
0.423076897526765 1226:1 1645:1 2118:1 2244:1 2458:1 2490:1 3574:1 
0.8604015295066177 41:1 519:1 1413:1 2060:1 2285:1 2565:1 3753:1 
1 351:1 1229:1 
1 
0.5394109743752526 292:1 1232:1 1836:1 
1 665:1 1245:1 2132:1 2735:1 
0.1856201300175288 1000:1 1538:1 1872:1 2223:1 2299:1 2740:1 3134:1 3552:1 3735:1 
0.6012564723621934 573:1 709:1 1950:1 2204:1 2662:1 
1 1069:1 
0.3199608985725459 660:1 857:1 2827:1 
0.7841335947698853 622:1 1245:1 1374:1 1452:1 3157:1 
1 
0.6476574621056681 1411:1 3134:1 3504:1 
0.9600195318515816 3369:1 
0.4347178101507874 159:1 545:1 842:1 1214:1 2757:1 3332:1 
0.3395870223858044 132:1 210:1 1534:1 2405:1 2571:1 
0.004065253283928144 147:1 470:1 561:1 1005:1 1694:1 2271:1 2493:1 2775:1 3318:1 3330:1 3509:1 
0.04422592669988214 566:1 710:1 1952:1 2032:1 3592:1 
0.5326592037761692 258:1 694:1 761:1 1433:1 2387:1 3718:1 
0.3200962480369065 1027:1 2673:1 3677:1 
0.3625134955312667 981:1 1252:1 1282:1 1693:1 2015:1 2142:1 3376:1 3588:1 
0.9988910175715827 699:1 1646:1 2736:1 2975:1 
0.2564657559562575 385:1 520:1 1047:1 1482:1 2102:1 2461:1 3307:1 3618:1 3690:1 3701:1 
0.2557573728877082 85:1 990:1 1642:1 1665:1 2468:1 3117:1 
0.4739053615113274 562:1 2681:1 3417:1 3660:1 
1 1800:1 
0.1758081967557771 59:1 157:1 792:1 1227:1 2896:1 
0.4043153395447686 246:1 1788:1 
0.1493942176874152 227:1 413:1 445:1 612:1 1105:1 1709:1 2071:1 
0.001568267238411022 278:1 1010:1 2012:1 2220:1 2445:1 2457:1 2919:1 2945:1 3086:1 3519:1 
1 1245:1 
0.1391473546774833 27:1 385:1 984:1 986:1 1697:1 2131:1 2663:1 2927:1 3029:1 3441:1 
0.8976904135923529 1069:1 1965:1 2294:1 3742:1 
1 3418:1 3625:1 
0.8588662356865644 1477:1 3008:1 3391:1 
0.4799509423976862 2064:1 3668:1 
0.2039496794660017 1648:1 1733:1 2729:1 3233:1 
1 1395:1 2028:1 
0.200363674273161 301:1 1465:1 1921:1 2123:1 2958:1 3516:1 
0.1158857759737033 813:1 1155:1 2030:1 3633:1 
0.5409967032911429 539:1 851:1 919:1 
0.3343134131050859 266:1 406:1 900:1 1443:1 1480:1 
0.04101876648020419 152:1 264:1 724:1 1209:1 1252:1 2753:1 2853:1 
0.3091444447368487 632:1 677:1 1720:1 2209:1 
0.2136880208764864 364:1 954:1 1111:1 1830:1 3716:1 
0.9309103072483897 1233:1 2509:1 
1 1335:1 3272:1 
0.2566895449235492 448:1 2082:1 2204:1 2559:1 2628:1 3031:1 3344:1 
0.5362499834406163 267:1 1562:1 2117:1 3629:1 
0.2109714863721462 251:1 1076:1 1566:1 2749:1 2910:1 3087:1 3416:1 
1 2163:1 
0.1394026718071786 931:1 1966:1 
0.2130924212619033 305:1 473:1 1818:1 1886:1 2080:1 
0.0602261817440951 10:1 58:1 931:1 1925:1 2281:1 2709:1 2883:1 2953:1 3248:1 
0.1590425892899184 329:1 803:1 817:1 1018:1 
0.17465221273649 1173:1 1375:1 1488:1 1889:1 2214:1 2547:1 3249:1 
0.4799762413862459 1327:1 1902:1 
0.4254037859276679 215:1 2712:1 2724:1 2775:1 3181:1 
1 
0.08280098037372531 98:1 734:1 1130:1 2579:1 
0.2360496844054258 1696:1 1739:1 2281:1 2848:1 2876:1 
1 
1 1241:1 1596:1 
1 1372:1 
0.2778732337447168 557:1 747:1 1700:1 2241:1 2775:1 3692:1 
0.2400788165350766 767:1 822:1 1329:1 2376:1 
0.959959314680899 2447:1 
0.9600127747561892 771:1 
1 137:1 747:1 3753:1 
1 931:1 
0.0001954188243239955 487:1 946:1 1220:1 
0.2814984751626798 200:1 2547:1 3008:1 3612:1 3643:1 
0.4640667069708118 98:1 319:1 645:1 1100:1 2321:1 3104:1 
1 212:1 747:1 1332:1 3134:1 
0.3200783291909083 850:1 1583:1 2923:1 
0.4339246401668554 260:1 351:1 613:1 981:1 3673:1 
0.6809353749795785 2775:1 2952:1 
0.1698752587010638 169:1 438:1 1819:1 2450:1 3372:1 
0.9671336134629166 1621:1 1864:1 2961:1 
0.3867811824337763 816:1 1332:1 1497:1 2046:1 2168:1 2574:1 2650:1 3392:1 3629:1 3662:1 
0.02858452615364308 691:1 839:1 1252:1 2138:1 2664:1 2950:1 2978:1 3085:1 3746:1 
1 266:1 325:1 454:1 516:1 793:1 2270:1 3395:1 
1 2539:1 
0.9599805782748164 607:1 
1 
0.1653721492136414 175:1 1032:1 1285:1 1974:1 3201:1 3433:1 3525:1 
0.9602871564617407 2530:1 
0.1169525047921813 330:1 1581:1 2180:1 3407:1 3515:1 
0.7638298542173353 351:1 2006:1 2309:1 
0.2242289123148188 743:1 2198:1 3267:1 
0.9772749897498227 2622:1 2683:1 2720:1 
0.1844883074395028 905:1 1173:1 1246:1 1870:1 1921:1 3644:1 
0.4462796892550402 1020:1 1641:1 3660:1 
0.892355109917971 453:1 3660:1 
0.01551875650576256 34:1 64:1 551:1 1291:1 2220:1 2574:1 2611:1 2638:1 2691:1 2779:1 3073:1 3660:1 
1 152:1 1199:1 
1 
0.3840860872749413 3016:1 3017:1 3629:1 
1 803:1 2028:1 
1 3259:1 
1 3259:1 
0.2361139830096052 249:1 401:1 539:1 919:1 
0.4334564770194532 10:1 47:1 3595:1 
0.320090335898104 872:1 1073:1 2994:1 
0.3963191693734486 266:1 406:1 1110:1 2339:1 2382:1 3134:1 3362:1 
0.254849237931916 59:1 712:1 948:1 1433:1 2465:1 
0.5634236977780801 898:1 1625:1 2014:1 3008:1 3660:1 3698:1 
0.5692833350000253 275:1 1639:1 2943:1 
1 
0.4799967927539372 2427:1 3501:1 
0.7506360352867089 3664:1 
0.2407786171993482 442:1 1245:1 1796:1 2494:1 2559:1 2891:1 
1 
0.06107900511833932 59:1 130:1 666:1 704:1 756:1 1655:1 1982:1 2057:1 2851:1 3511:1 
0.4672447041992687 508:1 1434:1 2199:1 2281:1 3596:1 
1 2547:1 3466:1 
0.9599751328175538 3769:1 
0.8145800940622675 756:1 791:1 1092:1 2645:1 2685:1 3173:1 
1 
1 
0.9599659580557389 2037:1 
1 
0.4125237121113204 248:1 535:1 2960:1 
1 1778:1 
0.7399547745181406 46:1 351:1 2337:1 
1 106:1 351:1 
0.9197682135443245 409:1 1806:1 2721:1 3609:1 
1 747:1 1268:1 1921:1 
0.09179072702677646 1921:1 2773:1 
0.03088025250348371 852:1 1921:1 
1 919:1 1921:1 
0.2561725255292606 535:1 604:1 1326:1 1332:1 1881:1 3456:1 
1 1477:1 2870:1 
0.517337137135399 1274:1 1921:1 
0.2333098094824197 311:1 834:1 1332:1 1433:1 1968:1 2019:1 2136:1 
0.5083121591810005 1931:1 2957:1 
1 2957:1 
0.09156650592087541 806:1 1921:1 
1 2767:1 3134:1 
0.4344820679227822 1651:1 2589:1 2643:1 
0.09674495660907187 2160:1 2628:1 2977:1 3177:1 3443:1 
0.1489562835549781 197:1 732:1 1245:1 1496:1 1511:1 2160:1 2944:1 3083:1 3292:1 3526:1 
0.07811210045027439 166:1 263:1 710:1 812:1 950:1 1577:1 1853:1 2258:1 2328:1 2503:1 2620:1 3367:1 3710:1 
0.7850705679668808 931:1 1897:1 2124:1 2142:1 2774:1 3259:1 
0.410160896772913 546:1 2787:1 2821:1 3273:1 
0.3907390382638098 341:1 542:1 939:1 1306:1 2093:1 
0.2137973889002068 109:1 602:1 627:1 886:1 983:1 1341:1 2359:1 
0.3201437726777545 2171:1 2986:1 
1 919:1 3107:1 
0.3205827895954483 567:1 858:1 962:1 1245:1 2231:1 2366:1 2795:1 
0.06825560485635816 327:1 479:1 535:1 1116:1 1875:1 2495:1 3163:1 3388:1 3699:1 
0.03023703397850233 931:1 2046:1 3090:1 3226:1 
0.3456471748693879 659:1 1232:1 1251:1 1962:1 2591:1 2747:1 
0.2103910376293986 434:1 1836:1 
0.02171071029992341 10:1 62:1 1429:1 1456:1 2381:1 2628:1 2980:1 2989:1 3164:1 3333:1 
0.1175423549078298 388:1 803:1 1309:1 1745:1 2026:1 2202:1 2476:1 2974:1 
0.1773920016205121 243:1 2775:1 3419:1 
0.3201620874408833 28:1 2182:1 2319:1 
0.1489544257141827 152:1 2560:1 2907:1 2975:1 3471:1 
0.3199688434854343 11:1 2754:1 3581:1 
1 2421:1 3526:1 
0.3783584823741721 3403:1 3526:1 3761:1 
1 44:1 414:1 
0.4331427959054939 32:1 847:1 2911:1 
1 1354:1 2559:1 2641:1 
0.06920815750393984 287:1 318:1 374:1 597:1 600:1 652:1 793:1 860:1 1316:1 1438:1 2584:1 2680:1 2683:1 2955:1 2974:1 3338:1 
0.9287887705451138 1070:1 1245:1 1347:1 1802:1 
0.3644406090192762 931:1 1799:1 1977:1 2512:1 2662:1 
0.4177108918222557 1199:1 1843:1 
0.1805378342241377 1158:1 3494:1 
0.4192501810913757 605:1 3014:1 3624:1 3629:1 
0.1642882075825984 2046:1 2502:1 3629:1 
1 1753:1 3134:1 
0.3919479804133874 323:1 1032:1 2094:1 2629:1 
0.9381930832133201 2300:1 2974:1 3473:1 
0.212611587322271 1596:1 1706:1 3272:1 
1 539:1 639:1 3111:1 
0.119427186295231 150:1 1812:1 3602:1 
0.9600101734300703 1829:1 
1 1140:1 
0.7948735300133206 1679:1 2281:1 3104:1 3715:1 
1 1140:1 
1 2268:1 3307:1 
0.2418511738042161 1383:1 1426:1 2577:1 2953:1 3054:1 3186:1 3239:1 3264:1 
1 1921:1 3362:1 
1 
0.3775367494434909 461:1 1269:1 2774:1 3538:1 
0.9599121673543904 692:1 
0.2760831832880138 2853:1 2919:1 3370:1 
0.05350555382778496 137:1 184:1 1107:1 1405:1 2028:1 2567:1 2627:1 3361:1 3483:1 3761:1 
0.3106773710600136 3:1 550:1 853:1 2539:1 2568:1 3604:1 
0.1056566170390808 182:1 328:1 335:1 531:1 602:1 1689:1 2158:1 2678:1 3402:1 3503:1 3556:1 
0.3097055740165513 798:1 1501:1 2507:1 2709:1 3374:1 3629:1 
0.2063032177925655 1921:1 2392:1 2709:1 
1 1627:1 
1 1811:1 
1 931:1 2306:1 3226:1 
0.2314264189910403 378:1 715:1 2287:1 2778:1 3616:1 
1 
1 1354:1 3256:1 3462:1 
0.3901761194803814 1935:1 2168:1 3535:1 
0.2344206655988506 201:1 1311:1 1392:1 1473:1 2082:1 
0.09564769651550201 517:1 661:1 748:1 924:1 1148:1 1342:1 1689:1 2779:1 3320:1 3620:1 3648:1 3758:1 
1 2686:1 3221:1 
0.2058139596595891 32:1 1220:1 2046:1 3120:1 3413:1 
0.2199982307949742 33:1 1351:1 1580:1 2093:1 3487:1 
0.1609906242467689 842:1 1985:1 2082:1 2168:1 2325:1 2752:1 3134:1 3287:1 3378:1 3654:1 
0.01124728660549778 567:1 1683:1 2074:1 3073:1 
0.1093525087419814 152:1 375:1 460:1 1349:1 1388:1 1941:1 3619:1 3732:1 
1 338:1 1836:1 
0.27303044633425 1138:1 2636:1 
0.8089216619009834 1179:1 1407:1 2266:1 
0.8240913194565869 10:1 931:1 1052:1 
0.0558115391752943 93:1 502:1 791:1 801:1 1856:1 3134:1 
1 629:1 639:1 
1 539:1 895:1 
0.5827748903223915 395:1 879:1 1120:1 1702:1 1869:1 2175:1 2206:1 3017:1 3177:1 3526:1 
0.711762599916125 1052:1 1252:1 1521:1 
0.6283443053976838 209:1 2686:1 
1 
1 1333:1 
1 
0.9558174424337096 2493:1 
0.01752023488213703 704:1 848:1 1471:1 2046:1 2251:1 2270:1 3453:1 3704:1 
0.2791319378110851 479:1 1558:1 2775:1 3134:1 
1 2957:1 3362:1 
0.6015400088070116 26:1 2957:1 3362:1 
0.1879998060115674 22:1 49:1 779:1 852:1 1300:1 1370:1 1933:1 3686:1 
0.2616849027555345 981:1 1647:1 
0.8926633550309476 539:1 
0.9350211992741094 1266:1 1282:1 1363:1 
0.02139210777715634 1252:1 2547:1 2925:1 3070:1 
0.3200674245349469 544:1 3371:1 3679:1 
0.3200640566614339 548:1 1816:1 3583:1 
0.9600327321977502 3042:1 
0.05176909124391316 619:1 669:1 707:1 803:1 1696:1 1841:1 1921:1 2111:1 2511:1 2541:1 
0.03869111599021096 655:1 710:1 953:1 1468:1 1932:1 2317:1 2460:1 3660:1 3735:1 
0.5565039457236102 10:1 931:1 1663:1 2039:1 2797:1 3017:1 
0.479325149249989 316:1 2623:1 
0.4054361200201833 1882:1 1925:1 2460:1 3272:1 
1 1842:1 2606:1 3272:1 
0.2165505629189086 86:1 107:1 249:1 347:1 833:1 931:1 1483:1 1806:1 2225:1 2806:1 3212:1 3520:1 
0.1822990713399577 82:1 575:1 720:1 743:1 1294:1 1926:1 2117:1 2142:1 2481:1 2634:1 2700:1 3419:1 
0.02996129629296285 905:1 2248:1 2628:1 2903:1 3272:1 
0.01841475543541244 609:1 2628:1 2922:1 
0.3615018428866386 144:1 500:1 
0.5994699891642508 274:1 312:1 535:1 747:1 2066:1 2281:1 2559:1 2605:1 
0.0119165851959178 576:1 980:1 2022:1 2246:1 
0.1022414498303897 1290:1 1726:1 1921:1 3155:1 
0.5851319747154795 731:1 855:1 
0.6228432388718745 390:1 2963:1 
1 2002:1 2709:1 
0.731548984924369 351:1 1659:1 1925:1 
0.5198929094886051 165:1 1173:1 1192:1 1524:1 2128:1 2541:1 3247:1 3265:1 3456:1 3752:1 
0.207470448046026 1570:1 2650:1 3037:1 
0.4799391094049534 923:1 2051:1 
0.1174192214724389 168:1 398:1 1061:1 1873:1 2875:1 3026:1 3714:1 
0.6714074828964655 47:1 1771:1 2424:1 
1 673:1 1844:1 2523:1 
0.4144517188524218 939:1 1964:1 
0.1537974254836085 151:1 316:1 516:1 676:1 761:1 1605:1 1800:1 3725:1 
0.1809335529165662 760:1 768:1 1974:1 3444:1 
0.5490686798515907 22:1 1848:1 2421:1 3100:1 3134:1 
0.1392750897711927 1486:1 1569:1 2101:1 2790:1 3289:1 3440:1 
0.9483627990511957 2246:1 
0.9824537303531848 1009:1 2492:1 
1 2134:1 
0.1508920659041346 372:1 1276:1 1660:1 2256:1 3249:1 
0.4800979027687172 2671:1 3505:1 
0.1627795707371483 231:1 1604:1 3265:1 3362:1 3630:1 
0.2686616119705086 282:1 493:1 1833:1 1921:1 3134:1 
1 931:1 
1 2736:1 
0.9801744858558503 971:1 2053:1 
0.6648219129890074 127:1 173:1 1245:1 2620:1 3766:1 
0.3199939672668995 1084:1 1503:1 3676:1 
0.3595167776589218 2:1 226:1 262:1 603:1 816:1 980:1 1107:1 1754:1 2084:1 2223:1 2683:1 2916:1 3351:1 
0.2693595888315579 47:1 112:1 158:1 694:1 1823:1 2202:1 
0.0005423868369486475 351:1 452:1 1390:1 2650:1 3611:1 
1 10:1 2268:1 2650:1 
0.3284246917951326 104:1 1035:1 2265:1 
0.2130280636714837 117:1 206:1 408:1 703:1 3231:1 
0.1514599597185295 915:1 1172:1 1788:1 2007:1 2218:1 2268:1 2829:1 3138:1 
0.4065197114300905 522:1 1518:1 2045:1 3234:1 
0.3605619179435045 2046:1 2391:1 2775:1 3280:1 
0.345634622702726 499:1 996:1 1972:1 3381:1 3495:1 
0.1571484326742864 78:1 747:1 2866:1 3028:1 3177:1 3540:1 
0.06955577073788713 914:1 2580:1 2878:1 2897:1 3329:1 
0.004201592197886869 1909:1 
0.2824203533863175 335:1 593:1 1142:1 2198:1 2522:1 3690:1 
0.7099019229002667 462:1 919:1 1214:1 1342:1 2863:1 3259:1 
0.9494356309872353 1111:1 2117:1 2270:1 2450:1 3451:1 3535:1 3660:1 
0.8922950238465814 1402:1 3660:1 
0.8905051842177109 462:1 1245:1 2066:1 2343:1 
0.5235875125000137 1755:1 2498:1 3718:1 
0.03049402109189582 222:1 411:1 502:1 931:1 1430:1 1679:1 3015:1 
1 
0.2286739771459023 177:1 747:1 1179:1 1622:1 1748:1 2235:1 2559:1 
0.9599845660793378 3242:1 
0.2478769982269117 294:1 965:1 3520:1 
0.03980752594846984 2046:1 
1 2046:1 
0.2739522362966447 454:1 608:1 758:1 1484:1 2393:1 2453:1 2628:1 
0.9599609315471143 3571:1 
1 1909:1 
1 
0.1530101444153456 297:1 1666:1 2304:1 2375:1 2380:1 2426:1 2925:1 3747:1 
0.6309472198235744 2031:1 2198:1 
0.4111850719564234 245:1 316:1 919:1 1387:1 2198:1 2901:1 3753:1 
0.09883223034367043 410:1 1044:1 1800:1 2609:1 3073:1 
0.345099693036457 173:1 1811:1 2736:1 2859:1 3272:1 
0.4546258382464812 181:1 1214:1 1960:1 2579:1 2879:1 3073:1 3111:1 3471:1 
0.8923667725254169 1215:1 3660:1 
0.6647621143577238 816:1 1201:1 1356:1 2696:1 2969:1 
0.01304018011411761 201:1 261:1 333:1 373:1 931:1 1758:1 2188:1 2547:1 3011:1 3043:1 3537:1 
0.7030001301706711 482:1 3762:1 
1 1622:1 2931:1 
0.3809216430235247 1654:1 1692:1 1696:1 1826:1 
1 2559:1 
0.1256520382969531 311:1 410:1 940:1 1986:1 3269:1 
0.03078415097791496 163:1 1565:1 2071:1 2082:1 2454:1 2668:1 3184:1 3318:1 3390:1 
0.565916042001001 351:1 1343:1 2822:1 
1 
0.3217481341253214 796:1 1437:1 2389:1 3458:1 3756:1 
0.5286321903431414 201:1 535:1 3259:1 
0.005917914721450001 10:1 535:1 1921:1 3134:1 
0.1449837414609055 25:1 1237:1 2025:1 2079:1 3015:1 3308:1 3623:1 
0.03316453021878336 2650:1 2660:1 3001:1 3404:1 
0.9961245262495992 542:1 1696:1 2202:1 
0.318416314995582 20:1 47:1 648:1 1696:1 1823:1 3502:1 3761:1 
0.08284189865729204 805:1 912:1 1260:1 1921:1 2296:1 2820:1 2853:1 3289:1 
0.1050412205920903 747:1 1661:1 1921:1 2682:1 
0.366638643958341 1180:1 1921:1 2228:1 2924:1 3120:1 3325:1 
0.1153527785978395 118:1 237:1 560:1 972:1 1120:1 1921:1 2828:1 3464:1 
0.06251636877296686 535:1 565:1 1167:1 1314:1 1480:1 1573:1 1696:1 1971:1 2156:1 2497:1 
0.8248945909412145 535:1 1114:1 
0.5336663819039609 10:1 535:1 3225:1 
0.2436069164563699 786:1 2025:1 2569:1 
0.512172165171642 279:1 688:1 1332:1 1570:1 2742:1 3259:1 
0.6686914693178408 10:1 2764:1 
1 249:1 351:1 551:1 
0.4686070081222372 10:1 1171:1 1291:1 
0.05461904249720745 599:1 720:1 928:1 944:1 1395:1 1558:1 2396:1 2574:1 3288:1 3468:1 3660:1 
0.1090294186598555 212:1 1663:1 1696:1 1824:1 2134:1 
1 1245:1 1921:1 2268:1 2628:1 2736:1 3362:1 3615:1 
0.006821383910889014 275:1 1179:1 1480:1 1921:1 2638:1 2814:1 3134:1 3674:1 
0.2823903448471146 919:1 1921:1 3456:1 
0.3199776225021382 1923:1 2171:1 
0.1889538147688704 162:1 542:1 746:1 2775:1 2973:1 
0.05499646642927363 94:1 749:1 1301:1 1374:1 1998:1 2628:1 2717:1 2969:1 2979:1 3190:1 3350:1 3445:1 
1 1442:1 
1 1529:1 2202:1 
0.3097154981276975 171:1 694:1 805:1 1182:1 1262:1 2559:1 2799:1 2847:1 3380:1 3549:1 3577:1 3718:1 
0.08716718581823739 152:1 2704:1 
0.9251912083179197 83:1 1336:1 1823:1 2348:1 
0.634367582594481 1601:1 2245:1 
0.5985444509231271 1257:1 1670:1 1674:1 
0.1947709601486273 1169:1 1984:1 2670:1 3444:1 
0.5564887925565197 340:1 580:1 747:1 
0.6026039512861229 747:1 981:1 1260:1 2356:1 3246:1 3705:1 
0.1998130015507142 478:1 1563:1 3307:1 3526:1 
1 1951:1 3134:1 3526:1 
0.6246671042866379 1961:1 
1 15:1 2844:1 
1 1921:1 3134:1 
0.6625794947267393 2458:1 2471:1 2484:1 
0.8608092802386103 57:1 2300:1 
0.3028837691810154 156:1 1112:1 1136:1 1251:1 1460:1 1630:1 2540:1 3134:1 3192:1 
0.5421527726579141 752:1 1245:1 1249:1 1666:1 1807:1 1843:1 2210:1 2856:1 
0.6282007934290759 2686:1 3250:1 
0.4472660334733506 386:1 842:1 1034:1 1607:1 
0.4351303717289664 747:1 3526:1 3749:1 
0.1701649069686733 538:1 539:1 2040:1 2591:1 3134:1 3323:1 3526:1 3712:1 
1 3031:1 3526:1 3761:1 
6.209056598167095e-05 649:1 1961:1 2186:1 2349:1 
1 85:1 
0.1565904949173611 702:1 931:1 1710:1 1921:1 2523:1 3220:1 3629:1 
1 2828:1 3134:1 
1 2966:1 
0.2661651689004202 271:1 539:1 629:1 639:1 2192:1 3220:1 3400:1 
0.9825159463009753 1661:1 1799:1 1909:1 3189:1 
1 266:1 
0.4223549807453921 528:1 861:1 1124:1 1245:1 2702:1 
0.4417736978435263 597:1 1045:1 2222:1 2915:1 
0.01300254685486625 228:1 747:1 942:1 1063:1 1608:1 2561:1 2628:1 2889:1 2997:1 3635:1 
0.9602848867510317 3286:1 
0.415278068176561 1909:1 2241:1 
0.6201930329771789 710:1 1921:1 3052:1 3134:1 
0.9599343904581559 357:1 
1 1525:1 1937:1 
1 1921:1 
0.3352027468776487 824:1 1598:1 2114:1 2239:1 
0.9602660035574668 1421:1 
1 3664:1 
0.7226989161799275 143:1 2534:1 3334:1 
0.4799880519914261 1485:1 1877:1 
0.9599311126326957 735:1 
0.320068568438253 864:1 1478:1 1939:1 
0.9600170575681836 1835:1 
1 2774:1 
0.4203785343084039 150:1 1929:1 
1 981:1 
0.2565743693265272 101:1 404:1 1354:1 1469:1 2591:1 2664:1 2707:1 3436:1 3737:1 
0.3388836228401295 163:1 931:1 1241:1 1659:1 2270:1 2861:1 2966:1 3099:1 
0.2632214477478635 790:1 1066:1 1638:1 2640:1 
0.1215059970785526 1271:1 1659:1 1898:1 2742:1 3494:1 
0.5176137273394842 810:1 2957:1 3535:1 3629:1 3761:1 
0.5538047328870236 1331:1 2082:1 3726:1 
0.4414267440489499 358:1 1740:1 1772:1 2628:1 2771:1 3398:1 3468:1 
0.479965302242838 763:1 1378:1 
0.9599077490236443 2357:1 
1 747:1 2295:1 
1 137:1 
1 639:1 909:1 2009:1 
0.2627191000149513 230:1 1556:1 1767:1 1818:1 2646:1 
0.5136473830361465 68:1 170:1 2653:1 3442:1 3495:1 
0.1833656121092899 217:1 721:1 1210:1 1282:1 1363:1 1531:1 1659:1 3077:1 3611:1 
0.9234003913873899 2160:1 2459:1 2559:1 3629:1 
0.959841826565809 922:1 
0.8267468243993989 577:1 1397:1 2775:1 2980:1 3051:1 
0.0530876488056171 704:1 2997:1 3274:1 
0.4018003308573811 31:1 2775:1 
0.1343807180193498 147:1 590:1 829:1 1183:1 2152:1 2439:1 2930:1 3278:1 3553:1 3608:1 
0.04124491465581682 1017:1 1766:1 2828:1 3272:1 
0.1446159967078711 433:1 480:1 1733:1 2432:1 2793:1 2828:1 
0.9598782188099068 1703:1 
0.6373278217181102 281:1 310:1 1898:1 2187:1 2957:1 
0.3076946324793601 603:1 1494:1 1508:1 2073:1 2758:1 
0.5468543495233996 10:1 1558:1 
1 1431:1 2270:1 
1 1800:1 2043:1 
0.08379683709105021 273:1 914:1 1374:1 1712:1 3155:1 3249:1 3548:1 
0.2946582242770016 275:1 518:1 733:1 1241:1 1502:1 2096:1 2122:1 2402:1 2562:1 2928:1 3356:1 
0.13101259058354 816:1 1326:1 3526:1 
1 
0.5677295048604191 1230:1 1751:1 
0.520720994977913 309:1 1374:1 1800:1 
0.06048874379605974 1366:1 2175:1 3048:1 3063:1 3134:1 
0.2301944004723609 189:1 547:1 784:1 2526:1 3271:1 
1 238:1 3134:1 
0.36548144585278 316:1 542:1 1133:1 
0.3864428751244864 141:1 643:1 1472:1 1688:1 2739:1 2961:1 3134:1 
1 603:1 1800:1 2868:1 
0.2724021497550164 603:1 1186:1 1903:1 2499:1 
0.1816595685728561 51:1 931:1 1013:1 1560:1 1805:1 1812:1 3176:1 
1 2234:1 
0.1069410251605156 919:1 1363:1 1921:1 2014:1 2202:1 2547:1 
0.2662500489631625 519:1 1050:1 1477:1 1667:1 2206:1 2210:1 3198:1 
0.2630682172685705 543:1 1358:1 1412:1 1596:1 1659:1 2775:1 3341:1 3362:1 
1 2686:1 2775:1 
0.001995700086822171 710:1 863:1 1247:1 2270:1 2539:1 2622:1 3737:1 
1 1800:1 
1 406:1 
0.8035410885480198 957:1 
1 
1 1083:1 2628:1 3759:1 
0.1552561473468292 2135:1 2563:1 2628:1 3423:1 
0.04344893742888216 485:1 742:1 1282:1 1800:1 2435:1 
0.4271571018735368 555:1 752:1 1506:1 1803:1 
0.1116390176616065 92:1 339:1 1217:1 1705:1 1722:1 2302:1 2388:1 2559:1 2620:1 2666:1 2709:1 3057:1 
0.9601041482854488 1006:1 
0.3253102698827054 402:1 2082:1 2906:1 
1 2281:1 
0.3780233797372439 747:1 875:1 994:1 1244:1 1692:1 1696:1 2069:1 2160:1 3259:1 
0.5562872489528639 153:1 3747:1 
0.8030288106996432 1480:1 1619:1 3438:1 
0.5098453021713715 80:1 315:1 356:1 1208:1 1698:1 2206:1 2989:1 
1 
0.2912281920166907 59:1 945:1 1245:1 1618:1 1854:1 2112:1 2151:1 2269:1 3039:1 3140:1 
0.9633165523780159 3485:1 
0.1108435534638937 114:1 1085:1 1201:1 1376:1 2513:1 3318:1 3334:1 3523:1 
0.3254491419832585 360:1 774:1 1047:1 3524:1 
0.5859903338587983 280:1 634:1 1526:1 2261:1 
0.7766889755824287 266:1 1481:1 
0.4249699947248828 1898:1 2423:1 2752:1 3202:1 
0.8650515447523214 1117:1 2628:1 3761:1 
0.2452192903463883 868:1 2628:1 
0.2501222370759562 617:1 1594:1 2297:1 2628:1 3284:1 
0.3199679004498339 979:1 3384:1 3706:1 
0.3200411816945886 696:1 1616:1 1955:1 
0.2630819499380346 750:1 1202:1 1772:1 2006:1 
0.0002575219332679423 1220:1 2027:1 
1 3629:1 
0.320058407327206 429:1 3074:1 3194:1 
0.4743700772721473 1016:1 2059:1 2093:1 2116:1 3189:1 3431:1 
0.5240237508124701 2628:1 
1 2628:1 
0.2372350819905514 500:1 1839:1 1882:1 2066:1 
0.32006285407958 2766:1 2850:1 3009:1 
1 2281:1 
1 1921:1 2281:1 3307:1 
0.02275103952441122 152:1 535:1 1488:1 1781:1 2579:1 2712:1 3314:1 
0.4750250666621161 519:1 1960:1 2104:1 2919:1 3695:1 
0.09093872823912541 293:1 468:1 558:1 646:1 698:1 1204:1 1890:1 2581:1 3151:1 3313:1 3572:1 3671:1 
0.9599651094548298 3260:1 
0.6096764239921912 2919:1 
0.6211879911485256 2828:1 
1 2559:1 
1 
0.642177490643182 430:1 931:1 995:1 1102:1 1125:1 1155:1 1245:1 2405:1 2736:1 
1 816:1 2619:1 
0.7798562969538527 2637:1 2699:1 3710:1 
0.3012591967955267 816:1 977:1 2423:1 2736:1 3073:1 3202:1 
0.4293912418085274 1122:1 1130:1 1245:1 1659:1 3019:1 3053:1 3640:1 3741:1 
0.3160293573786847 1958:1 2559:1 3272:1 
0.7266730913823563 1055:1 1909:1 
0.4494489446389134 2294:1 2723:1 
0.3930503738229949 742:1 2220:1 2648:1 2865:1 3206:1 
1 1245:1 
0.03614061813126385 59:1 149:1 694:1 1023:1 1585:1 2559:1 
0.3379428645072768 1992:1 2025:1 
0.3200026606449971 42:1 1079:1 1783:1 
0.2329403630937988 1447:1 1570:1 2642:1 2876:1 2933:1 
0.4800705819800574 2784:1 3500:1 
0.646887921254964 1245:1 1921:1 2883:1 2966:1 
0.3717980037828278 367:1 858:1 1757:1 2156:1 2205:1 3658:1 
0.04185136093643012 296:1 597:1 1195:1 1241:1 1737:1 1985:1 2624:1 2857:1 3010:1 3310:1 
1 
1 
0.7242550611408227 15:1 403:1 405:1 569:1 1336:1 2268:1 3357:1 
0.2936427439660371 2585:1 2878:1 2926:1 
0.9599265663088388 2708:1 
1 1199:1 2736:1 2774:1 
0.5447220371229238 615:1 1473:1 
0.3878917059387197 1141:1 2703:1 2775:1 
1 2358:1 2999:1 
0.07817795139447065 536:1 1696:1 1946:1 2358:1 2662:1 
1 1062:1 1336:1 1728:1 2270:1 2957:1 
0.3303763520173827 2872:1 2891:1 
1 1245:1 
0.007567992946210371 1509:1 1721:1 2455:1 2662:1 2919:1 3223:1 3690:1 
0.8696355211356541 1906:1 2313:1 
1 47:1 3118:1 3234:1 
0.2804078411459973 600:1 1110:1 1318:1 
0.02841854741745541 1940:1 3487:1 3535:1 3697:1 
0.3200670353024915 1239:1 1707:1 1765:1 
0.1460904715306448 1697:1 2170:1 2196:1 2361:1 2469:1 2834:1 2855:1 2895:1 2966:1 
0.2589456244187368 266:1 313:1 1690:1 3700:1 
1 
0.5656699268359772 963:1 1090:1 2208:1 2627:1 2803:1 3688:1 3754:1 
1 47:1 1245:1 
0.337684762435908 59:1 535:1 629:1 3632:1 
0.1768400695499399 102:1 221:1 447:1 1187:1 1474:1 1800:1 1933:1 2127:1 2713:1 3075:1 3383:1 
0.2586263601185784 164:1 247:1 409:1 1856:1 3609:1 
1 1140:1 
1 
0.3131593005940039 152:1 858:1 1612:1 1882:1 2683:1 3566:1 
0.1210669519381127 47:1 506:1 1786:1 2100:1 2628:1 3007:1 3017:1 
0.04392569266678371 155:1 414:1 653:1 877:1 1800:1 1957:1 2431:1 2456:1 2707:1 2957:1 2966:1 3587:1 3761:1 
1 1800:1 
0.9600632664094187 687:1 
0.253485985743708 74:1 280:1 1596:1 1860:1 2633:1 2664:1 2725:1 
1 161:1 1886:1 3013:1 
0.3096137229017292 171:1 1277:1 2966:1 
0.3273263202296515 1050:1 2576:1 2627:1 
1 772:1 886:1 995:1 1882:1 2628:1 
0.4720704339773227 1540:1 2169:1 3246:1 
1 3048:1 3134:1 
0.08811361858095496 346:1 1159:1 1275:1 2008:1 2206:1 2619:1 
0.05853693984905704 149:1 1672:1 1932:1 2891:1 2899:1 3134:1 3543:1 
0.4255087979125453 1932:1 1966:1 
0.3876873428931776 752:1 1601:1 2021:1 2599:1 
0.9599716332707658 2836:1 
0.3320156155737085 2650:1 
1 1921:1 
0.9598815703690313 2690:1 
1 2312:1 2581:1 
0.9598325875886098 204:1 
0.2170378865152136 414:1 415:1 1883:1 2523:1 3526:1 
0.3835315540631627 1334:1 2774:1 
0.5302711410236185 1021:1 1611:1 3379:1 3479:1 3705:1 
1 406:1 2146:1 
0.5363613989312451 1129:1 2942:1 3155:1 
1 1179:1 1728:1 1921:1 
0.3219845946109409 480:1 852:1 2107:1 2405:1 2736:1 
0.09427550595292949 129:1 330:1 383:1 575:1 590:1 1161:1 1480:1 2109:1 
0.3220398226183723 2028:1 2179:1 2412:1 2628:1 
0.0971605404238393 119:1 1124:1 1803:1 2422:1 
0.9599367870836615 631:1 
0.04934127794440427 272:1 972:1 1025:1 1130:1 1418:1 1462:1 2775:1 2853:1 
0.5817730854946641 171:1 546:1 1272:1 
0.5839270069351368 751:1 842:1 845:1 1245:1 1696:1 1979:1 2120:1 2298:1 
0.7129308086931282 1696:1 2415:1 3073:1 3259:1 
-0.4341988853956831 1732:1 1882:1 2200:1 
-0.09164223762995051 305:1 754:1 816:1 2309:1 2432:1 2508:1 3480:1 
-0.04044408276296574 128:1 
-1 1611:1 
-1 1332:1 2421:1 3272:1 
-1 1090:1 
-0.4991376379479381 919:1 1684:1 
-0.6920493232857646 2144:1 2653:1 
-1 2969:1 2975:1 
-1 2270:1 
-0.276929179563241 2579:1 2652:1 2775:1 3188:1 3499:1 
-0.1857091537162398 465:1 904:1 2096:1 
-0.8442805214785652 1696:1 2635:1 2951:1 3114:1 3226:1 3235:1 3526:1 
-1 3342:1 
-0.09241357394021346 22:1 68:1 210:1 1520:1 1682:1 2193:1 3179:1 3228:1 3561:1 3609:1 
-0.3431891536276047 10:1 406:1 887:1 1632:1 2006:1 2442:1 2589:1 2606:1 3521:1 
-0.4838971549984171 498:1 905:1 1477:1 1844:1 2808:1 
-0.02026304240493258 1179:1 1201:1 1245:1 1547:1 1607:1 2281:1 2418:1 3036:1 3155:1 3331:1 
-0.7689908777463754 290:1 3031:1 
-0.6914371456795396 312:1 356:1 1480:1 3108:1 
-1 351:1 1397:1 2202:1 
-0.8043791375564292 695:1 2061:1 2957:1 
-0.6525401270320066 955:1 1180:1 
-0.0410294204852397 142:1 847:1 1097:1 1634:1 2211:1 2728:1 2768:1 3547:1 
-0.5199517710210252 1970:1 3298:1 
-1 
-0.3900823966337109 894:1 1392:1 2547:1 2966:1 3214:1 
-0.5569471352868733 931:1 1663:1 1805:1 2202:1 2332:1 
-0.1733427174701165 1644:1 2397:1 2781:1 2937:1 3168:1 3557:1 
-0.2337506677107802 1064:1 1249:1 2559:1 2902:1 3432:1 
-0.3522018243238559 1408:1 1918:1 3134:1 
-1 1431:1 
-0.7345635231772063 1453:1 2910:1 
-0.1372700197048083 351:1 606:1 1333:1 2758:1 3202:1 3247:1 3380:1 3601:1 
-1 454:1 2628:1 2961:1 3177:1 3761:1 
-0.5831381337637157 667:1 3748:1 
-0.0560454442460617 15:1 3066:1 3078:1 
-1 1179:1 1525:1 2628:1 
-0.6124128174480987 510:1 2281:1 
-0.853417381928917 2281:1 3460:1 
-0.4503652580761655 747:1 1882:1 2069:1 2257:1 
-1 262:1 
-1 971:1 
-1 
-0.2916381640961007 351:1 598:1 1098:1 1834:1 
-0.7200528159664813 2736:1 3155:1 3312:1 3466:1 3629:1 
-0.9679033456105929 1260:1 2736:1 3673:1 
-0.4386716813971259 1529:1 1777:1 1917:1 2017:1 3534:1 3578:1 
-1 1356:1 
-0.006319956322771709 1483:1 1537:1 2653:1 
-0.5198647678131373 889:1 1454:1 
-0.402765772451518 608:1 2404:1 2525:1 2878:1 3670:1 
-1 208:1 2957:1 3710:1 
-0.1980824020187519 1351:1 2178:1 2849:1 3346:1 3490:1 
-0.0393298582370646 587:1 840:1 931:1 1004:1 1047:1 1413:1 1423:1 1904:1 1971:1 2247:1 2732:1 3421:1 3568:1 
-0.2237724557425347 1302:1 3739:1 
-0.1388466861600856 529:1 1131:1 3629:1 
-0.1284778565267272 43:1 460:1 505:1 516:1 708:1 1914:1 2270:1 2482:1 2627:1 2664:1 3073:1 
-1 2009:1 3134:1 
-0.3817851686007165 81:1 198:1 1043:1 1818:1 2108:1 2628:1 3565:1 
-1 747:1 
-0.5200395400145689 179:1 2695:1 
-1 1582:1 2622:1 2686:1 
-0.1080187629915901 689:1 1039:1 1120:1 2509:1 
-0.7888916325114864 373:1 665:1 3362:1 
-1 3232:1 3272:1 
-1 747:1 981:1 1245:1 
-0.3114434999253406 1990:1 2142:1 3380:1 3742:1 
-0.4085114432834375 122:1 1825:1 2975:1 3615:1 
-0.3870074065227459 2226:1 2570:1 3202:1 
-0.4132721886763246 811:1 919:1 1631:1 
-0.2472504204123046 928:1 1047:1 1191:1 1488:1 3569:1 3605:1 
-0.13327094182857 507:1 536:1 958:1 1245:1 2227:1 2254:1 2615:1 3753:1 
-0.3143895456166299 450:1 859:1 1179:1 
-1 
-0.5537707011915706 1357:1 3071:1 3660:1 
-0.05250251578628622 338:1 372:1 1659:1 1932:1 2072:1 2627:1 2985:1 3472:1 
-0.04343683919260404 461:1 1657:1 1852:1 1938:1 2024:1 2190:1 2489:1 2737:1 2744:1 3352:1 
-0.6244484669716492 1333:1 1653:1 3344:1 
-0.1351627990168097 752:1 1769:1 2006:1 2604:1 
-0.2786853879646746 1012:1 2142:1 2775:1 
-0.3176453341493815 1626:1 2398:1 2534:1 2780:1 2861:1 3183:1 
-1 
-0.3128952680969622 887:1 2072:1 
-0.1559726794115653 1465:1 1921:1 2123:1 3033:1 3489:1 
-1 938:1 
-1 3575:1 
-0.03922743203796239 191:1 224:1 730:1 788:1 928:1 2125:1 2290:1 2509:1 2534:1 3486:1 3629:1 
-0.326322403577782 1139:1 2414:1 3002:1 
-0.2244455150153144 406:1 842:1 860:1 3637:1 
-0.4870326674628491 2281:1 3000:1 3147:1 
-1 
-0.3323425170601429 1154:1 1174:1 1553:1 2025:1 2590:1 2644:1 
-1 
-0.3607865205301998 930:1 1320:1 1542:1 1961:1 2281:1 2961:1 3247:1 
-0.6734481987661652 577:1 1336:1 2084:1 2244:1 2541:1 3259:1 
-0.26449835738002 816:1 925:1 1436:1 1572:1 
-1 542:1 551:1 1354:1 1570:1 2449:1 2620:1 2622:1 3259:1 
-1 554:1 1070:1 1140:1 3272:1 3468:1 3629:1 
-0.3466927807648139 1189:1 2811:1 2909:1 
-0.8500646885859445 406:1 931:1 1413:1 3576:1 
-0.7102473664718526 441:1 843:1 2581:1 
-0.1236205177612303 464:1 1146:1 1863:1 1974:1 2475:1 2519:1 2787:1 2944:1 3330:1 3684:1 
-0.8363484505594858 2208:1 
-0.7152455178733275 747:1 1921:1 3118:1 3152:1 
-1 1622:1 2559:1 
-1 
-0.5549824861357568 3015:1 3122:1 
-0.02952856612618076 1106:1 1232:1 1410:1 1804:1 2462:1 
-1 223:1 
-0.3408669164107761 755:1 1346:1 3134:1 3443:1 3597:1 
-0.4067631419004464 2071:1 2434:1 2854:1 
-0.09914427471288678 271:1 654:1 679:1 1049:1 1164:1 1523:1 1760:1 2775:1 3404:1 
-0.2705857764163457 47:1 1323:1 2120:1 2600:1 3033:1 
-0.3814874584377965 432:1 1100:1 1826:1 2300:1 
-0.2562170734542593 24:1 739:1 976:1 1523:1 1679:1 1696:1 2902:1 3757:1 
-0.1341491569155851 789:1 1493:1 2082:1 2432:1 
-0.2287621980225301 676:1 1936:1 3110:1 
-0.3465853700127707 835:1 2004:1 3621:1 
-0.1794974843236762 939:1 1325:1 1774:1 1800:1 2807:1 2853:1 2893:1 3073:1 
-1 2312:1 
-0.6124989042242412 621:1 1199:1 2281:1 
-0.1654896022177411 534:1 819:1 1564:1 1613:1 1695:1 1725:1 2274:1 2553:1 2966:1 3283:1 
-0.8255715270599644 266:1 3432:1 3629:1 
-0.1290511909583464 610:1 853:1 1156:1 1500:1 1828:1 2202:1 2776:1 2810:1 3257:1 3585:1 
-1 1832:1 
-0.1268889679393311 207:1 2651:1 2976:1 
-1 1915:1 
-1 
-1 2281:1 
-1 2270:1 
-1 989:1 2281:1 2628:1 
-0.2405215554227104 842:1 1259:1 2424:1 3539:1 
-0.1289956096091616 1451:1 2115:1 2220:1 2444:1 2497:1 
-0.7191571585610852 1499:1 1728:1 1806:1 1932:1 2070:1 2460:1 
-1 
-1 1245:1 3629:1 
-1 1168:1 
-0.3216313430195786 3013:1 
-0.06909909753684867 406:1 793:1 1245:1 1396:1 1511:1 2661:1 2814:1 3297:1 
-1 
-1 931:1 3259:1 
-1 1245:1 3753:1 3761:1 
-0.9996689657568054 128:1 
-0.8121929387801329 1433:1 2894:1 
-0.4455435378784469 3008:1 3530:1 3719:1 
-0.2639112009711596 1576:1 2686:1 3160:1 3413:1 
-0.7106333854385324 1232:1 2119:1 
-1 1245:1 3759:1 
-1 171:1 1459:1 
-1 1457:1 
-0.1899827103434618 143:1 373:1 1800:1 2991:1 
-1 
-1 
-1 1842:1 
-0.3189141613701208 2425:1 2867:1 3189:1 3716:1 
-0.4404357299273464 663:1 3710:1 
-0.4064216733479886 2148:1 3477:1 
-1 601:1 
-1 
-0.8869119347674851 747:1 1235:1 
-0.2138034125483509 71:1 1245:1 
-0.6932930372050136 23:1 2281:1 2771:1 
-0.4460794609353718 359:1 1800:1 2566:1 3413:1 3762:1 
-0.1420118526048122 3392:1 
-1 14:1 
-0.2308009310791108 754:1 3032:1 3162:1 3484:1 
-0.08316898851662839 635:1 995:1 
-0.02294707866395123 505:1 764:1 1212:1 1245:1 1743:1 1750:1 2793:1 3119:1 3258:1 3591:1 3599:1 
-0.2132374858138221 491:1 720:1 809:1 2035:1 3756:1 
-1 1477:1 2565:1 3017:1 
-1 
-0.7725861566707122 2028:1 3609:1 
-0.9794765626777914 1214:1 1480:1 3209:1 
-1 
-1 1570:1 
-0.01883103302267603 1392:1 2005:1 
-0.272641678711359 1668:1 1997:1 2736:1 3031:1 
-0.4971520301671331 266:1 1101:1 2164:1 2270:1 3470:1 3526:1 
-0.4000223922300614 1032:1 1844:1 2483:1 3093:1 
-0.09552956566866862 620:1 1095:1 1656:1 2198:1 3122:1 
-0.5245996303026345 191:1 603:1 3106:1 
-0.590327977407843 1392:1 1909:1 2775:1 2966:1 3521:1 3761:1 
-0.346677406822096 6:1 174:1 1948:1 
-1 1738:1 
-0.1068787850788011 1245:1 3097:1 3414:1 
-0.3272447787591206 2050:1 2475:1 3272:1 
-1 1361:1 2168:1 3753:1 
-1 1091:1 
-0.5655899743989533 852:1 1305:1 3167:1 
-1 2572:1 
-0.06836642819826304 3118:1 
-0.4435297528605442 747:1 2438:1 3682:1 
-0.06167576161322452 538:1 623:1 
-0.1902270714061714 756:1 816:1 877:1 1521:1 2686:1 2935:1 3394:1 3711:1 
-0.6114320778516291 1125:1 1185:1 1245:1 1692:1 1702:1 2261:1 3579:1 
-1 
-1 756:1 
-1 3189:1 3718:1 
-0.08237795451644428 519:1 2158:1 3103:1 
-0.09028409981901918 351:1 412:1 3156:1 3179:1 
-1 2405:1 3291:1 
-1 3134:1 
-1 535:1 
-0.1159538322357917 747:1 816:1 3003:1 3081:1 
-0.5043835870732362 15:1 847:1 
-1 1882:1 
-0.108886355252184 1729:1 2270:1 
-1 1401:1 
-0.2862703749348112 2140:1 2685:1 2921:1 3134:1 3257:1 
-0.5984175157799936 201:1 301:1 668:1 1131:1 1337:1 1744:1 1921:1 
-0.4018799583864808 2063:1 2775:1 
-0.1353351821255649 464:1 590:1 642:1 881:1 1224:1 2084:1 2776:1 2852:1 3380:1 3535:1 
-0.1680357632821306 909:1 1274:1 1333:1 2009:1 2312:1 2792:1 3131:1 3491:1 
-0.4704934044001712 563:1 2175:1 2300:1 2802:1 2974:1 
-0.2781753853414858 351:1 416:1 920:1 1803:1 1813:1 
-0.1468888472953465 911:1 1031:1 1385:1 1542:1 2202:1 2686:1 2688:1 2694:1 3311:1 3326:1 3389:1 
-0.4822253590504427 486:1 1093:1 3175:1 
-0.04208388277977843 308:1 1579:1 1943:1 2128:1 2919:1 3123:1 
-0.1460748034848126 1194:1 1310:1 1628:1 1927:1 2194:1 2201:1 3207:1 
-0.02312640546657363 10:1 639:1 892:1 1091:1 1995:1 2399:1 3095:1 3098:1 
-0.1594689261619366 1633:1 2658:1 2730:1 3134:1 
-0.2468459141670107 13:1 611:1 927:1 1032:1 1117:1 1407:1 1522:1 2126:1 2719:1 3301:1 
-1 
-0.2078738242881142 456:1 718:1 740:1 775:1 2308:1 
-0.7038482117740001 280:1 1358:1 2112:1 
-0.3445715439812812 2676:1 3088:1 3405:1 
-1 1597:1 
-0.3717293555496995 800:1 831:1 1014:1 1292:1 1696:1 
-1 
-0.4344819168729508 220:1 2916:1 
-0.4102677156344153 1895:1 2130:1 2348:1 2943:1 3559:1 
-1 542:1 
-0.5143305726158753 556:1 1800:1 2001:1 2243:1 2579:1 3193:1 
-0.02506762276901944 711:1 1333:1 1611:1 1661:1 2268:1 2509:1 2745:1 3041:1 3362:1 
-0.2854595768411806 390:1 892:1 1742:1 2137:1 2466:1 
-0.8631889382361944 2028:1 2281:1 3761:1 
-0.3790713365230582 985:1 1199:1 1833:1 1882:1 2174:1 
-0.3637686147164943 1201:1 1225:1 1336:1 1460:1 1473:1 1868:1 3227:1 
-1 3533:1 
-1 2066:1 3489:1 
-1 3339:1 
-0.1804701662386951 932:1 933:1 1105:1 1993:1 2215:1 3387:1 
-0.3945971105508889 315:1 1071:1 2205:1 3245:1 
-0.6727842951010479 300:1 981:1 1021:1 1245:1 2191:1 2198:1 
-0.04410066771324994 1525:1 1746:1 2185:1 2683:1 
-0.1317657639714484 381:1 461:1 564:1 1795:1 2211:1 2722:1 3660:1 
-0.1831139776502644 167:1 295:1 537:1 842:1 1779:1 2424:1 
-0.252683909230094 86:1 842:1 1522:1 
-0.3437109570815305 146:1 678:1 772:1 869:1 1286:1 1836:1 2124:1 2893:1 3177:1 3228:1 3475:1 
-0.8867298390562249 47:1 539:1 1472:1 2142:1 2869:1 3111:1 
-0.1063862438438952 542:1 562:1 620:1 1095:1 1909:1 1993:1 2115:1 2475:1 
-0.4846288942676898 414:1 747:1 1282:1 1363:1 2988:1 2989:1 
-0.1303807310406843 849:1 1600:1 1614:1 2020:1 2143:1 2420:1 2440:1 3094:1 3461:1 3648:1 3726:1 
-0.1577425459988686 565:1 1969:1 2638:1 3761:1 
-1 2358:1 3134:1 
-0.3902868166816185 1505:1 1931:1 2078:1 2913:1 3735:1 3749:1 
-1 133:1 
-0.2760576222369582 113:1 439:1 460:1 1236:1 1464:1 1836:1 1865:1 2209:1 2758:1 2774:1 3761:1 
-0.5497153412989881 271:1 539:1 1439:1 1620:1 2117:1 3425:1 
-1 931:1 995:1 
-0.6587375239794003 523:1 2417:1 3272:1 3660:1 
-0.2498603911298958 494:1 1136:1 1749:1 
-0.5616476287697371 1222:1 3683:1 3764:1 
-0.8075669020422076 424:1 
-1 3134:1 
-1 462:1 919:1 3120:1 3134:1 
-0.1611403265907966 581:1 641:1 2014:1 3134:1 
-0.2856286695211306 335:1 974:1 1367:1 1532:1 1847:1 
-1 
-0.4375825787140034 220:1 2980:1 
-1 1989:1 
-0.610203012726258 919:1 1621:1 2003:1 2512:1 
-0.6647793691681737 1096:1 2774:1 2856:1 3044:1 3629:1 
-0.2104521530256027 349:1 719:1 920:1 1040:1 1978:1 2055:1 2628:1 3567:1 3652:1 
-1 2559:1 
-0.2571971215448065 406:1 2367:1 2652:1 
-1 310:1 1241:1 3629:1 
-0.1488872535158919 1037:1 2312:1 2569:1 
-1 535:1 
-0.8355427139613151 1670:1 1794:1 1921:1 2528:1 
-0.2648134753648586 2210:1 2475:1 2523:1 2593:1 2774:1 3498:1 
-0.1336776770840087 2160:1 2645:1 3014:1 3276:1 
-1 2539:1 
-1 3270:1 
-0.1612204940629252 519:1 562:1 1818:1 
-0.3041666173984501 1187:1 2150:1 2888:1 3558:1 
-1 617:1 2529:1 2628:1 
-0.9173976145081701 2063:1 2999:1 
-0.6751190428931891 599:1 694:1 
-0.1766810743732199 1044:1 1099:1 3562:1 
-1 
-0.425793870167765 466:1 629:1 1199:1 1332:1 1372:1 1689:1 2142:1 2291:1 2733:1 3220:1 3395:1 3456:1 
-0.2395402094847753 1052:1 2654:1 2995:1 3401:1 3411:1 
-0.6789650121313955 778:1 842:1 
-0.4899550786412288 2203:1 2631:1 2662:1 2957:1 3226:1 3607:1 
-0.1753445118833153 160:1 502:1 1207:1 1230:1 2762:1 3301:1 3435:1 3713:1 
-0.7579758241948068 75:1 2240:1 3008:1 3753:1 
-0.5665984251042213 700:1 772:1 1278:1 
-0.4480781834111753 46:1 448:1 595:1 1483:1 1537:1 
-0.1611991219287534 1845:1 2398:1 2570:1 2627:1 3340:1 
-0.08681596664831857 1373:1 3064:1 3103:1 3236:1 
-1 2774:1 
-1 919:1 1921:1 
-1 1265:1 2306:1 
-0.219418794907374 705:1 2368:1 3222:1 
-0.3360359230422804 955:1 1911:1 1912:1 
-0.2896023892240075 981:1 1163:1 1179:1 1245:1 1853:1 
-0.9643052837722184 316:1 1245:1 1951:1 2034:1 3134:1 3264:1 3396:1 3526:1 
-0.09498106803919795 213:1 1141:1 2270:1 2320:1 2393:1 2686:1 2969:1 3535:1 3609:1 3629:1 
-0.3994731313486043 522:1 1104:1 1176:1 3478:1 
-0.9113380144628029 85:1 454:1 1299:1 1799:1 3753:1 
-0.4207146029933924 908:1 3155:1 3192:1 3313:1 
-1 1817:1 
-0.2599089686054576 2162:1 2672:1 3345:1 3768:1 
-1 419:1 
-0.2206073096762982 538:1 1800:1 3539:1 
-1 
-0.1741799519833001 647:1 1687:1 2348:1 2840:1 2871:1 2873:1 
-0.3072479117312029 747:1 884:1 1336:1 1460:1 1480:1 1811:1 2446:1 2617:1 3259:1 3639:1 
-1 
-0.1126767911428221 446:1 452:1 891:1 1295:1 1398:1 3481:1 
-1 747:1 
-1 3013:1 
-0.1139380350261354 629:1 995:1 2252:1 2698:1 3058:1 
-1 1140:1 
-0.154912242750115 1293:1 3307:1 3593:1 
-0.1839165563824279 497:1 2898:1 3307:1 
-0.09780334174696449 437:1 1336:1 2486:1 3307:1 3377:1 
-0.1342379306244608 1015:1 1727:1 2072:1 2687:1 3318:1 
-0.4972701304760331 747:1 920:1 3017:1 3134:1 
-0.9153738063980601 1245:1 1336:1 2046:1 2709:1 3017:1 3309:1 
-1 1413:1 
-0.1412038660159365 286:1 574:1 2893:1 
-0.7798338959413913 351:1 1248:1 1374:1 3259:1 
-1 931:1 3259:1 
-0.517261529881923 535:1 752:1 3262:1 3424:1 
-0.2934033863476829 2175:1 2679:1 2709:1 3285:1 
-0.7170223445449527 85:1 266:1 2082:1 2456:1 3680:1 
-0.2672637941474328 351:1 417:1 805:1 1821:1 2677:1 2686:1 3134:1 3420:1 
-0.03787176596957692 596:1 1100:1 
-1 842:1 919:1 1245:1 1806:1 1921:1 
-0.7335341767339852 59:1 1007:1 2011:1 2028:1 2220:1 2628:1 3406:1 
-0.587819386768576 1069:1 1192:1 1250:1 2147:1 2775:1 2878:1 
-1 3392:1 
-0.7169638904090387 1008:1 1048:1 2779:1 
-1 1045:1 1696:1 3226:1 
-0.1659741495559871 747:1 783:1 792:1 794:1 853:1 1232:1 3207:1 
-0.9431177266277827 1:1 
-1 
-0.004974554224818943 172:1 419:1 471:1 846:1 1153:1 2047:1 2463:1 3294:1 
-0.09272308614107878 78:1 694:1 728:1 1381:1 1697:1 2948:1 
-0.05435915229860693 562:1 568:1 907:1 1052:1 1507:1 2103:1 3030:1 
-0.7563001417732085 603:1 1283:1 1304:1 2931:1 
-0.06106973299772982 387:1 465:1 562:1 1139:1 2814:1 3204:1 
-1 
-1 
-1 
-1 
-0.5057992640029825 1373:1 1696:1 1810:1 2160:1 2914:1 3753:1 
-0.7579189393978396 1395:1 1800:1 1965:1 2311:1 2516:1 
-1 
-1 1659:1 
-1 1157:1 
-0.2328369084035871 519:1 2009:1 3727:1 
-0.2596870471025092 587:1 887:1 977:1 1166:1 1452:1 2076:1 2206:1 2622:1 2736:1 3392:1 
-1 
-0.3807806881184937 1326:1 3609:1 
-0.3816211089620424 316:1 587:1 603:1 1297:1 2368:1 
-0.2094076075028573 299:1 620:1 960:1 3437:1 
-0.2591727279968011 458:1 747:1 1179:1 1245:1 1921:1 3317:1 
-0.3086170038516857 939:1 1245:1 1282:1 1591:1 1920:1 2943:1 
-0.02497899565402345 1035:1 1941:1 2089:1 2475:1 3032:1 3325:1 3631:1 
-0.1789427090279484 47:1 310:1 481:1 2154:1 3343:1 
-0.07558871869191389 1232:1 1293:1 1419:1 2552:1 3364:1 
-1 3431:1 
-1 1308:1 1944:1 2294:1 
-1 1245:1 
-0.1579168636279866 216:1 265:1 377:1 406:1 2658:1 
-0.3256270130598656 307:1 525:1 1568:1 
-0.6417428195997618 152:1 561:1 2312:1 2619:1 3690:1 
-1 
-0.625354535682817 77:1 709:1 931:1 1855:1 2957:1 3217:1 
-1 192:1 981:1 1179:1 2736:1 2775:1 
-0.01770658111388638 108:1 994:1 2208:1 2220:1 2374:1 
-1 47:1 629:1 1370:1 2160:1 2268:1 2541:1 2736:1 
-1 2082:1 2134:1 
-1 2701:1 
-0.1689984955004626 697:1 1691:1 3530:1 3718:1 
-1 639:1 2712:1 
-1 1368:1 
-1 3434:1 
-0.9226757600125196 1312:1 1354:1 1661:1 1663:1 1894:1 2198:1 
-1 245:1 
-0.2144785835063165 838:1 995:1 1697:1 1836:1 2268:1 2683:1 2957:1 3660:1 
-0.201502347678264 1033:1 1528:1 2020:1 
-0.5122420700836594 909:1 1238:1 1325:1 2009:1 2853:1 
-0.4119005862801338 753:1 1698:1 2097:1 
-0.02699439421639847 2312:1 2550:1 3564:1 
-1 1120:1 
-1 787:1 
-0.417434306460428 160:1 239:1 1800:1 2096:1 2619:1 
-0.3056082429517056 920:1 949:1 1545:1 3709:1 3747:1 
-1 
-1 1264:1 1666:1 1799:1 
-0.4364353673624937 97:1 139:1 1374:1 1433:1 2117:1 
-0.3057484132316779 919:1 959:1 1069:1 1593:1 1823:1 1921:1 2588:1 3179:1 
-0.5763384932282944 132:1 406:1 1886:1 1898:1 2847:1 3375:1 
-1 2650:1 3512:1 
-0.822501967018108 791:1 1001:1 1740:1 
-0.962526125167832 10:1 518:1 1245:1 1601:1 2289:1 2828:1 3259:1 3349:1 
-0.3141243581116287 2095:1 2097:1 
-1 
-0.09960076925014917 271:1 351:1 571:1 995:1 1245:1 1343:1 1558:1 2436:1 3466:1 
-1 
-0.3441895890954085 815:1 1080:1 2206:1 3584:1 3601:1 
-1 876:1 1800:1 
-0.09306174855183275 220:1 1229:1 2564:1 2893:1 3707:1 
-1 1069:1 
-0.6809384344582634 266:1 2283:1 3256:1 
-0.5538524880767093 757:1 3660:1 3675:1 
-0.7906609441080361 363:1 729:1 1111:1 3664:1 3667:1 
-0.6454616034820673 266:1 354:1 2964:1 3660:1 
-0.874302513184909 1369:1 1659:1 
-1 1922:1 2628:1 
-0.03324483646965892 968:1 1047:1 1245:1 1567:1 2879:1 2898:1 3134:1 
-0.7234231510772174 1282:1 1363:1 1492:1 1524:1 2458:1 
-0.6492818789914089 164:1 1724:1 
-0.003227258428355292 351:1 694:1 1047:1 1120:1 1600:1 1713:1 2133:1 2278:1 2705:1 3485:1 3607:1 
-0.296228800618166 639:1 1106:1 1109:1 2462:1 3523:1 
-0.3237000710145952 1157:1 2173:1 2645:1 2821:1 
-0.3316213778542161 522:1 539:1 625:1 639:1 816:1 1359:1 1916:1 2458:1 2851:1 3073:1 3111:1 
-0.3299414662636501 547:1 1793:1 2139:1 3056:1 3413:1 
-0.1054748626212611 10:1 625:1 2072:1 2361:1 
-0.7531690990933693 10:1 816:1 2139:1 2523:1 2587:1 3189:1 
-0.2073476132251577 519:1 546:1 852:1 2024:1 2043:1 2198:1 3563:1 
-0.5696739524194629 766:1 2775:1 2807:1 
-0.03702659123852861 1214:1 1245:1 1773:1 2160:1 3100:1 3102:1 
-0.5200545326418574 425:1 1022:1 
-1 3535:1 
-0.7746470354133168 747:1 3730:1 
-1 
-1 1557:1 
-0.2505538326832918 495:1 2970:1 2989:1 3134:1 
-0.2535162724903529 108:1 1303:1 2184:1 2552:1 
-0.1481589886618077 29:1 1696:1 1869:1 2597:1 3111:1 3120:1 
-0.3466125937263775 219:1 693:1 2929:1 
-0.9958662996855514 10:1 343:1 3134:1 
-0.3570571110203858 10:1 1146:1 1335:1 2523:1 2547:1 3600:1 3724:1 
-0.148417771758287 95:1 931:1 1330:1 3033:1 3279:1 3693:1 
-0.4353948361915979 1445:1 1625:1 2139:1 2450:1 2523:1 3609:1 3660:1 
-0.8474048305502181 1173:1 3124:1 
-0.4997925998727685 1335:1 1699:1 
-0.5198969930975382 657:1 1784:1 
-0.5001355157049159 3134:1 3244:1 
-0.04676393473746406 653:1 783:1 1100:1 1797:1 2033:1 2969:1 3395:1 3685:1 
-0.8943952274020094 803:1 970:1 1245:1 
-0.2404392239187941 10:1 431:1 931:1 2816:1 3492:1 
-0.09687039966652522 1:1 467:1 573:1 624:1 2035:1 
-0.3359675258733241 1069:1 2775:1 2975:1 3734:1 
-1 1384:1 
-0.01520211514323898 1071:1 1401:1 1746:1 2761:1 3113:1 3593:1 
-0.5459236063824211 256:1 2111:1 
-0.4733660071231306 1921:1 2268:1 2270:1 2429:1 
-0.3319490073748267 802:1 903:1 947:1 1932:1 2675:1 
-1 2736:1 
-0.2612224759527324 747:1 964:1 1179:1 1332:1 2243:1 2559:1 2804:1 3362:1 
-0.5732085934466765 205:1 879:1 1772:1 2607:1 3426:1 3705:1 
-0.3460066441424561 368:1 2283:1 2628:1 3335:1 
-1 
-0.3759219945547426 249:1 1055:1 2172:1 2953:1 
-1 2582:1 2775:1 
-0.1063548750068072 124:1 883:1 2449:1 2775:1 
-0.4859807163585617 371:1 1273:1 1323:1 2628:1 3031:1 
-0.08877096937819096 658:1 756:1 1196:1 1991:1 2998:1 3061:1 3137:1 3681:1 
-0.7611020878833149 469:1 966:1 1245:1 1800:1 3526:1 
-1 1921:1 
-0.2694097826716931 7:1 1351:1 1460:1 3104:1 3132:1 
-1 395:1 414:1 
-1 2432:1 2736:1 2966:1 
-0.02053299972172404 902:1 1611:1 2268:1 
-1 3382:1 
-0.1686372713821315 1046:1 1861:1 2167:1 2458:1 2591:1 
-0.2846193656206207 315:1 1921:1 2020:1 2192:1 3118:1 
-0.09993084368032398 15:1 21:1 1093:1 1403:1 1811:1 1965:1 1994:1 2334:1 2755:1 
-0.4626018977543377 841:1 2709:1 2843:1 
-0.1036530197748894 782:1 2044:1 2354:1 3217:1 
-0.01483507386193464 589:1 964:1 1245:1 1692:1 1734:1 1840:1 2864:1 
-1 867:1 
-0.03333142529719339 132:1 726:1 1881:1 2344:1 2638:1 3370:1 
-1 726:1 1800:1 
-1 2683:1 3134:1 
-0.03806763221901882 836:1 931:1 995:1 1427:1 2281:1 3707:1 3745:1 
-0.4618387452847776 1910:1 2500:1 
-0.1163038399271236 67:1 891:1 1885:1 1910:1 
-1 
-1 1085:1 
-1 681:1 
-0.2347047513956549 1414:1 1696:1 2884:1 3134:1 3256:1 3359:1 3450:1 3657:1 3763:1 
-1 244:1 
-0.3205713494635741 1044:1 3589:1 3642:1 
-1 1240:1 2769:1 
-0.4828740811797609 406:1 731:1 894:1 896:1 1909:1 2217:1 3622:1 
-0.1943276836280592 135:1 519:1 1869:1 2424:1 
-0.6598245359557042 540:1 1331:1 2373:1 3681:1 
-0.346727309108769 736:1 2842:1 3040:1 
-0.217636490520796 886:1 937:1 955:1 1374:1 2046:1 2975:1 3285:1 3409:1 
-0.3680179684021164 378:1 793:1 1245:1 1313:1 1444:1 2350:1 2657:1 2919:1 3430:1 
-0.8956504145204313 303:1 1800:1 2559:1 2735:1 2953:1 3362:1 3660:1 
-0.4296252057464464 137:1 1284:1 1332:1 1800:1 1814:1 1882:1 2333:1 
-0.3946371046474 2145:1 3613:1 3636:1 
-0.9892089089821278 542:1 628:1 1769:1 1909:1 
-0.1732905327887828 195:1 353:1 662:1 1624:1 3172:1 3507:1 
-0.112142986668019 38:1 559:1 700:1 747:1 1558:1 2046:1 2054:1 3134:1 3412:1 3730:1 
-0.01721642374441591 502:1 752:1 1522:1 2068:1 2783:1 3660:1 3710:1 3754:1 
-0.2991448961155169 412:1 904:1 1659:1 
-0.3465541128941521 345:1 1318:1 1356:1 1466:1 1975:1 2341:1 2870:1 2930:1 3659:1 
-0.1474984367803858 72:1 245:1 752:1 2208:1 2313:1 
-0.4606895617386842 73:1 1354:1 1757:1 1840:1 1921:1 2105:1 
-0.1758982325026877 1042:1 1665:1 1871:1 1999:1 2161:1 2506:1 2770:1 3538:1 
-0.04014818709165025 211:1 
-0.6993324320678886 516:1 676:1 
-1 351:1 
-0.5055237212451656 1009:1 1686:1 2276:1 3165:1 
-0.2268585246041006 852:1 894:1 3446:1 3528:1 
-0.281284112062964 546:1 996:1 1132:1 1245:1 2430:1 3577:1 3617:1 
-1 1933:1 3495:1 
-1 1199:1 2391:1 
-1 1245:1 
-0.1788369822374866 310:1 886:1 1185:1 1332:1 1859:1 2048:1 2662:1 3690:1 
-0.1521918142404989 358:1 776:1 1085:1 1448:1 1988:1 2198:1 2625:1 3240:1 
-1 752:1 1083:1 2359:1 2775:1 
-0.1804582172843736 1223:1 2016:1 2626:1 3183:1 
-1 3013:1 
-0.3304679554938399 1517:1 1639:1 1662:1 3013:1 
-0.3157448562690256 622:1 1308:1 3013:1 
-1 5:1 143:1 1823:1 
-0.4358616426121782 3221:1 
-0.2659231469872917 1999:1 2483:1 3660:1 
-0.6832540829539469 995:1 1335:1 2281:1 2574:1 2684:1 3272:1 3660:1 
-0.07424913544991418 373:1 
-0.2247426358326679 541:1 2072:1 2686:1 3537:1 
-1 1245:1 
-0.9578742993269221 338:1 
-1 3259:1 
-0.2599551468725426 509:1 3096:1 3296:1 3755:1 
-1 519:1 2313:1 2628:1 3134:1 
-0.0928214221046695 37:1 423:1 1098:1 1333:1 1346:1 1400:1 1696:1 2268:1 2281:1 2640:1 2990:1 3130:1 3457:1 3536:1 
-1 1921:1 
-0.1039636662383067 291:1 362:1 530:1 684:1 737:1 785:1 1887:1 3277:1 3410:1 3703:1 
-1 211:1 
-0.2961678296222131 351:1 694:1 1634:1 1906:1 1919:1 
-0.1630320690940654 271:1 400:1 2202:1 2653:1 3079:1 3254:1 3438:1 
-1 
-0.6568500998865529 237:1 603:1 3178:1 
-0.4168966145975086 237:1 3205:1 3625:1 
-0.08479572656587885 519:1 1831:1 2088:1 2089:1 2467:1 2519:1 3694:1 
-0.1770082839092808 440:1 1280:1 3134:1 
-0.2456072502515068 125:1 326:1 880:1 886:1 1288:1 1303:1 1571:1 1657:1 1957:1 3447:1 
-1 2683:1 2957:1 
-0.09447847085702024 191:1 489:1 571:1 821:1 1420:1 1455:1 1908:1 2113:1 2838:1 2920:1 2957:1 
-0.1884062913984489 978:1 1120:1 2006:1 2957:1 3120:1 3629:1 
-0.1300003933191332 474:1 578:1 1083:1 1637:1 1678:1 1863:1 2268:1 2830:1 2957:1 3229:1 3281:1 
-0.4031228060583997 816:1 934:1 2450:1 2474:1 3134:1 3660:1 
-0.1913513964356084 105:1 1242:1 2202:1 2801:1 2816:1 
-0.1944271362257734 152:1 454:1 635:1 2562:1 2816:1 
-0.1038318004959817 496:1 816:1 986:1 2622:1 3006:1 3118:1 3752:1 
-0.9763800982898173 173:1 361:1 2234:1 2268:1 2492:1 3052:1 
-0.03665991977335464 338:1 865:1 1424:1 1696:1 2922:1 3527:1 3690:1 
-0.007793005718875269 879:1 992:1 1965:1 3392:1 3690:1 
-0.8914225331417821 1552:1 2014:1 2957:1 3134:1 
-1 3134:1 
-0.2672373854185367 1145:1 1442:1 1617:1 2509:1 3496:1 
-0.204464650773638 10:1 47:1 676:1 1162:1 1747:1 1886:1 2371:1 3244:1 
-0.2777292059646877 725:1 995:1 
-1 2398:1 
-0.07219730548278523 110:1 815:1 1673:1 2207:1 2547:1 3013:1 3488:1 
-0.8333794972097044 815:1 858:1 1396:1 
-0.4452655863287231 232:1 815:1 2538:1 3073:1 3429:1 
-0.155460595374269 173:1 201:1 289:1 454:1 1440:1 2957:1 3004:1 3521:1 3586:1 
-0.6041228728743445 37:1 1140:1 1758:1 2208:1 3073:1 3216:1 3221:1 
-1 2936:1 
-0.1312372080339766 945:1 1216:1 1813:1 1854:1 2709:1 3749:1 3761:1 
-0.04139386199435799 549:1 783:1 877:1 1787:1 2281:1 3377:1 
-0.1612164884869106 351:1 1068:1 1181:1 1332:1 3241:1 3459:1 
-0.107581721151316 137:1 519:1 903:1 1072:1 1913:1 2206:1 2331:1 2596:1 
-0.3307860820131175 350:1 382:1 765:1 1054:1 1152:1 
-1 3133:1 
-1 3594:1 
-0.3809649759217745 137:1 2239:1 2415:1 2602:1 2639:1 3492:1 
-0.1768168872997955 235:1 694:1 1018:1 2120:1 2257:1 2635:1 3272:1 
-1 266:1 603:1 2036:1 3438:1 
-0.5199570473389 1602:1 2532:1 
-0.187609232754928 931:1 1015:1 1060:1 1234:1 1332:1 2706:1 3134:1 3337:1 
-0.4353497262508683 421:1 559:1 3756:1 
-0.05312343518774593 69:1 79:1 125:1 188:1 723:1 1392:1 1643:1 2193:1 2202:1 2390:1 2608:1 2966:1 3072:1 3292:1 
-0.7716253458645344 249:1 1722:1 2204:1 3174:1 
-0.9847263468795286 1960:1 3059:1 
-1 1625:1 2591:1 
-0.1855102512036006 2147:1 2426:1 2865:1 3757:1 
-0.7814276443634481 47:1 351:1 2592:1 3111:1 
-0.1044658110269335 351:1 993:1 1373:1 1510:1 1555:1 2664:1 2760:1 2814:1 2883:1 3361:1 3596:1 
-0.3548608384175158 575:1 1718:1 1806:1 2159:1 2559:1 3401:1 
-0.0932373369535346 461:1 542:1 1250:1 1950:1 2886:1 3259:1 3292:1 3646:1 
-0.520032569721496 185:1 2823:1 
-0.6624350816936976 752:1 842:1 1350:1 2135:1 2559:1 
-0.09109006011653148 155:1 394:1 1364:1 2110:1 2238:1 2277:1 3629:1 
-0.2450646287918933 57:1 406:1 868:1 1869:1 2206:1 2311:1 2921:1 3017:1 3691:1 
-0.8680907846645246 1921:1 2293:1 3118:1 
-0.9980135799757219 3123:1 
-0.1523474369558626 214:1 538:1 931:1 2335:1 2360:1 
-0.3845724905181453 88:1 1697:1 1745:1 2322:1 
-0.2661213236218732 280:1 1778:1 2183:1 2250:1 2962:1 3033:1 3502:1 
-1 2479:1 
-1 1404:1 
-0.2565096624690886 47:1 995:1 1953:1 2241:1 3306:1 
-0.9658480581369758 1592:1 3104:1 3625:1 
-0.03036574139669071 667:1 918:1 2410:1 3121:1 3539:1 
-1 707:1 1245:1 1921:1 
-0.007232890619101952 25:1 1345:1 1659:1 2069:1 2165:1 2283:1 2913:1 3526:1 
-0.5199286154006867 854:1 1615:1 
-0.3100300742787249 351:1 496:1 2686:1 2897:1 3022:1 3069:1 3455:1 
-0.2828602799810075 1088:1 2662:1 3609:1 
-0.1987906112167246 15:1 2117:1 3629:1 
-0.5656931440536294 1570:1 2093:1 2651:1 3067:1 
-0.09353252515495011 546:1 2651:1 3443:1 3672:1 
-1 2301:1 
-0.4623879210120937 816:1 1068:1 1069:1 2509:1 2860:1 
-1 1332:1 
-0.2512259124822253 1120:1 1346:1 2041:1 2480:1 
-0.3621950372988417 519:1 759:1 1245:1 1728:1 2641:1 2883:1 3134:1 3625:1 
-0.6105584666544939 266:1 2259:1 2300:1 2539:1 3134:1 3155:1 3362:1 
-1 3687:1 
-0.3767985746047408 1197:1 1434:1 1446:1 2224:1 
-0.522460995051814 747:1 1245:1 1752:1 2559:1 2996:1 3073:1 3494:1 3657:1 3754:1 
-0.3953565660615314 83:1 202:1 1081:1 1178:1 2022:1 
-1 3261:1 
-0.1655942364720513 1150:1 1836:1 1906:1 2065:1 3134:1 3509:1 3609:1 
-0.8821416149398115 1245:1 2081:1 3234:1 
-0.5199895808438691 268:1 3702:1 
-1 
-1 
-0.5034294354150298 539:1 647:1 895:1 2881:1 3612:1 3752:1 
-0.2393017661445831 1038:1 1147:1 1716:1 2974:1 
-0.1966769583462707 522:1 1815:1 2974:1 
-0.3364080525746148 863:1 1050:1 1789:1 2576:1 3134:1 3445:1 
-0.1450251004196622 1059:1 1228:1 1516:1 1780:1 2125:1 2226:1 2281:1 3202:1 
-0.9677752496070811 351:1 2971:1 
-0.408421676540546 1245:1 1577:1 2300:1 2686:1 2974:1 3003:1 
-0.06930168231129984 338:1 984:1 2263:1 
-1 
-0.2285267410864411 1094:1 1645:1 2536:1 2546:1 2614:1 
-1 137:1 535:1 931:1 975:1 2686:1 
-0.3108289780386794 308:1 1179:1 2219:1 2442:1 3721:1 
-1 3307:1 
-0.05738413133978079 761:1 1392:1 1393:1 1772:1 3017:1 3307:1 
-1 3307:1 3362:1 
-0.4010402843692346 1056:1 3307:1 
-1 3050:1 
-0.003567947779302693 283:1 1413:1 1888:1 
-0.5199685789449081 16:1 3634:1 
-0.387178499560792 403:1 406:1 516:1 762:1 1193:1 1380:1 1921:1 2409:1 2789:1 
-0.08723973263692607 585:1 1069:1 1805:1 2501:1 2688:1 
-0.01000425295958291 931:1 1170:1 1576:1 2497:1 2565:1 2667:1 2897:1 3122:1 
-0.2483152787827591 732:1 956:1 1941:1 2242:1 2798:1 2846:1 3073:1 3134:1 3481:1 3705:1 
-0.3731317093583947 155:1 816:1 3531:1 
-0.1600369342865757 1645:1 2546:1 3431:1 
-0.08005599704193456 1332:1 1766:1 2543:1 2946:1 3134:1 
-1 
-0.9237882904023131 338:1 
-0.9136687151082086 347:1 1304:1 1596:1 3362:1 
-1 1898:1 3107:1 
-0.1048328390626563 408:1 603:1 1180:1 1752:1 2160:1 2365:1 2825:1 
-0.08233324582748412 2437:1 2645:1 
-0.02038822617027081 329:1 805:1 1245:1 2020:1 2477:1 2541:1 
-0.06804512240101039 266:1 436:1 639:1 1633:1 1842:1 2303:1 3238:1 3739:1 
-0.1541493972262368 10:1 344:1 1489:1 1806:1 2270:1 
-0.4062987018269841 852:1 2184:1 2864:1 
-1 143:1 351:1 
-0.7548347602083524 727:1 2043:1 
-1 751:1 
-1 1036:1 1252:1 
-0.3205304445314398 469:1 639:1 994:1 1113:1 1800:1 2395:1 3588:1 
-0.9856200093891315 907:1 
-1 
-0.04333849393353174 852:1 1267:1 2523:1 2712:1 2984:1 
-1 639:1 
-0.2119511394265394 639:1 1766:1 2137:1 2211:1 
-1 539:1 895:1 3246:1 
-0.4854850437227834 2100:1 2935:1 
-0.4525202158728907 449:1 1185:1 1314:1 1696:1 2139:1 2664:1 2885:1 
-1 475:1 
-0.1457682294361698 62:1 89:1 1392:1 2030:1 2351:1 2957:1 3203:1 
-1 1635:1 
-0.3466058299285656 392:1 998:1 1011:1 
-0.2842037378788894 285:1 1171:1 2972:1 3065:1 3148:1 3718:1 
-0.6914146646377278 1675:1 2241:1 2859:1 3134:1 
-0.3231499835543867 152:1 694:1 866:1 1432:1 1906:1 2043:1 3012:1 3665:1 
-0.3300281986610697 504:1 572:1 2214:1 
-0.4315821819192631 312:1 1002:1 1319:1 2066:1 2117:1 
-1 1549:1 
-0.005926162128671004 428:1 647:1 3088:1 
-1 3469:1 
-0.5199303900851832 2345:1 3215:1 
-0.2240994195824524 706:1 801:1 833:1 1469:1 2221:1 2862:1 3518:1 
-1 1757:1 
-0.03715506519685863 2311:1 
-0.2324565616045201 424:1 546:1 1658:1 2313:1 2356:1 2645:1 3651:1 
-1 1442:1 2128:1 2163:1 
-1 
-1 
-0.2272450371145854 271:1 921:1 1800:1 1809:1 2080:1 2148:1 2202:1 2415:1 2471:1 2523:1 2786:1 3082:1 
-0.4342372695248684 671:1 1849:1 1882:1 
-0.2002373218981869 2386:1 3307:1 3720:1 
-0.2078597074927322 1857:1 2089:1 2281:1 3007:1 
-0.3570194860782862 103:1 1332:1 2961:1 3017:1 
-0.9979400735337043 1525:1 2868:1 
-1 10:1 1382:1 1497:1 2421:1 2828:1 3362:1 
-0.5475843847245444 2142:1 
-0.1051263365274725 1677:1 2072:1 
-0.5545538166332502 652:1 2765:1 
-0.4858789278983798 1245:1 1728:1 2980:1 2987:1 3451:1 3582:1 
-0.7136073784596144 538:1 1480:1 2402:1 
-0.2579235470628309 1274:1 2346:1 2664:1 2968:1 3362:1 
-0.2583473014683334 586:1 2336:1 2593:1 
-0.07542462236460126 50:1 111:1 1219:1 1477:1 2198:1 2404:1 2475:1 2944:1 2993:1 
-0.09801868089763414 1417:1 1440:1 1933:1 2689:1 2944:1 3045:1 3289:1 3750:1 
-1 1069:1 1921:1 2281:1 
-1 1100:1 
-0.7640077341797973 1241:1 1550:1 2774:1 3195:1 
-0.1260253535640582 87:1 126:1 323:1 551:1 1522:1 1946:1 2181:1 2413:1 
-0.05040734708624639 393:1 860:1 1397:1 2206:1 
-0.02335650508797118 165:1 365:1 472:1 995:1 1676:1 1731:1 1800:1 1818:1 1891:1 1933:1 2168:1 2478:1 3134:1 3467:1 
-0.4786064809964773 1749:1 
-0.3115227369531325 690:1 844:1 931:1 1749:1 
-1 1268:1 1603:1 
-0.378274905164893 1122:1 1627:1 2244:1 2772:1 3219:1 3655:1 3741:1 
-0.4038916441427339 1232:1 1950:1 2165:1 2594:1 
-1 2628:1 
-0.01719954686419218 1354:1 1949:1 2732:1 2736:1 3177:1 3366:1 3392:1 3510:1 
-0.9640944160983249 1921:1 2229:1 2759:1 3008:1 
-0.2844717316971863 280:1 874:1 2385:1 3047:1 
-1 1245:1 
-0.925360593359011 744:1 1052:1 1596:1 3532:1 
-0.519835470253056 1513:1 2858:1 
-0.8400036120570197 3303:1 3438:1 
-0.5198740068373826 828:1 1218:1 
-0.6497114941922559 1921:1 2179:1 2270:1 3415:1 
-1 917:1 2268:1 3526:1 
-1 
-1 2645:1 
-1 393:1 461:1 747:1 1696:1 
-0.2679639710625304 2268:1 2342:1 2573:1 
-0.5243239626644686 2736:1 3739:1 
-0.2681349750039604 62:1 2281:1 2736:1 2832:1 
-1 47:1 1362:1 
-1 1306:1 
-0.132228598632009 988:1 1696:1 2270:1 2974:1 3184:1 
-1 2270:1 
-0.008674526026348554 310:1 830:1 1206:1 2069:1 2083:1 2473:1 3343:1 
-0.2242188551408962 572:1 1173:1 1332:1 
-0.3504830835147407 1045:1 1055:1 1280:1 1336:1 1800:1 2559:1 3570:1 
-0.1271502600998893 931:1 2283:1 2504:1 
-0.1971436740527123 36:1 1047:1 2740:1 2743:1 3761:1 
-0.1121037144257547 15:1 514:1 
-0.04320229764487624 15:1 315:1 808:1 1052:1 1874:1 2545:1 2715:1 
-1 15:1 
-0.1123749993150206 15:1 3211:1 
-0.1120837789684438 15:1 3251:1 
-0.307190242970265 15:1 1263:1 2559:1 2835:1 3660:1 
-1 15:1 1214:1 2883:1 
-0.2878345043967783 2197:1 2533:1 3562:1 
-0.05894076135297824 240:1 278:1 644:1 1308:1 1336:1 2129:1 3169:1 3192:1 3246:1 
-0.1792050475868099 239:1 1328:1 1808:1 2268:1 2547:1 2908:1 
-0.7045402225972774 3134:1 3493:1 
-0.4844518155888182 17:1 1477:1 2816:1 
-0.1462775581604647 427:1 539:1 562:1 633:1 2283:1 3259:1 3722:1 
-0.01646078258723873 252:1 455:1 1065:1 1898:1 2570:1 3116:1 
-0.5118124054076405 1047:1 1798:1 2647:1 
-1 
-0.003520959037120051 1170:1 1245:1 1578:1 1973:1 2242:1 2809:1 2997:1 
-1 2710:1 
-1 3221:1 
-0.01949198287519491 253:1 888:1 1134:1 1463:1 1901:1 2384:1 2816:1 2918:1 3255:1 3513:1 
-0.05052050309780345 196:1 351:1 380:1 951:1 1245:1 2281:1 2517:1 2628:1 2864:1 
-0.06318805016247164 519:1 525:1 1728:1 1987:1 2472:1 
