svm_type c_svc
kernel_type linear
nr_class 2
total_sv 2270
rho -0.456303
label 1 0
probA -0.556925
probB 0.0118275
nr_sv 1159 1111
SV
2.012070348980539 3147:1 
0.5435254785357023 1756:1 
1.066885631582518 1855:1 2329:1 3299:1 
0.4582809379036009 148:1 157:1 1782:1 2027:1 2075:1 2112:1 3906:1 
0.1248500405473005 2409:1 3611:1 4721:1 
0.4912943303928582 851:1 1564:1 2683:1 2961:1 4481:1 
0.2718097263883705 1740:1 3714:1 
5.069268226709618 1271:1 
0.6667122639589675 421:1 1097:1 2377:1 4687:1 
0.271869162663038 5074:1 5947:1 
10 3642:1 4979:1 
2.785239512273878 761:1 3406:1 5881:1 
10 
0.2717658601244207 1172:1 4224:1 
2.991254232298207 1101:1 2329:1 3082:1 3364:1 
0.4924987097689511 1974:1 3757:1 4002:1 4309:1 4366:1 4442:1 5080:1 5748:1 
3.589616871260737 2705:1 
0.1339389726613436 471:1 2843:1 
10 1937:1 2112:1 
0.1760547484907641 156:1 332:1 1144:1 2851:1 2872:1 3082:1 5103:1 
2.415818865278056 5772:1 
2.039811523754629 578:1 1936:1 2434:1 3381:1 5136:1 
0.9629857328228619 3944:1 5304:1 
1.45682095963863 1937:1 2611:1 2812:1 3008:1 4401:1 
0.236616007352722 676:1 1211:1 1508:1 1685:1 1791:1 1904:1 2278:1 2878:1 5946:1 
9.623747442458068 982:1 4991:1 
8.800432031335768 3874:1 
0.7347153073792564 2897:1 5016:1 5056:1 
0.1181208252638522 492:1 2133:1 3394:1 4391:1 4435:1 4785:1 
0.136188955783397 1210:1 1415:1 1921:1 3685:1 
0.4941824662712134 177:1 633:1 1805:1 2824:1 2843:1 3630:1 
0.3808272650648795 422:1 1192:1 1340:1 2386:1 3190:1 3864:1 5116:1 
0.1812050455830001 1683:1 4259:1 4807:1 
0.5625714780663926 1545:1 4206:1 4494:1 5381:1 
8.179273187150601 1750:1 2329:1 2984:1 3419:1 
0.04179838639349334 125:1 1872:1 4293:1 
0.1983810923346355 1147:1 1570:1 2537:1 2893:1 4335:1 4796:1 4951:1 5402:1 5729:1 5911:1 
0.5433651932858742 395:1 
0.4561115185764147 254:1 2758:1 3009:1 4206:1 4641:1 
0.4856898490224464 635:1 1139:1 1332:1 3427:1 4508:1 
0.2400063818424928 4664:1 
0.2510588386443885 2533:1 4488:1 5242:1 
0.03980705102300378 1844:1 2063:1 4728:1 5945:1 
0.7444163843936169 1103:1 1937:1 3421:1 4851:1 
0.271846319878449 3208:1 3472:1 
0.135999673873287 776:1 1050:1 1175:1 2145:1 2923:1 3927:1 
0.02040859495477849 277:1 1302:1 1852:1 3475:1 
0.7084814552814886 5642:1 
0.9014624838096665 1988:1 4485:1 
0.251225621136659 889:1 1065:1 1518:1 2215:1 2331:1 2465:1 3412:1 
3.38197938388256 4641:1 
0.1491904279720142 407:1 1937:1 2074:1 2344:1 2965:1 3008:1 3115:1 4612:1 4674:1 5379:1 
0.1798371751163935 407:1 716:1 2369:1 2899:1 4255:1 5369:1 
10 
0.3382403433692452 492:1 781:1 2123:1 2843:1 3184:1 5510:1 5768:1 
0.7583003435788053 422:1 1750:1 5858:1 
10 
0.1812936301279748 1495:1 2983:1 5026:1 
0.5846103040178068 655:1 1373:1 3870:1 4206:1 4650:1 5832:1 
0.2447233791393089 554:1 1425:1 1520:1 2272:1 2667:1 3147:1 3681:1 3731:1 3969:1 5002:1 
0.2811615928623851 1224:1 2156:1 4880:1 
5.277241478845839 1133:1 4796:1 
0.2649883712904722 2906:1 3007:1 3295:1 4848:1 5182:1 5700:1 
0.9274151717000065 805:1 3554:1 3592:1 4206:1 4245:1 4803:1 
1.765405423674025 422:1 1005:1 1576:1 1818:1 1937:1 2175:1 4724:1 5313:1 
1.523407013950163 1441:1 
10 
10 
1.031949813548041 1139:1 
10 2161:1 
0.07813375850016553 5:1 781:1 5091:1 
0.3827993654201517 54:1 422:1 850:1 2112:1 2789:1 2903:1 4268:1 4869:1 5399:1 
0.09678002766233132 1890:1 2156:1 4254:1 4363:1 4669:1 
10 3364:1 
1.829714916282142 5377:1 5810:1 
0.02411386136351811 364:1 489:1 1461:1 3176:1 4329:1 4460:1 5461:1 
1.151491200648137 3666:1 4801:1 5541:1 
0.05052958859465705 2309:1 4267:1 5141:1 5862:1 
2.616386941816605 518:1 
1.036588481256746 422:1 546:1 1616:1 1900:1 2894:1 3465:1 4791:1 4806:1 
10 2271:1 
1.309525491811112 1296:1 2681:1 2736:1 2975:1 3062:1 3757:1 4940:1 
1.308648651657414 2951:1 5456:1 
0.6668384057875736 1937:1 2394:1 3318:1 4097:1 
0.2110298092090342 1668:1 1720:1 2019:1 4126:1 4442:1 4777:1 4871:1 5388:1 5562:1 
1.506440593339437 3406:1 3676:1 
0.6457249776477816 1301:1 3101:1 4459:1 
0.543376212552081 3458:1 
0.4286991871983967 21:1 1481:1 3244:1 3356:1 3405:1 
5.243122651654006 982:1 2450:1 4206:1 
0.5433835444819436 4121:1 
0.208234029587541 40:1 498:1 1271:1 1302:1 1750:1 2329:1 2544:1 3237:1 3828:1 4562:1 
1.356492833224779 4206:1 5351:1 
0.09834034670933371 257:1 951:1 2961:1 3861:1 4015:1 4274:1 
0.5433153206970835 2106:1 
9.498133914014254 1937:1 2450:1 4453:1 4783:1 
10 
2.543282445324659 478:1 
0.2716777103736533 4418:1 4444:1 
0.005386012254668862 297:1 767:1 1284:1 1937:1 2577:1 3099:1 3725:1 
10 
2.378523983924811 1577:1 1750:1 2209:1 3449:1 
1.146141124741876 389:1 495:1 2271:1 3738:1 3874:1 4560:1 5027:1 
1.356458376076303 3855:1 4206:1 
0.543564359204082 4537:1 
10 2851:1 
0.09483081250812342 394:1 620:1 1124:1 3008:1 3082:1 4132:1 
1.219197107436586 165:1 3642:1 4524:1 
0.2569657358633362 116:1 1257:1 1482:1 2479:1 2516:1 2695:1 2765:1 5041:1 5901:1 
1.352744327208659 2329:1 3310:1 4156:1 5108:1 
0.5435014945244611 1632:1 
0.5434631471220887 798:1 
10 1708:1 
0.5433566720404089 4333:1 
10 
0.2380521879439025 371:1 819:1 1719:1 2115:1 2690:1 3197:1 4036:1 4863:1 5127:1 5388:1 
5.288039037353687 422:1 1962:1 
0.2779459061149875 3946:1 
0.2520085392555351 564:1 1084:1 1094:1 1431:1 2117:1 2300:1 2797:1 3396:1 3539:1 3828:1 
0.2207013799796393 1467:1 3233:1 3360:1 3539:1 3624:1 3785:1 3903:1 5145:1 
0.8920142838135972 811:1 1181:1 1368:1 1750:1 1937:1 4100:1 4651:1 4764:1 
10 440:1 1572:1 3532:1 
2.229336657597715 219:1 1160:1 1974:1 2497:1 3592:1 4510:1 
0.7493412956560772 422:1 676:1 1160:1 1937:1 4592:1 
0.5434213895731618 16:1 
2.036916484958914 4879:1 
9.700281350620505 5921:1 
0.6723218916655801 451:1 2996:1 
0.2722318557376496 440:1 760:1 1612:1 1937:1 3025:1 4100:1 
10 4569:1 
0.1150610267583137 341:1 5526:1 
10 
0.2718214161323187 1080:1 1734:1 
10 
1.567451429747653 49:1 148:1 297:1 655:1 1144:1 
0.7374502731342211 80:1 1533:1 3798:1 
0.9307281645916874 1289:1 1302:1 2430:1 5042:1 
2.000000000000001 857:1 1042:1 
0.2017196641068403 3121:1 3295:1 4557:1 4815:1 
10 4679:1 
0.5435308496628211 841:1 
10 
0.7511657839156745 891:1 951:1 962:1 1376:1 2258:1 2317:1 4938:1 
1.288997892773419 991:1 1735:1 2830:1 3128:1 3509:1 5291:1 5374:1 
10 2797:1 4569:1 
10 
0.3449055893374827 706:1 3017:1 4940:1 
1.627648957048862 1400:1 1717:1 1937:1 3613:1 
0.1252244960644967 858:1 1843:1 2334:1 2513:1 3625:1 4206:1 4422:1 4536:1 5210:1 
0.2314279736335881 18:1 852:1 1682:1 2478:1 3227:1 
10 3364:1 
0.1813410969195356 1714:1 3781:1 5578:1 
0.762259549496741 1937:1 2021:1 3179:1 3493:1 4210:1 
10 
1.001983445546879 547:1 4206:1 4326:1 
10 
0.4540669553026311 643:1 1925:1 2470:1 2732:1 4225:1 4796:1 
0.4161249063120286 422:1 655:1 1603:1 1689:1 3408:1 3966:1 5606:1 5684:1 5819:1 
0.2557684191927661 49:1 261:1 507:1 2448:1 5067:1 
0.3889451564264781 557:1 2381:1 3005:1 3218:1 3245:1 4411:1 
0.1811846602468176 1528:1 2869:1 5518:1 
0.5091934221641069 1173:1 1954:1 2110:1 2272:1 3766:1 4352:1 4851:1 4948:1 
0.7976677255484453 2089:1 2597:1 3221:1 5541:1 
0.2045137734341518 828:1 1007:1 1433:1 2509:1 2923:1 3129:1 3804:1 4397:1 4760:1 5767:1 
0.01393960445954043 1840:1 3132:1 5022:1 5130:1 5439:1 5696:1 
0.8499651256562167 4017:1 4207:1 4673:1 5911:1 
0.4673990739998372 97:1 1220:1 
0.3072626912388043 254:1 801:1 1642:1 2121:1 3076:1 3380:1 4521:1 
10 1937:1 
0.1126475976783436 8:1 652:1 1007:1 1828:1 1839:1 2265:1 2480:1 4161:1 4852:1 5513:1 
2.276273948546493 745:1 2312:1 2901:1 3364:1 
0.5955761498695533 1318:1 4366:1 
1.165595439274442 2390:1 2752:1 3453:1 
2 3784:1 4387:1 
0.06797583713901013 1623:1 1698:1 4038:1 5124:1 
1.045347358857 2002:1 2222:1 
1.009287386600356 1349:1 3024:1 3828:1 4136:1 5031:1 5314:1 
0.2316515444145471 1743:1 1751:1 1906:1 4369:1 
0.2434977504594539 1789:1 3309:1 3356:1 
0.01773808927038161 1520:1 2551:1 3234:1 4049:1 4709:1 4934:1 4948:1 
0.1506039362863645 2299:1 3184:1 3653:1 4717:1 
1.108833836100913 972:1 4941:1 
1.669310842906917 516:1 1271:1 
0.4285707987089631 422:1 805:1 852:1 1294:1 1644:1 2619:1 3976:1 
0.4957634641099639 105:1 604:1 2851:1 3811:1 
0.1747951503251186 1567:1 2629:1 3336:1 3369:1 3587:1 4255:1 5070:1 
6.642652878810457 3615:1 
0.03567821904920916 3026:1 3108:1 3796:1 4475:1 5191:1 
0.538824417851146 1522:1 1550:1 2843:1 5537:1 5715:1 
10 
0.2592805056457632 1085:1 2112:1 2329:1 3661:1 3926:1 
10 
6.831936367185906 3445:1 4309:1 
0.5436268331575114 2992:1 
0.5434863553944459 549:1 
10 364:1 
0.3371391132558497 1705:1 3034:1 4894:1 5606:1 5691:1 5895:1 
2.922468317925612 85:1 1750:1 1974:1 4206:1 
0.7566134889576309 2818:1 4569:1 4700:1 4851:1 5917:1 
0.1339293735211257 2843:1 5619:1 
0.2568835507887246 65:1 169:1 2715:1 3689:1 5156:1 
0.03456820478602292 3709:1 3884:1 5622:1 
1.372790016507661 318:1 1974:1 2432:1 2450:1 2851:1 3330:1 4010:1 4954:1 5047:1 5328:1 
1.370483249651062 123:1 1310:1 1664:1 3008:1 3255:1 3542:1 5368:1 
10 2438:1 
0.5435214319841325 4696:1 
10 
0.543491479512741 977:1 
0.4182434695997265 4293:1 4332:1 5312:1 5334:1 5787:1 
10 773:1 3872:1 4569:1 
2.138138302443261 2501:1 3642:1 5523:1 
0.1217862100357766 3623:1 4870:1 5911:1 
0.2435867147896411 1645:1 5911:1 
6.376743952996984 1520:1 2731:1 
10 
10 2222:1 4777:1 
10 2705:1 
10 2705:1 
0.3078367160502672 1387:1 4440:1 4453:1 
0.1813210411502759 1797:1 2242:1 4149:1 
0.2014801524327831 779:1 1441:1 1805:1 2005:1 2072:1 2797:1 3918:1 
1.035939351977717 157:1 1302:1 2356:1 2377:1 3008:1 3383:1 4206:1 
0.8885124410548892 1572:1 3621:1 4125:1 
10 
0.2717416539566709 4323:1 5421:1 
0.4790625781033315 1111:1 1641:1 1937:1 2154:1 2421:1 3976:1 
10 
0.1754762495370993 640:1 1718:1 2205:1 2213:1 2550:1 2957:1 3082:1 3243:1 3782:1 4458:1 
0.6972952644202962 1390:1 2016:1 2294:1 2329:1 4647:1 
0.5436190871199904 1464:1 
1.760430637602313 1021:1 1223:1 2487:1 3243:1 4607:1 5902:1 
10 
10 
0.5434258904080258 784:1 
10 
1.574789234372481 216:1 908:1 1141:1 
10 3427:1 
0.1133643666939549 898:1 1480:1 4569:1 
0.8157038957629701 4569:1 5755:1 
0.9941272966160248 2161:1 2835:1 4603:1 5632:1 
10 3309:1 3828:1 
0.3030112798644148 216:1 287:1 512:1 1974:1 2412:1 5214:1 
4.168657864170508 1099:1 3453:1 
1.096300478286877 1950:1 3828:1 
1.208950788248698 557:1 777:1 1974:1 2017:1 3261:1 3747:1 4793:1 
0.1347561615200164 422:1 1139:1 1509:1 4206:1 5278:1 
9.380111108640723 1139:1 
10 4206:1 5550:1 
0.3819817250902599 422:1 440:1 1021:1 1305:1 2390:1 3051:1 
0.181274548392988 2474:1 3983:1 5126:1 
0.2229943774483037 179:1 332:1 1541:1 1937:1 2278:1 2718:1 3004:1 4126:1 4739:1 5056:1 
0.03267532245022833 317:1 968:1 2174:1 2755:1 2973:1 3228:1 3595:1 3854:1 3879:1 4534:1 4840:1 5781:1 5782:1 
0.9732283726655669 364:1 2272:1 2705:1 3717:1 4057:1 4574:1 
0.282308983504596 1067:1 1883:1 5613:1 5743:1 
4.135823851153194 219:1 505:1 812:1 1818:1 2337:1 
0.1677058046694782 1700:1 1977:1 3172:1 3182:1 3333:1 4813:1 5399:1 
0.06531669076474146 2280:1 4146:1 
10 1193:1 3309:1 
0.07377034018152506 216:1 1217:1 2423:1 2582:1 2750:1 3037:1 3387:1 3787:1 5762:1 
0.705673358017559 269:1 2539:1 3745:1 3984:1 4048:1 4940:1 
0.5868833915226149 21:1 422:1 567:1 1287:1 2376:1 2599:1 2601:1 3279:1 4212:1 4440:1 
0.2763043736337746 782:1 851:1 3019:1 3063:1 3935:1 4777:1 4969:1 5626:1 
0.8841406678962742 9:1 146:1 2288:1 
0.3363036008750265 1520:1 2572:1 2597:1 4315:1 5142:1 
0.9424854383417148 6:1 4050:1 5883:1 
0.5898515456075908 2014:1 2924:1 4109:1 
2.281968236353663 156:1 2472:1 3976:1 
0.204812821250703 94:1 144:1 337:1 1581:1 3033:1 3170:1 3199:1 3255:1 3475:1 3981:1 4691:1 4882:1 5523:1 5620:1 5626:1 5766:1 
0.5453784726028065 1900:1 2234:1 3216:1 4851:1 
1.18790278005876 519:1 689:1 1937:1 5494:1 
0.09482762236068766 1693:1 2851:1 4365:1 5647:1 
0.3147739266043275 2851:1 3330:1 5448:1 
0.006272618694891517 129:1 662:1 666:1 1376:1 1735:1 1987:1 2013:1 3801:1 3976:1 4206:1 4216:1 4710:1 5950:1 
1.356518715287939 184:1 4206:1 
0.3099275734067683 1597:1 3999:1 4875:1 5597:1 
0.9570313876629892 5379:1 5626:1 5829:1 
9.261499713803596 3190:1 3356:1 3405:1 
0.54338614662403 2169:1 
2.516364823200815 2100:1 2329:1 5463:1 5691:1 
10 3858:1 4760:1 
0.02737706570266406 539:1 1160:1 2737:1 3391:1 4138:1 5550:1 
0.3417938094637341 199:1 553:1 996:1 1257:1 1998:1 2673:1 4170:1 4245:1 
10 
0.7337172304279902 2828:1 3101:1 4057:1 5943:1 
0.5436741668114549 1731:1 
0.8225911406625025 1124:1 2551:1 4283:1 
0.2053986418657419 993:1 1395:1 1727:1 2438:1 2912:1 3494:1 
0.04321098909860801 31:1 990:1 2486:1 3172:1 3291:1 4325:1 4506:1 4564:1 4566:1 4913:1 5794:1 
1.021386808035458 5114:1 
2.527079526543623 364:1 2158:1 5383:1 
0.009432076940564393 883:1 1738:1 2521:1 3062:1 5892:1 
10 
2.328997040208845 156:1 4313:1 5738:1 
1.856679184242678 2776:1 2809:1 5328:1 
0.1165527336724692 234:1 442:1 990:1 1978:1 3203:1 3449:1 4061:1 4266:1 4748:1 4829:1 5271:1 5915:1 
10 452:1 4494:1 
0.6524876930123285 812:1 4449:1 4978:1 5092:1 5837:1 
0.3510589266759907 805:1 1275:1 2347:1 4206:1 4381:1 4796:1 5264:1 5328:1 5547:1 5786:1 
0.2111970548474644 186:1 529:1 1401:1 1520:1 2898:1 3736:1 4586:1 4976:1 
7.067995216237621 706:1 4567:1 
0.5760792384046597 4906:1 5187:1 
2.673950126356413 1561:1 3419:1 3857:1 
1.731049602788346 1771:1 2945:1 3121:1 4206:1 4607:1 5049:1 
10 1970:1 3190:1 
2.052477740627662 3356:1 4818:1 
6.799759105304544 332:1 1160:1 1886:1 2178:1 2283:1 2669:1 3643:1 3840:1 4236:1 5016:1 
0.4098374363429628 4494:1 4515:1 
10 
3.375742496251619 2032:1 
10 
0.5435400786029293 2811:1 
0.1429294769728083 2070:1 3082:1 3242:1 3330:1 3853:1 4405:1 5035:1 5368:1 
1.282505216506745 2582:1 2843:1 3822:1 4206:1 
10 1139:1 1302:1 
0.04348348591268531 1139:1 1302:1 2922:1 
0.2193416680748297 17:1 749:1 3466:1 4446:1 4801:1 4868:1 4991:1 5196:1 
0.6323358077336869 2896:1 3190:1 3267:1 3356:1 3840:1 
1.066131375528788 1954:1 4056:1 4955:1 
0.1088002959818071 2870:1 3141:1 5783:1 
0.1151796383230492 221:1 693:1 966:1 
0.5436518935819706 1168:1 
0.8157031380636501 364:1 645:1 785:1 1160:1 4440:1 5265:1 
0.1453282805032561 3996:1 4560:1 
4.648860477485214 857:1 952:1 1271:1 3728:1 
0.7794335645360922 364:1 1074:1 1503:1 2161:1 2304:1 2686:1 2803:1 2940:1 3045:1 3543:1 4530:1 4792:1 
0.2798909859026959 30:1 746:1 2272:1 2418:1 2442:1 2492:1 2765:1 3811:1 4141:1 4676:1 4963:1 5504:1 
0.2372965542341582 422:1 1694:1 2581:1 
0.009893345898416585 2966:1 4240:1 
1.154868765679964 216:1 1009:1 1709:1 1750:1 2329:1 3976:1 4555:1 5294:1 
0.3554124357866983 1142:1 1620:1 
7.146486329465731 1346:1 2494:1 
6.167401337407515 642:1 3728:1 4569:1 
1.117822955678334 77:1 589:1 982:1 1523:1 1834:1 2412:1 4677:1 4920:1 5735:1 5951:1 
0.5218727357073509 3592:1 4010:1 4383:1 
0.2903363597638278 2230:1 4828:1 
0.3502389335071966 2396:1 3673:1 4453:1 
2.112240179758829 2434:1 3210:1 3701:1 
0.1673665453150647 57:1 1664:1 2048:1 2156:1 3212:1 3245:1 4419:1 4560:1 
0.0322462154275508 1755:1 2779:1 4754:1 5261:1 
0.1364229647226871 608:1 1758:1 2778:1 4256:1 5043:1 5302:1 
0.5436318414862107 3852:1 
0.00496496702272385 422:1 627:1 1407:1 1778:1 2450:1 2478:1 3557:1 4206:1 4504:1 
0.5515907721917206 1848:1 3944:1 
10 2268:1 
0.2718126876391084 3703:1 4016:1 
10 364:1 
10 5541:1 
2 379:1 793:1 
0.3970167285984734 111:1 1514:1 1937:1 2975:1 5782:1 
1.734018806295704 440:1 2789:1 
0.1812305951811335 658:1 3372:1 5423:1 
0.6446895479378553 103:1 133:1 318:1 385:1 430:1 858:1 1122:1 1441:1 1558:1 2738:1 4437:1 5170:1 5523:1 
0.1009922305580258 851:1 2164:1 3218:1 4453:1 4495:1 5476:1 
6.450843308788563 3858:1 4010:1 4440:1 
0.1812192252389383 2020:1 4478:1 5366:1 
0.4038766468322954 41:1 1355:1 2692:1 4514:1 4602:1 
0.3444429334377166 1220:1 3307:1 3760:1 3858:1 4075:1 4581:1 4919:1 5707:1 
0.132807629636055 212:1 2695:1 3562:1 3778:1 
1.254978596328094 2843:1 3330:1 5408:1 5744:1 
0.1352766495444942 3119:1 3339:1 3748:1 4285:1 4321:1 
0.116207826952423 1103:1 1202:1 1811:1 2409:1 2568:1 
0.8475883827711841 850:1 3163:1 3399:1 3959:1 4397:1 4566:1 
1.120723924368144 1159:1 1925:1 1978:1 2705:1 3309:1 3994:1 
1.770355509396907 1327:1 2715:1 2809:1 3811:1 4898:1 5368:1 5911:1 
0.6688608759091874 2425:1 4384:1 4411:1 
0.1156208741659713 1145:1 1938:1 1974:1 2516:1 5579:1 5742:1 
10 
0.7561702069642733 670:1 1750:1 2074:1 2976:1 3419:1 3976:1 5339:1 
2.516518255355335 2698:1 
0.1633778791534065 183:1 3330:1 4955:1 5047:1 5350:1 
0.583173860912612 3330:1 4321:1 4440:1 
0.3178168967689429 422:1 949:1 955:1 2385:1 3174:1 3542:1 3544:1 
0.5435200777512373 5879:1 
10 
0.2584311662333525 114:1 2583:1 2902:1 3870:1 3895:1 3897:1 4876:1 5823:1 
0.01666515980952063 850:1 2223:1 
0.663255517674357 850:1 1564:1 1735:1 3309:1 3497:1 4105:1 4560:1 
0.0617242679355028 762:1 2156:1 3352:1 4641:1 5497:1 
0.4502039782593695 69:1 997:1 1925:1 3405:1 3744:1 4030:1 4315:1 4641:1 
0.243467327440981 3431:1 5911:1 
2.011795745047655 318:1 659:1 1147:1 3425:1 4979:1 
0.5281606422170591 1651:1 4433:1 
7.437758751866847 2074:1 4120:1 
0.2943751167134692 639:1 2109:1 2112:1 2166:1 
10 3976:1 
1.807360038780174 2535:1 3486:1 4569:1 
10 
0.1671414997317686 311:1 3064:1 3217:1 4430:1 5017:1 
10 216:1 3828:1 4206:1 4440:1 
0.160480298718769 781:1 804:1 1283:1 1474:1 2517:1 4155:1 5451:1 
0.4147727491362391 1546:1 1810:1 2551:1 3262:1 3828:1 3867:1 4256:1 5898:1 
0.4127775155342088 1348:1 1520:1 2280:1 5016:1 5911:1 5952:1 
0.14809874651039 216:1 439:1 2439:1 3828:1 
0.3039265416189051 216:1 448:1 616:1 964:1 1555:1 1676:1 2112:1 3539:1 5089:1 5324:1 
1.633815526288805 216:1 4899:1 
1.798004736948548 216:1 4235:1 4440:1 
0.1039772173435927 781:1 994:1 1766:1 
0.8144243153601436 278:1 1974:1 2705:1 3592:1 4046:1 4540:1 
0.7078480786804763 1055:1 4440:1 
1.077177790926596 4530:1 4569:1 4663:1 
0.6828033917224777 3462:1 4440:1 4918:1 
0.6533152199766985 1020:1 1311:1 2002:1 2442:1 2450:1 3315:1 3322:1 3822:1 3905:1 5826:1 5911:1 
3.262623759741591 422:1 1302:1 1937:1 2837:1 3828:1 3858:1 5541:1 
0.346615005603737 1572:1 3419:1 3539:1 3828:1 4003:1 4206:1 5572:1 5919:1 
0.2016218000937157 36:1 422:1 501:1 1147:1 3426:1 3493:1 4142:1 4222:1 4305:1 4749:1 5273:1 5535:1 
8.186586791340874 3523:1 
0.130927844905254 364:1 854:1 1139:1 2809:1 3422:1 
0.9914411835884775 455:1 1084:1 1378:1 1475:1 2414:1 2528:1 3218:1 3262:1 3976:1 4340:1 4411:1 5576:1 
0.3000242834075216 386:1 1520:1 
0.7658648311224692 2105:1 2164:1 3483:1 3887:1 
0.2401974859068782 1613:1 3785:1 
0.7151118235382091 1942:1 2187:1 5133:1 
0.2748026449500904 2206:1 2779:1 4361:1 4593:1 
0.374336902025416 128:1 1750:1 4681:1 
2.190590326553467 1546:1 1750:1 2360:1 2882:1 4851:1 5522:1 
0.04274624377500724 332:1 1295:1 2809:1 4206:1 4628:1 5096:1 
7.989129652043543 4442:1 5239:1 
10 3828:1 4206:1 
0.8334334182969622 951:1 3434:1 5440:1 
1.369849300098049 2929:1 5379:1 
0.07294409087111461 59:1 981:1 1897:1 2078:1 2378:1 2539:1 3384:1 3532:1 4206:1 
1.287578599386112 297:1 714:1 1089:1 1937:1 1939:1 2162:1 3843:1 5823:1 
0.048402348737119 187:1 1520:1 1774:1 1818:1 3453:1 3976:1 5032:1 
0.4097544508757602 4239:1 4494:1 
0.5425715324141497 6:1 422:1 5817:1 
0.8900540904622202 403:1 1618:1 2067:1 4796:1 
0.2264991881566927 217:1 332:1 860:1 2728:1 3356:1 3984:1 4206:1 4410:1 
4.155044467784602 3132:1 
0.8893184681519478 280:1 364:1 1427:1 2434:1 2851:1 3647:1 3828:1 
4.264550168185564 1144:1 
0.04872964038274198 1427:1 1970:1 3009:1 3190:1 3356:1 4221:1 4291:1 
1.550195603256128 1520:1 2112:1 3822:1 3840:1 4411:1 4818:1 
6.758729495584692 3008:1 
0.3586782712333068 1888:1 1937:1 3135:1 3283:1 4027:1 
1.525987148257897 2740:1 4691:1 4878:1 5347:1 
0.5434700777718295 5747:1 
0.604957744895802 3228:1 3828:1 4206:1 5662:1 
0.1617955763529482 3051:1 
2 2043:1 4838:1 
0.5435832621511745 5013:1 
2.747024849255942 474:1 
0.357420463186235 1938:1 2965:1 3963:1 
0.2718123528463066 577:1 2181:1 
0.543601215892477 293:1 
0.1811157580838156 751:1 2028:1 4805:1 
10 4057:1 
4.942514322250378 56:1 1535:1 
7.765802785207704 4851:1 
0.2049096033774952 63:1 364:1 642:1 1092:1 1144:1 3445:1 5368:1 5667:1 
2.549316143830954 1139:1 2809:1 2851:1 2906:1 4782:1 
0.7390670631109316 805:1 5502:1 5942:1 
0.2862529398612495 422:1 517:1 2293:1 2757:1 3674:1 5552:1 5826:1 
0.2718160264024858 1995:1 4756:1 
0.5434616724449632 5398:1 
0.7485572647062377 1750:1 2932:1 
1.182456994151472 2961:1 
0.1188568052860284 602:1 1559:1 3671:1 4008:1 5191:1 
0.4419215796065787 66:1 1024:1 3579:1 4304:1 4321:1 
0.03362562893558228 264:1 289:1 467:1 642:1 1182:1 1954:1 2529:1 4056:1 4729:1 
1.646429759669681 2278:1 2410:1 2851:1 3976:1 
10 3815:1 
2.40941037134218 239:1 538:1 2599:1 2843:1 5661:1 
0.7672921468790069 3082:1 5361:1 5637:1 
0.05513909342930628 325:1 458:1 833:1 2834:1 3420:1 3487:1 4342:1 4686:1 5427:1 5610:1 
0.1675790301465402 937:1 1698:1 3481:1 4628:1 4981:1 5579:1 
7.502042304839811 657:1 
0.7051858121638482 1139:1 1577:1 1816:1 3029:1 3834:1 
0.06652802734020619 1052:1 1441:1 2240:1 3547:1 5054:1 
10 3822:1 4440:1 
10 341:1 5368:1 
2.718852477304952 2156:1 4769:1 
0.406992142008153 108:1 1214:1 1811:1 1912:1 2123:1 2815:1 3493:1 
1.162830752545792 43:1 1299:1 1325:1 1572:1 2260:1 2445:1 2584:1 3127:1 3445:1 3909:1 4916:1 
10 
1.302155554567787 2789:1 3440:1 
0.4477669328647776 118:1 2156:1 3493:1 
1.356544661834111 4206:1 4526:1 
0.4673352075204484 1153:1 2027:1 2963:1 3194:1 4206:1 5543:1 5622:1 
10 1098:1 1441:1 2156:1 
0.01368137785428452 1441:1 2188:1 2505:1 4925:1 
0.070634047984705 364:1 398:1 692:1 2160:1 4456:1 5084:1 5713:1 
1.420457047473899 2156:1 3082:1 5235:1 
2.183111813960235 5352:1 
1.525577409092255 1375:1 3128:1 3453:1 3840:1 3843:1 5131:1 5198:1 
0.1781902867657407 642:1 1302:1 1359:1 2007:1 2736:1 2843:1 3140:1 4309:1 
3.452022927557354 2843:1 4494:1 
0.5780029269043619 2438:1 2826:1 3228:1 3642:1 4804:1 5368:1 5946:1 
10 157:1 
0.305510210266318 371:1 
10 
4.777016740991847 422:1 425:1 5952:1 
1.480585046721779 440:1 951:1 3414:1 3475:1 
0.0772718687770004 200:1 295:1 1954:1 2156:1 3876:1 
0.09693284199003963 297:1 2159:1 4666:1 5053:1 
0.2302786770964954 127:1 661:1 917:1 1030:1 2119:1 2494:1 2943:1 3075:1 3900:1 3976:1 4173:1 5782:1 
0.5436014006984372 1846:1 
0.05373605533936486 805:1 1982:1 2571:1 
10 2329:1 
1.635435122634672 1750:1 1936:1 2109:1 2112:1 2278:1 2705:1 3289:1 3789:1 5532:1 
0.9187647444165871 653:1 2601:1 2748:1 2936:1 3840:1 4558:1 5493:1 
10 
0.7385546641989645 1339:1 
1.541141502667847 411:1 1576:1 2324:1 5063:1 
0.6464040840162423 3008:1 5039:1 
0.950541076147803 422:1 2906:1 3388:1 
0.6577887939713513 422:1 3285:1 
0.3476939839921483 422:1 619:1 2860:1 3231:1 5378:1 
0.08175195037612421 1308:1 1435:1 5323:1 
0.1812177575028666 758:1 3219:1 5107:1 
0.728294108337694 773:1 1919:1 2721:1 3674:1 
1.253193354930802 2780:1 3042:1 
10 2851:1 
0.1588465529704754 626:1 1884:1 2430:1 3374:1 3642:1 3828:1 5269:1 
0.1813467965876623 1180:1 2678:1 3086:1 
0.8227248198087248 812:1 2235:1 2773:1 3927:1 5309:1 5529:1 
1.055985856588237 422:1 
0.08094216660208149 2549:1 2608:1 5549:1 
10 2329:1 
10 2329:1 3828:1 4760:1 
0.4935142626140694 216:1 997:1 1520:1 1522:1 2030:1 3676:1 5759:1 
1.175227069767864 1124:1 3128:1 3744:1 3805:1 4400:1 
0.5435099323811374 2706:1 
10 3976:1 
10 
2.107892303830464 49:1 364:1 389:1 429:1 1906:1 1937:1 3392:1 4980:1 5541:1 
8.515614498005259 318:1 1014:1 
0.4281339517216216 2755:1 4026:1 5506:1 
0.2548294695044896 318:1 1538:1 4641:1 4850:1 5420:1 5541:1 
0.4678761450388378 642:1 1174:1 1404:1 1937:1 2590:1 2863:1 3390:1 4970:1 
0.0005543500373658276 759:1 1271:1 3976:1 
6.514613460459756 3358:1 5224:1 
5.31770596656941 1906:1 3828:1 4219:1 
10 1937:1 
0.004440359973904379 55:1 1852:1 3218:1 3976:1 4458:1 5665:1 
0.1562978361864668 781:1 3755:1 
0.1813050826308004 2978:1 4452:1 4551:1 
0.4352677998934327 3526:1 3592:1 3926:1 4006:1 5932:1 
0.271953203662167 2525:1 5846:1 
0.4233462563937003 601:1 1015:1 1156:1 3445:1 3940:1 4547:1 4691:1 4928:1 5264:1 5588:1 
10 
10 
0.73171012580186 224:1 959:1 1631:1 1680:1 3483:1 3858:1 4442:1 
0.2183421519561161 109:1 1103:1 5609:1 
0.5433291661222158 4031:1 
10 2731:1 4057:1 5541:1 
0.6111408836565057 257:1 5038:1 
0.0720858121023422 2843:1 3398:1 4028:1 
2.597658058244926 904:1 2603:1 
0.5559668187098148 1139:1 3483:1 4884:1 5157:1 5368:1 
10 1937:1 
4.301562248401956 2189:1 3874:1 
0.5786460969181239 440:1 2772:1 4641:1 5722:1 
5.422651594786601 2695:1 4453:1 5697:1 
0.1839541075960716 2809:1 2876:1 3735:1 5837:1 
0.4134960162487606 1935:1 2143:1 5148:1 
0.06259311810488727 652:1 839:1 1144:1 2694:1 3838:1 3890:1 4080:1 4088:1 5600:1 
10 
0.7846694653863799 426:1 655:1 797:1 909:1 1458:1 2903:1 3842:1 
10 1937:1 4453:1 
1.554800323698585 216:1 1405:1 1970:1 4458:1 
0.4125604366897823 102:1 850:1 1843:1 2311:1 2349:1 2360:1 2390:1 2984:1 3165:1 5191:1 5808:1 
0.02960313169085618 172:1 749:1 867:1 954:1 1499:1 2156:1 2993:1 4926:1 5315:1 5533:1 5580:1 
10 
0.6454799848153641 857:1 1520:1 1947:1 3608:1 5523:1 5874:1 
0.09235975663840461 422:1 1155:1 1160:1 1661:1 2149:1 2245:1 4453:1 
4.476070491640192 2156:1 
0.5433024647397503 346:1 
0.2272168346613137 486:1 1046:1 1576:1 4001:1 4015:1 4309:1 5206:1 
1.311080923559255 2611:1 2972:1 4475:1 
0.4357404534528353 655:1 3083:1 5198:1 
5.301552429666883 389:1 422:1 857:1 1757:1 4813:1 
0.9118533831104598 714:1 
1.272010928236133 593:1 2279:1 2360:1 
0.245617056995117 55:1 648:1 1111:1 4206:1 4338:1 4510:1 5602:1 
0.3014840362721452 2203:1 4510:1 
1.216282403396294 2543:1 
0.5434860219680615 1038:1 
4.990097116599721 5442:1 5486:1 
0.5435366238333575 2411:1 
0.4802598170496727 4057:1 4974:1 
0.3758373601401469 2069:1 2882:1 4871:1 4931:1 5200:1 
0.3983807270768154 157:1 829:1 
3.352805339099941 3419:1 3828:1 5157:1 
0.3502015289001849 49:1 1606:1 4628:1 4801:1 5541:1 
0.3834278198793123 422:1 2222:1 2286:1 3912:1 
0.02204806478157944 1888:1 2159:1 2393:1 4482:1 
0.0120823627096094 1110:1 2266:1 2551:1 2590:1 2843:1 3010:1 3344:1 4683:1 
0.4988600663034186 1937:1 2112:1 3241:1 3626:1 4103:1 4796:1 5009:1 5313:1 
0.9856836137438737 49:1 422:1 2736:1 3828:1 5157:1 
1.047954643980227 422:1 1843:1 2439:1 5888:1 
5.020427184463609 1520:1 5911:1 
1.271185762128863 565:1 1300:1 
10 
10 681:1 
0.2718978953275003 2107:1 3749:1 
0.2245031938726957 1027:1 1164:1 1524:1 1925:1 2342:1 3008:1 3498:1 4407:1 5286:1 5782:1 5785:1 5921:1 
10 1946:1 
6.636374637125962 2851:1 2961:1 
10 2965:1 5541:1 
0.7127196224969763 3356:1 5735:1 
0.9902444695396162 1937:1 2554:1 2597:1 3056:1 3884:1 4260:1 4312:1 5541:1 
0.3045158660044232 745:1 2766:1 2843:1 3070:1 3425:1 4389:1 4824:1 
0.2953659612692445 2156:1 2270:1 3555:1 4251:1 
0.03473376298347589 1103:1 4114:1 4416:1 
0.3260978645709753 4398:1 5814:1 
0.07996679209078002 1346:1 2158:1 2766:1 3334:1 
0.5434838028235346 5726:1 
8.539421989266 1937:1 3842:1 4992:1 
0.3005788689452497 1520:1 3976:1 5821:1 
0.5020820717143264 1454:1 1735:1 1962:1 2224:1 4111:1 4206:1 4416:1 
0.6912914402309523 10:1 1522:1 1678:1 2285:1 3421:1 3986:1 5449:1 
0.1087666538329099 1704:1 2388:1 3461:1 5240:1 5263:1 
0.3835952275812816 452:1 862:1 1103:1 1498:1 1522:1 2156:1 3061:1 4446:1 5520:1 5778:1 
0.3241821409136638 490:1 818:1 1937:1 2357:1 2766:1 3328:1 3475:1 3927:1 4111:1 5814:1 
0.6087799532513104 1124:1 2193:1 2780:1 3382:1 4018:1 5818:1 
2.023886277983926 422:1 495:1 569:1 1808:1 2780:1 5239:1 
0.3659340728832691 880:1 1312:1 1522:1 2234:1 3414:1 5241:1 5410:1 5776:1 
0.110222323060966 698:1 1312:1 
0.5791564503172478 1095:1 1140:1 1609:1 3228:1 4556:1 5399:1 
1.160101861343266 588:1 2278:1 2843:1 3234:1 3409:1 4824:1 4935:1 
0.1949356685888919 629:1 1302:1 3828:1 4206:1 
0.6667981525437964 145:1 703:1 904:1 4206:1 5051:1 
0.2047451413583037 956:1 1718:1 2156:1 
10 1441:1 
0.1983020328857394 476:1 966:1 2164:1 2935:1 3822:1 4104:1 4701:1 5608:1 
0.5256610557910629 96:1 1572:1 1974:1 2585:1 4010:1 4495:1 4801:1 
0.2719653554420332 1320:1 2130:1 
0.05140403115680789 290:1 851:1 3403:1 4089:1 5479:1 5525:1 5677:1 
0.1830229522488429 364:1 1579:1 1790:1 2379:1 3263:1 3265:1 3430:1 4261:1 
9.757006121304185 1816:1 4984:1 
1.656184475300349 872:1 5368:1 
0.1311442239745362 464:1 504:1 1954:1 2278:1 3228:1 4959:1 5054:1 
5.467687952782171 2780:1 
7.560016456007783 3146:1 3828:1 4206:1 
0.09556032393734265 688:1 2109:1 2156:1 2601:1 2785:1 3383:1 4289:1 
0.362411757340641 3228:1 3826:1 4664:1 5171:1 5448:1 
0.2203284694774503 440:1 2209:1 5224:1 5250:1 5399:1 
0.09161546990500079 791:1 1027:1 1431:1 1961:1 2100:1 3959:1 4255:1 4397:1 5372:1 
0.3405602299309884 250:1 3510:1 
2.012735425945941 5307:1 
1.358919131929278 364:1 688:1 3445:1 
6.708246232761194 688:1 
0.3661293348384583 495:1 582:1 753:1 3541:1 5218:1 5686:1 
0.1809550781480993 422:1 1104:1 1363:1 1886:1 5474:1 
0.2917549373459739 880:1 1178:1 1983:1 2124:1 2140:1 3405:1 3539:1 4875:1 
0.2083146661386066 1312:1 1426:1 2716:1 4228:1 5172:1 
10 
2.347864744345783 3789:1 4440:1 5171:1 5464:1 
1.165481379352145 354:1 527:1 4894:1 
0.2588477777603732 468:1 586:1 1997:1 2364:1 
0.4078717861873308 321:1 980:1 1214:1 1712:1 1937:1 1946:1 2650:1 3914:1 5938:1 
0.1615538003191695 972:1 2203:1 2256:1 3043:1 4093:1 4403:1 
0.2718199122242946 2531:1 3438:1 
2.377110982741958 4003:1 
0.1603258430297356 1883:1 3181:1 3276:1 4562:1 5916:1 
0.7837922299411806 941:1 1561:1 2755:1 2849:1 4214:1 5294:1 5672:1 
2.700068547416521 2755:1 3667:1 
10 
0.3168158472760223 805:1 1885:1 2222:1 2494:1 2599:1 2611:1 2766:1 
10 
0.2004671259094452 920:1 5159:1 
0.4896552691033323 3191:1 5575:1 
10 1750:1 
1.614741092617158 3453:1 3734:1 
10 
0.3543392459785862 199:1 220:1 385:1 3483:1 4206:1 4722:1 4855:1 5098:1 
2.256906895289634 561:1 652:1 1900:1 1925:1 4783:1 
0.2543719790612934 3709:1 4086:1 
1.816872918388392 316:1 1842:1 2965:1 3881:1 4353:1 
1.074430851314671 517:1 1750:1 3881:1 5718:1 
5.871706601115826 154:1 3881:1 
0.2685346463865375 805:1 1545:1 1801:1 4085:1 4206:1 4464:1 5264:1 5368:1 
0.5179331667509828 800:1 2281:1 3419:1 3828:1 4562:1 5368:1 
10 2329:1 
1.02119774719817 482:1 533:1 2329:1 2681:1 4415:1 
8.058586714420629 332:1 2329:1 
0.4206085692685994 428:1 902:1 997:1 1545:1 2329:1 2524:1 3143:1 3419:1 3490:1 4616:1 5391:1 5692:1 
10 1016:1 2329:1 2843:1 
2.156869957988087 2755:1 3008:1 5866:1 
0.6750605718098078 2040:1 2755:1 3402:1 4094:1 4640:1 
1.385576240870246 1598:1 1614:1 2755:1 4894:1 5105:1 
10 364:1 2755:1 
0.2717863512755048 3232:1 3818:1 
1.496887434470757 21:1 1317:1 3768:1 4015:1 
0.3320891891032248 710:1 1748:1 2064:1 2943:1 
1.180490383840989 1974:1 3884:1 4130:1 4328:1 
1.699215216979846 1302:1 3651:1 5368:1 
0.9170998186504258 1947:1 2272:1 3954:1 5368:1 5613:1 
0.3277340802173193 646:1 851:1 1167:1 1826:1 2005:1 
0.3561203046868065 422:1 1586:1 3064:1 3636:1 3939:1 4433:1 4440:1 4665:1 4720:1 5418:1 
1.224649032538511 1019:1 1480:1 1777:1 2478:1 3880:1 3939:1 
0.0943646417427009 239:1 468:1 642:1 809:1 1200:1 3341:1 3848:1 3884:1 4530:1 5769:1 
0.006797344835305022 557:1 667:1 1294:1 1475:1 2440:1 2516:1 2883:1 4555:1 5199:1 5769:1 
0.7149442744077926 642:1 4569:1 5769:1 
0.7587120535352719 947:1 1549:1 2755:1 3001:1 4007:1 4920:1 
2.482173355046007 930:1 2755:1 4155:1 5814:1 
2.566680787971079 745:1 2592:1 2755:1 
5.089302243116574 287:1 1452:1 2755:1 3406:1 3539:1 
0.3024556981450229 37:1 440:1 2122:1 2582:1 2755:1 2961:1 4734:1 
0.5850548826028157 857:1 1551:1 1696:1 2894:1 3116:1 3789:1 3828:1 
1.234945816752202 60:1 2739:1 3817:1 4767:1 
0.5885440354776292 645:1 3817:1 4116:1 5777:1 
0.4275397209631444 180:1 2164:1 3817:1 4906:1 
0.1071039936702102 375:1 469:1 2036:1 3238:1 3433:1 3736:1 3817:1 4927:1 5470:1 
0.2028342531739083 70:1 857:1 1931:1 2032:1 2255:1 2450:1 2705:1 2851:1 3249:1 
8.741909477481915 426:1 
0.1792855043651927 952:1 2409:1 2967:1 5138:1 
0.3570074900461314 879:1 1687:1 2926:1 2967:1 
0.06998985144547802 3:1 2470:1 
1.06062885161807 934:1 1192:1 
0.140765615031674 1230:1 1520:1 2397:1 3913:1 
0.7198391551451286 2390:1 4041:1 4366:1 5643:1 5917:1 
1.666356699928903 490:1 1581:1 2237:1 2755:1 3482:1 3642:1 5131:1 
1.429469244402048 422:1 1912:1 2755:1 3642:1 5545:1 
0.08025486493384784 679:1 849:1 2755:1 3170:1 3444:1 3513:1 3613:1 4397:1 4573:1 5202:1 
0.3465661256244842 857:1 2161:1 2961:1 3310:1 3817:1 3976:1 4911:1 5072:1 5075:1 
1.065321913871156 857:1 1827:1 2681:1 3976:1 4901:1 
1.83878829145081 857:1 3548:1 5610:1 
5.805631922029795 857:1 1310:1 1503:1 3421:1 
0.6725063651203387 857:1 904:1 1149:1 1162:1 3356:1 3405:1 4483:1 5061:1 
10 2390:1 
0.3664103057711454 1436:1 2390:1 4569:1 
2.427577561522496 851:1 1123:1 1277:1 1937:1 2390:1 4442:1 5214:1 5952:1 
0.6198979118661884 156:1 708:1 1604:1 2156:1 2390:1 2906:1 3246:1 4569:1 
0.3337171658304726 1950:1 2390:1 3985:1 4393:1 5325:1 
0.4424349383459052 1249:1 1419:1 2390:1 5493:1 
8.566872187930651 589:1 1793:1 2414:1 5475:1 5782:1 
0.3842768881434905 857:1 1750:1 2802:1 3008:1 3822:1 4572:1 4597:1 4986:1 5134:1 
8.803402329895098 857:1 5294:1 
0.5541476844291403 857:1 1302:1 2905:1 3008:1 3828:1 4206:1 5764:1 
0.6840902972773459 492:1 857:1 1092:1 1189:1 2526:1 2971:1 4206:1 
5.215231242235263 2113:1 2329:1 
10 2329:1 
10 2329:1 
0.1255894070632976 297:1 364:1 714:1 2755:1 3576:1 4647:1 5753:1 
0.1602451735974454 1954:1 2129:1 2755:1 2858:1 3192:1 4185:1 4851:1 5445:1 5661:1 5946:1 
10 642:1 2755:1 
0.6117918608963717 1242:1 2755:1 5198:1 5816:1 
1.854175816103745 1484:1 2597:1 2755:1 5198:1 
0.8524580888572896 803:1 2252:1 2755:1 3917:1 4175:1 4711:1 
3.065837978888409 2889:1 4894:1 
3.931052800754663 951:1 4103:1 
0.2277519391103341 158:1 2096:1 2581:1 5627:1 5716:1 
0.2066974499224843 1357:1 1930:1 2964:1 3828:1 5548:1 
0.4287369758646471 342:1 1494:1 1841:1 3128:1 5514:1 5561:1 
0.598231030171574 868:1 1937:1 2308:1 3082:1 4276:1 4644:1 5287:1 
0.6295010803048092 2003:1 2437:1 2755:1 3345:1 4061:1 4507:1 5152:1 5602:1 5802:1 
0.3374918958408815 153:1 469:1 814:1 851:1 1529:1 1652:1 1745:1 1750:1 2755:1 2902:1 3508:1 3952:1 5672:1 
1.876169511435339 430:1 2755:1 5921:1 
0.3930364345810922 3445:1 4368:1 4569:1 5110:1 
0.6673602467144618 1798:1 1954:1 4206:1 5110:1 
10 
0.1043505791208535 698:1 727:1 1160:1 3008:1 3806:1 4943:1 5674:1 5911:1 
2.327372699203415 312:1 942:1 2550:1 2580:1 2975:1 3082:1 3357:1 4731:1 
0.7604540127980229 2389:1 
1.333045537234702 448:1 2051:1 2377:1 2743:1 4430:1 5448:1 
0.2258480287311604 2665:1 3634:1 5388:1 
1.242077516595018 1033:1 1878:1 
2.086756585018242 645:1 949:1 2079:1 
10 5368:1 
1.630528197364873 271:1 280:1 
0.06669519122336767 607:1 2461:1 2946:1 3550:1 3901:1 4528:1 5212:1 5598:1 5613:1 5751:1 
1.976622579417407 474:1 2360:1 2535:1 3218:1 3478:1 3840:1 4004:1 4257:1 5056:1 5952:1 
1.63468868486392 534:1 1937:1 1939:1 1962:1 2603:1 2755:1 3828:1 3985:1 4157:1 4560:1 
6.300750057513905 389:1 4446:1 
0.2979132775906703 2970:1 5017:1 5131:1 
0.4080395699561705 645:1 1160:1 2097:1 3039:1 3179:1 
6.070007738649216 4206:1 5579:1 
0.2113001754743071 1207:1 1974:1 3449:1 3817:1 4058:1 5144:1 
0.3224762797408552 4188:1 5549:1 
0.1062999939067436 92:1 1524:1 5478:1 
0.828805957384708 851:1 895:1 3536:1 
0.2426467640412159 81:1 219:1 821:1 2025:1 2150:1 2619:1 2755:1 2987:1 4553:1 5303:1 
0.9026508482647325 396:1 1545:1 2755:1 4554:1 5665:1 
10 2755:1 3984:1 
10 332:1 2755:1 4206:1 
1.691796419940266 1040:1 2317:1 2755:1 4110:1 
10 2851:1 
10 
0.543582068733474 2284:1 
0.8019103245671495 1364:1 
0.1630642847808167 3627:1 5248:1 5891:1 
0.5795725446947668 2809:1 3828:1 
0.106533775976456 185:1 3063:1 3126:1 4065:1 4351:1 4549:1 5316:1 
0.4281073571410242 655:1 992:1 1750:1 1937:1 2826:1 3559:1 3828:1 
0.4639321861214397 642:1 1214:1 1216:1 2161:1 2236:1 2503:1 3559:1 
0.2415390502597463 116:1 1380:1 3559:1 4061:1 
0.9541540991178846 2450:1 5946:1 
1.059632766289782 1478:1 2450:1 3842:1 4206:1 4248:1 
10 1545:1 1974:1 2450:1 
0.3259596504122862 199:1 406:1 838:1 1974:1 2007:1 2226:1 2281:1 2450:1 2908:1 3084:1 3247:1 4197:1 4705:1 
0.2742215855153377 1229:1 1292:1 1791:1 1886:1 2450:1 3072:1 4502:1 
2.27103263186289 2027:1 2189:1 2450:1 
3.240019182566908 1936:1 2450:1 3789:1 
1.369944486021057 1302:1 1974:1 2212:1 2450:1 4440:1 
4.156004744277502 2133:1 2158:1 2434:1 2450:1 
2.440362259924355 2278:1 3195:1 3309:1 
0.113259995859188 1271:1 1277:1 1502:1 2051:1 2773:1 4004:1 4038:1 5490:1 
1.036425963213183 1972:1 2283:1 2985:1 3630:1 5016:1 5813:1 
5.531424662020585 1079:1 1886:1 2005:1 2123:1 2156:1 2416:1 3522:1 3630:1 
0.114785564563225 334:1 364:1 1103:1 1937:1 1961:1 3291:1 3613:1 3812:1 4206:1 4896:1 5042:1 5463:1 
0.4423822035264592 663:1 851:1 1442:1 2158:1 3099:1 3936:1 4820:1 5463:1 
5.182380315546639 21:1 1119:1 2112:1 2329:1 3262:1 3789:1 5463:1 
10 3077:1 5463:1 
4.296387502280241 642:1 1937:1 3483:1 3840:1 4015:1 5463:1 
10 990:1 4206:1 5463:1 
1.126422513928692 583:1 2036:1 2705:1 2851:1 3308:1 3343:1 4196:1 5463:1 
0.8119064291370263 341:1 1937:1 2931:1 5261:1 
10 
1.091623299863617 280:1 610:1 1421:1 3121:1 3729:1 
0.01397162769271658 1389:1 2309:1 2851:1 3877:1 4490:1 4901:1 5277:1 5349:1 5797:1 
0.0002341817470641198 4641:1 5322:1 5803:1 
0.6149542815560087 156:1 2662:1 2681:1 3828:1 5734:1 
0.5436475144838373 32:1 
10 
6.465046367051948 364:1 1681:1 2535:1 
0.05464529309333792 524:1 1443:1 1520:1 2053:1 3758:1 3949:1 4465:1 5891:1 
0.02880140697385704 976:1 1278:1 2292:1 2761:1 3519:1 4448:1 5289:1 
0.692826938795293 156:1 3732:1 3840:1 4661:1 
10 
10 87:1 2156:1 
0.8341655704053683 954:1 1143:1 1277:1 1936:1 2494:1 3028:1 4738:1 5440:1 5672:1 
4.270619427702401 21:1 1681:1 1960:1 2243:1 2705:1 4818:1 5328:1 
0.07044881042147841 138:1 592:1 1520:1 2605:1 3573:1 4366:1 4588:1 
0.1000096388880815 1520:1 4159:1 5468:1 5489:1 
0.5865597962715656 915:1 1302:1 
0.3246412610610747 1974:1 2120:1 2378:1 2843:1 3590:1 3621:1 4269:1 5344:1 5815:1 
4.100229207031203 68:1 3621:1 5761:1 
0.2326736938873964 1231:1 1697:1 2088:1 2112:1 2156:1 2959:1 5463:1 
0.1040038699302121 49:1 947:1 1878:1 3190:1 3630:1 4191:1 4656:1 5119:1 5463:1 5842:1 
1.704217549277109 796:1 2219:1 3843:1 4206:1 5016:1 5463:1 
0.06130445743647 28:1 1271:1 3071:1 5157:1 5330:1 5463:1 5828:1 5897:1 
0.2987310455162861 220:1 668:1 944:1 1750:1 3976:1 4206:1 5463:1 5674:1 
1.055125744102178 337:1 2396:1 3730:1 4793:1 5463:1 
10 2755:1 3539:1 5463:1 
0.105943936558869 1271:1 3421:1 4824:1 5899:1 
0.7338274297719172 42:1 2603:1 2835:1 3301:1 3630:1 3931:1 5885:1 
0.6862894632556011 732:1 4948:1 5007:1 
0.2053076151712454 3309:1 3828:1 4494:1 
0.1939134103312148 245:1 1671:1 2999:1 
0.6531250305283832 422:1 506:1 2268:1 2317:1 3270:1 4134:1 5031:1 5314:1 5354:1 5463:1 
5.82199074624292 805:1 2965:1 3061:1 3828:1 5463:1 
0.2780622148391897 850:1 2968:1 4158:1 4316:1 5463:1 
9.010013792959755 1278:1 2773:1 5463:1 
0.3818631934061268 308:1 1139:1 2413:1 
0.2713489328033666 262:1 562:1 2413:1 5508:1 
0.5792388344206497 1274:1 1823:1 2413:1 3335:1 4192:1 
0.2653521794813773 754:1 2450:1 3172:1 3946:1 5442:1 
2.823640036464753 1090:1 1364:1 1576:1 1696:1 
1.08206607329415 216:1 606:1 645:1 1549:1 1750:1 3828:1 4946:1 5835:1 
0.6774458628504716 606:1 655:1 2059:1 2670:1 3449:1 5396:1 
6.362157494094726 5813:1 
0.06388220010222727 706:1 1732:1 2093:1 2112:1 2116:1 3139:1 3553:1 4627:1 4894:1 4978:1 5394:1 
0.3707911681232444 297:1 827:1 2278:1 3419:1 3553:1 4566:1 4894:1 5224:1 5281:1 
0.3153163920001497 1937:1 2902:1 2968:1 3082:1 3357:1 3445:1 3539:1 3553:1 3842:1 
0.1319161343987582 28:1 304:1 364:1 642:1 2368:1 2710:1 3045:1 3149:1 3553:1 3811:1 4453:1 
1.488424108523198 265:1 951:1 1346:1 1750:1 2684:1 3941:1 5530:1 
1.628320040512673 22:1 
0.7360294505732263 1393:1 1540:1 1564:1 2314:1 3008:1 3483:1 3501:1 5785:1 
1.529911847150175 1974:1 5740:1 
2.466985110933816 1572:1 3662:1 3927:1 
1.451120990578472 738:1 3927:1 4498:1 
0.3622795418321262 2283:1 3691:1 5016:1 5425:1 
5.961674095544215 525:1 1214:1 3265:1 3553:1 
10 2906:1 
0.5434286541299879 1244:1 
1.496383549403405 1522:1 1745:1 2076:1 5328:1 
10 428:1 2535:1 
1.762013516643912 2906:1 4352:1 
0.009084584969418481 117:1 745:1 1816:1 1900:1 1966:1 2341:1 2766:1 4113:1 5180:1 
0.543620266444806 2817:1 
0.3547422361632717 130:1 1338:1 1441:1 1624:1 3148:1 3218:1 3539:1 3762:1 4878:1 
1.330935550858153 2074:1 2251:1 
0.02043986609377696 1560:1 2526:1 3140:1 3806:1 4876:1 
2.382939279785858 1160:1 2930:1 3592:1 
0.6616473384262341 1816:1 2962:1 3927:1 
1.183864408516936 589:1 951:1 1738:1 1793:1 1816:1 3406:1 4543:1 4641:1 4763:1 5211:1 5716:1 
0.1923228676229109 344:1 4477:1 4765:1 4896:1 4918:1 5246:1 
0.5433098722555225 3750:1 
3.035998084399413 232:1 1750:1 4440:1 5380:1 5638:1 
0.2255466526992547 64:1 701:1 2559:1 3444:1 5229:1 5379:1 
0.5694861891745384 466:1 1978:1 3330:1 3842:1 5288:1 
1.572604280693242 2442:1 2780:1 4209:1 4725:1 
0.2719353889256004 3567:1 3898:1 
0.7630213505469572 349:1 5131:1 
6.456758452690166 219:1 
0.3973902231577394 495:1 912:1 985:1 1718:1 1764:1 4183:1 
0.3005592717895584 652:1 3230:1 3533:1 4465:1 4775:1 4830:1 
0.7335012597817557 1975:1 2832:1 3255:1 3352:1 3927:1 5562:1 
0.5935953004159606 364:1 951:1 2885:1 3055:1 5695:1 
1.353344443368409 642:1 1827:1 1937:1 3630:1 4144:1 
0.111055495950121 102:1 173:1 1441:1 1800:1 3164:1 3792:1 4215:1 4614:1 
0.7243083417931462 3927:1 5121:1 5173:1 
0.4849184434416173 2516:1 2619:1 4119:1 4206:1 5321:1 
0.5284222109137507 422:1 1139:1 2499:1 3218:1 3241:1 3927:1 4120:1 4740:1 4994:1 
4.406532702626128 422:1 2402:1 5823:1 
0.197354559949851 165:1 422:1 1588:1 1943:1 2619:1 4950:1 
2.410667838405488 422:1 904:1 2478:1 
0.1346782917387211 1117:1 1303:1 2903:1 
0.2574559437572823 142:1 1485:1 1735:1 2586:1 3375:1 3606:1 4385:1 4864:1 
0.6617893425294592 933:1 2503:1 3719:1 4567:1 4569:1 4852:1 5264:1 
1.217425650103163 1455:1 1848:1 1897:1 3665:1 4163:1 
2.473124610474719 4894:1 5020:1 
0.03022224331640471 422:1 463:1 490:1 1362:1 1458:1 2215:1 2589:1 2619:1 
1.141098807673615 1:1 423:1 1310:1 1974:1 2161:1 3480:1 3880:1 
9.652771375148449 851:1 2450:1 3105:1 
1.42262561786843 1750:1 3419:1 5204:1 
0.3214398784954461 318:1 557:1 1677:1 2035:1 
0.583972274039157 438:1 1392:1 2083:1 2214:1 4391:1 4973:1 
0.0884471007653008 2380:1 3077:1 
1.141893537856901 1027:1 1098:1 1771:1 3237:1 3559:1 3976:1 4273:1 5494:1 
1.764839795481645 1218:1 1906:1 1937:1 1946:1 4128:1 
0.6021791043631202 2683:1 3008:1 4760:1 5359:1 
8.486610313672312 364:1 1717:1 
7.507528502238075 2076:1 
1.017235879794713 426:1 1103:1 2085:1 3927:1 5252:1 
1.093963155071473 45:1 2919:1 5165:1 5178:1 
1.063966857713176 702:1 1761:1 3166:1 3543:1 
3.916906484119409 5417:1 
5.14301007404443 1475:1 2074:1 
10 
0.8587227835516543 2412:1 2425:1 2895:1 3358:1 
0.876146995248599 4039:1 4566:1 5599:1 
10 1974:1 4446:1 5697:1 
1.229141311041942 2278:1 3645:1 3727:1 4206:1 
10 4453:1 
0.5238100052181357 300:1 1834:1 2603:1 3280:1 3309:1 4240:1 4369:1 4920:1 5873:1 
0.4208185393284814 156:1 2112:1 2441:1 3031:1 3814:1 3994:1 4569:1 
0.1915939485428921 2517:1 3060:1 
0.2717757567568964 202:1 1198:1 
0.2397129571741432 219:1 398:1 690:1 1302:1 1974:1 2033:1 4887:1 
0.08236839957802758 1179:1 1480:1 4397:1 5906:1 
1.770672536204484 156:1 2564:1 2809:1 4397:1 4856:1 
0.05226554028606255 364:1 2599:1 4700:1 
7.01015609212968 427:1 1861:1 5116:1 
0.7081034267009202 1393:1 1608:1 2271:1 2377:1 3077:1 
0.818052132804147 198:1 820:1 2377:1 4435:1 4494:1 5379:1 5716:1 
0.2719118225894819 3775:1 5222:1 
0.7118610659052648 379:1 1937:1 2008:1 3853:1 4125:1 4242:1 4832:1 5842:1 
0.3803190479835141 179:1 430:1 538:1 681:1 1082:1 1111:1 1214:1 1693:1 1974:1 2318:1 2923:1 4936:1 5264:1 
0.8386081037018384 1403:1 2762:1 2851:1 4552:1 4854:1 5538:1 5893:1 
0.212859016469411 997:1 2265:1 
0.4882924601773714 2377:1 2466:1 2851:1 3117:1 3227:1 3890:1 3976:1 5656:1 
0.0002117338521622862 2076:1 5894:1 
0.8155210248129704 270:1 4569:1 
0.1101027363364924 1410:1 3510:1 4440:1 4574:1 
0.1572656492300479 4021:1 4422:1 5794:1 
0.3887741647496621 49:1 1402:1 2649:1 4409:1 5493:1 
0.9317399053205573 112:1 354:1 3128:1 4108:1 
1.080459259005231 1205:1 2478:1 3851:1 5005:1 
1.314085692626181 348:1 2450:1 2705:1 5523:1 
0.7570253332948629 29:1 216:1 645:1 1924:1 3237:1 4126:1 4446:1 5458:1 
10 
2.500150312610644 2012:1 2272:1 
0.141420505222204 1465:1 3828:1 5475:1 
10 
0.7329073233681712 1127:1 1954:1 2237:1 4422:1 
1.469102833181894 803:1 1959:1 4728:1 4799:1 4894:1 5360:1 
0.1054096247367883 803:1 952:1 2051:1 2323:1 2329:1 3066:1 4133:1 4417:1 4625:1 4931:1 
0.02995143321320079 389:1 440:1 1717:1 2189:1 2269:1 2270:1 2514:1 3789:1 4206:1 
0.45100423842291 783:1 1974:1 2390:1 2462:1 4663:1 5659:1 
1.382322262037104 219:1 637:1 2005:1 2434:1 2619:1 2906:1 3386:1 3630:1 
10 1271:1 1925:1 1937:1 1947:1 2454:1 
0.5435326046410467 4164:1 
1.218022186136738 822:1 2681:1 4876:1 
0.4344662088414464 1946:1 3379:1 5129:1 5579:1 5921:1 
10 
10 4057:1 
0.07422306396609167 428:1 1682:1 1760:1 2735:1 4416:1 
10 
2.390200670823813 5161:1 5613:1 
0.1087671599503269 1686:1 1901:1 3365:1 4047:1 5527:1 
10 2076:1 
0.06695355237169071 715:1 2431:1 2843:1 
0.9010538994417991 331:1 1733:1 2300:1 3396:1 4691:1 
0.7833029984404264 621:1 1084:1 1462:1 2346:1 3009:1 3310:1 4425:1 5911:1 
10 4920:1 
10 
2.611249166790865 1937:1 2164:1 4026:1 4440:1 
0.8192797502333597 21:1 1502:1 4883:1 
10 2843:1 
0.4277157715877218 1806:1 2438:1 2964:1 
1.715456945097758 139:1 4366:1 5541:1 
0.05842237381287632 951:1 953:1 1459:1 1832:1 1882:1 2724:1 2807:1 4641:1 5555:1 
1.466667570898715 681:1 3396:1 4453:1 5118:1 
0.2719562365572062 2134:1 5719:1 
0.053321452089873 362:1 862:1 4223:1 
1.882002647525767 2005:1 2271:1 2414:1 3785:1 
0.585056608494109 364:1 661:1 1627:1 2222:1 2756:1 3629:1 3956:1 4115:1 4405:1 4497:1 4878:1 5663:1 
0.4443048897898766 773:1 1136:1 1507:1 2513:1 4560:1 
0.2595275434494252 297:1 1065:1 1937:1 2513:1 2551:1 2843:1 5827:1 
0.75997127316082 951:1 1832:1 2513:1 2724:1 
0.00614084838769353 2513:1 
0.4994373436615646 1039:1 2112:1 2123:1 2189:1 2336:1 3842:1 4487:1 5219:1 5878:1 
0.04394948516038438 490:1 2861:1 3132:1 3563:1 3874:1 5228:1 
0.3104913130604897 83:1 490:1 1049:1 1503:1 3500:1 4005:1 4408:1 5511:1 
1.439397274506479 21:1 220:1 490:1 2161:1 3976:1 
0.06002522078830311 612:1 1103:1 1715:1 2030:1 2114:1 2806:1 3172:1 4375:1 4820:1 5613:1 
0.283200275594109 103:1 115:1 507:1 920:1 1815:1 3063:1 4392:1 4719:1 5190:1 
0.9136854383663194 2736:1 3070:1 4529:1 
10 645:1 712:1 2705:1 3828:1 
1.359663104545577 246:1 3330:1 
10 2705:1 
10 1954:1 4056:1 5491:1 
1.036372095653719 95:1 240:1 318:1 777:1 2198:1 2272:1 2809:1 3811:1 4672:1 
7.798260128229882 422:1 2923:1 3927:1 
0.09455431872009361 3677:1 4032:1 4326:1 
0.3170535454696947 1441:1 2069:1 3418:1 3828:1 5018:1 5918:1 
0.5434151195861675 871:1 
0.5628714469541634 94:1 857:1 2547:1 2906:1 4120:1 4975:1 
0.3301129878338532 4416:1 4975:1 5613:1 
10 
0.5436231458706577 2026:1 
0.05871736388253745 143:1 1062:1 1288:1 1746:1 1799:1 2969:1 4155:1 4566:1 4759:1 5613:1 
0.1071954751347337 197:1 1429:1 1925:1 1934:1 2089:1 2454:1 2961:1 3264:1 4206:1 4558:1 4759:1 5192:1 5652:1 
10 2705:1 5948:1 
3.505732959027971 719:1 3061:1 4759:1 
0.7188653230312345 857:1 4759:1 5257:1 5573:1 
0.2173908250170745 2022:1 5783:1 
2.721053132607337 1572:1 2597:1 5635:1 
0.1198668246478299 1643:1 1954:1 2158:1 2478:1 4056:1 5737:1 5738:1 
0.05933927889373024 863:1 1072:1 1992:1 3154:1 3205:1 3707:1 3794:1 4758:1 
0.06921985607206445 13:1 1297:1 2104:1 2137:1 4390:1 4758:1 5770:1 
0.1360155885813077 771:1 3570:1 3976:1 5437:1 5859:1 
0.7043052849849709 376:1 1974:1 2450:1 5371:1 
4.71876576350378 364:1 1470:1 4158:1 4453:1 5948:1 
0.3624112163650908 175:1 3070:1 5655:1 5948:1 
0.2984170987489863 541:1 706:1 942:1 1750:1 2903:1 3927:1 4550:1 4631:1 5323:1 
1.551079194241556 2390:1 4761:1 4894:1 
0.3808365805028081 1708:1 2441:1 3817:1 4916:1 5250:1 
8.784420228943841 61:1 319:1 
0.09474165547493804 297:1 2420:1 2954:1 4386:1 5536:1 
0.0829432966432308 2161:1 2851:1 3555:1 3976:1 
0.5164513213173116 1221:1 3366:1 5800:1 
0.3710933000762289 444:1 2910:1 3008:1 3602:1 5368:1 
0.6617121344728256 1214:1 2749:1 3174:1 3906:1 3927:1 4312:1 5572:1 5672:1 5921:1 
0.1869539083568126 1513:1 4550:1 
0.0289801216344472 22:1 355:1 408:1 2272:1 3356:1 3674:1 4550:1 4671:1 5417:1 5567:1 
3.498449062984707 937:1 1520:1 1937:1 2600:1 2609:1 3128:1 3736:1 4567:1 5886:1 
3.572175200699739 2156:1 4067:1 
1.637786220222115 1520:1 3649:1 3842:1 4510:1 
0.6833588123213901 1302:1 2900:1 3255:1 3910:1 4510:1 4539:1 
0.9095629843023161 4057:1 4453:1 4510:1 
0.2579562648892434 2845:1 3094:1 4510:1 
0.00385981750912493 613:1 2822:1 3190:1 3625:1 
3.886243420302407 3595:1 
0.2716208576601185 308:1 2413:1 3771:1 4643:1 
1.394750899791055 315:1 5276:1 
1.05109658692119 310:1 2076:1 2793:1 
10 3822:1 
0.8746996895526109 156:1 2302:1 2662:1 2843:1 2851:1 2886:1 3218:1 3642:1 4499:1 
10 297:1 1750:1 4057:1 
0.7560753330286313 215:1 757:1 1915:1 2185:1 2329:1 3543:1 3976:1 4057:1 
7.728046049696118 623:1 1937:1 4057:1 
0.6066196481875908 997:1 1451:1 1937:1 2441:1 2610:1 2965:1 5307:1 5810:1 
0.7487033274165268 1750:1 1768:1 
10 642:1 4057:1 5368:1 
0.2061552227526025 513:1 688:1 2156:1 4057:1 4206:1 
0.2784222929363164 119:1 1630:1 1724:1 5738:1 
0.4657919317076684 1962:1 4607:1 4985:1 5799:1 
0.7613166411195593 2568:1 2843:1 3241:1 3283:1 3398:1 
0.543584283535238 4230:1 
1.578879050448455 1937:1 2478:1 4010:1 4982:1 
0.7708671365995799 364:1 3273:1 4010:1 5893:1 
0.08897495033355941 851:1 1192:1 1572:1 2286:1 3535:1 4010:1 4618:1 4819:1 5672:1 
10 
3.164881691292861 805:1 2112:1 4206:1 
0.5914835647603014 983:1 1974:1 2112:1 2241:1 2538:1 4685:1 
0.5434326687653785 3272:1 
1.356861600999871 2556:1 3976:1 4206:1 
0.05670090982275412 712:1 1214:1 2002:1 3150:1 3300:1 5258:1 5463:1 
0.09065555029668303 770:1 899:1 1728:1 2638:1 3178:1 3451:1 
0.04363028807042234 954:1 2577:1 3595:1 3822:1 4370:1 4900:1 4999:1 5038:1 
0.278237544932972 563:1 724:1 2633:1 4343:1 4453:1 5058:1 5069:1 
1.334981278876906 73:1 113:1 219:1 2906:1 4010:1 4760:1 5253:1 5523:1 
0.6408894364636238 3295:1 3454:1 3828:1 5008:1 5523:1 
1.107542357551221 205:1 1427:1 1974:1 3131:1 4397:1 4612:1 5523:1 
0.08033267888498109 219:1 3079:1 3492:1 4860:1 5714:1 5885:1 
0.05655894065541887 318:1 826:1 2278:1 3327:1 3625:1 3637:1 4440:1 4546:1 4547:1 5438:1 
0.281444875074959 880:1 1427:1 1956:1 5086:1 5294:1 5684:1 
0.2436639448668106 709:1 1271:1 1620:1 2627:1 2882:1 4243:1 5171:1 
0.5436093919627139 1323:1 
1.505882904328244 156:1 332:1 3962:1 
0.9833104409320794 332:1 718:1 1520:1 1595:1 1929:1 2507:1 2796:1 3886:1 
3.043292450785198 332:1 538:1 1520:1 2796:1 3275:1 
0.3649974213327825 332:1 2413:1 2507:1 2796:1 4015:1 4659:1 5064:1 5314:1 5448:1 
1.028907351417502 4736:1 4905:1 
3.31991315308083 440:1 
1.914530485368742 1084:1 1278:1 1834:1 3128:1 3235:1 4569:1 5169:1 5944:1 
0.1794584411332491 1380:1 4970:1 
6.246282576396758 906:1 
10 3976:1 
3.708371549493144 857:1 880:1 1965:1 
10 
1.783868617330634 3725:1 5626:1 
0.54338382800591 713:1 
0.7558805809090752 867:1 1769:1 2103:1 2109:1 2650:1 
1.064445285480852 3536:1 5623:1 
0.09629631474094391 1302:1 1327:1 1932:1 4455:1 4760:1 5082:1 5367:1 5844:1 
0.5795312207171937 3327:1 4014:1 4055:1 4942:1 
0.5250299791726036 1292:1 1865:1 3261:1 4894:1 5627:1 5679:1 5946:1 
1.050697536908616 2519:1 3101:1 3828:1 
4.482824430449121 764:1 4967:1 
0.09249234215695303 795:1 2073:1 3253:1 4948:1 5097:1 5213:1 5237:1 5284:1 5362:1 5704:1 5763:1 
1.343064058938535 49:1 422:1 940:1 1084:1 2112:1 2598:1 3009:1 3308:1 5691:1 
0.2716523144698802 1081:1 4648:1 
2.542226727771045 691:1 1616:1 2755:1 2892:1 4394:1 4916:1 5243:1 
9.43748696236751 58:1 1302:1 4163:1 
1.218140658271879 803:1 
0.5706923529030068 379:1 705:1 2773:1 3481:1 3631:1 4931:1 
1.6234185642694 452:1 1214:1 1306:1 3070:1 3906:1 
6.081706452248961 705:1 
10 
10 2194:1 
10 3008:1 
0.3307958865066595 649:1 1139:1 2441:1 2513:1 3309:1 3453:1 4056:1 
0.5437016994642745 5654:1 
0.5534534927206201 148:1 3315:1 4301:1 
0.6902281461050483 3293:1 4435:1 5245:1 
0.855874287935114 861:1 3410:1 5613:1 
0.4339841113400428 1125:1 1468:1 2091:1 2268:1 2436:1 3817:1 4362:1 4851:1 4916:1 5061:1 5308:1 5404:1 5412:1 
0.5236239357516393 2114:1 
0.07179213782185648 351:1 3995:1 4095:1 5284:1 5763:1 
0.00102135893627629 2982:1 3388:1 
0.5435176811456912 324:1 
10 4196:1 5448:1 
0.6248546013553873 951:1 1139:1 3508:1 3625:1 4641:1 5566:1 
1.819055276419989 684:1 1041:1 1152:1 3840:1 5257:1 
1.246554944147059 280:1 1321:1 2036:1 3255:1 3736:1 
10 
0.2070027148145543 341:1 364:1 1139:1 1144:1 2540:1 5077:1 5368:1 5699:1 
0.7811338213038828 1572:1 1629:1 4823:1 
0.04171009452632535 956:1 1672:1 2079:1 2329:1 3362:1 3390:1 4120:1 4449:1 4970:1 
1.293121916139432 4796:1 5293:1 
4.060910896450181 422:1 2069:1 5006:1 
0.7925084731182284 2109:1 2478:1 5336:1 
0.2622674042657644 799:1 1769:1 2029:1 5313:1 
0.5433276147262723 3816:1 
1.356398319828864 2626:1 4206:1 
0.1150643159340088 4424:1 4746:1 4951:1 
0.404711002865226 2390:1 3101:1 3128:1 3828:1 5298:1 5813:1 
1.437478794246909 2441:1 2568:1 
0.4275055067576743 509:1 902:1 1791:1 2771:1 2881:1 3425:1 5871:1 
0.1500685428646195 802:1 960:1 3481:1 3976:1 
0.5433643508482952 4139:1 
7.040307980174551 3483:1 
0.5495352655417789 681:1 1735:1 3579:1 3697:1 3913:1 
0.3279970826787862 679:1 1102:1 1937:1 2309:1 2433:1 3989:1 5020:1 
1.105480342074945 162:1 1087:1 1346:1 3243:1 4676:1 5368:1 5733:1 5926:1 
0.56035856511932 1650:1 1735:1 2272:1 2281:1 3170:1 
6.195545993650422 1735:1 
10 
0.405086295861811 156:1 410:1 440:1 2044:1 2557:1 3404:1 5386:1 
0.803717736697207 1459:1 1633:1 3190:1 3552:1 5505:1 
0.149872690777459 2717:1 3337:1 3481:1 
0.1540107520613714 1788:1 2099:1 2151:1 2731:1 4187:1 4281:1 4543:1 
10 1735:1 
10 
10 933:1 1302:1 
-0.9234674215142179 764:1 3984:1 4566:1 5247:1 5465:1 
-0.3294090830044744 575:1 1576:1 3616:1 4120:1 
-0.8984220488288582 2164:1 2478:1 4435:1 4864:1 4948:1 5363:1 
-0.2932815454310165 1878:1 2209:1 2569:1 2881:1 3410:1 3811:1 4277:1 4570:1 4607:1 
-1.051079919051014 2329:1 2965:1 4111:1 
-1 3008:1 3068:1 3641:1 
-8.579022895554116 428:1 1302:1 1503:1 
-1.071504985524023 844:1 1937:1 2554:1 3483:1 3884:1 
-0.06033816139768431 1312:1 1719:1 2663:1 2689:1 3560:1 4598:1 5481:1 5809:1 
-4.641670461834935 2965:1 3419:1 3736:1 3927:1 
-1.587484770254925 1024:1 1947:1 2080:1 2112:1 3095:1 3811:1 5814:1 
-0.368352637520972 1593:1 2183:1 2224:1 2339:1 4521:1 5476:1 5817:1 
-0.3162896873102301 719:1 1963:1 2835:1 2977:1 3483:1 3807:1 4258:1 4691:1 4759:1 4961:1 
-1.012886067094304 1087:1 1652:1 2193:1 3425:1 3549:1 4440:1 5814:1 
-10 
-10 2851:1 3419:1 3728:1 
-1.707669374064709 1954:1 2669:1 5499:1 5946:1 
-0.2018163618094844 209:1 551:1 1857:1 2513:1 3885:1 4563:1 5951:1 
-2.376983867069486 2112:1 3581:1 
-5.304326409552988 1900:1 
-2.08092758657144 21:1 606:1 2441:1 3536:1 
-1.220398435247541 1422:1 4366:1 4672:1 
-0.741404528589981 364:1 851:1 1906:1 3309:1 3481:1 3828:1 4822:1 5272:1 5952:1 
-10 1520:1 1937:1 
-1.251913218372024 2478:1 2692:1 3605:1 
-0.5328004420017382 232:1 782:1 3054:1 
-1.338147284662048 845:1 4813:1 5728:1 
-1.357798549599449 483:1 777:1 1103:1 1893:1 2112:1 4163:1 5545:1 
-1.065917357540127 565:1 2994:1 3523:1 4309:1 4485:1 5493:1 
-1.293485865041391 1962:1 2069:1 
-1.456266271138177 5062:1 
-0.4855130720864455 1916:1 3776:1 4069:1 
-2.639252998603188 364:1 2283:1 3449:1 3659:1 
-9.341556573892127 1535:1 2076:1 4446:1 
-0.08146473695077068 1053:1 2044:1 2278:1 3197:1 3357:1 4624:1 5801:1 
-1.532556216215567 1114:1 1735:1 2837:1 3705:1 
-0.3825515835952122 1971:1 2780:1 3513:1 3630:1 4560:1 4875:1 5003:1 5680:1 
-0.5645383590784838 956:1 4249:1 4944:1 
-1.456573837216089 1070:1 
-0.2209702758453909 1687:1 1946:1 3330:1 4234:1 4453:1 5475:1 
-0.8581147868237228 657:1 951:1 1937:1 3828:1 5946:1 
-1.142688773587732 297:1 1599:1 2390:1 2454:1 3874:1 3941:1 4436:1 
-0.5827452792227769 48:1 108:1 1682:1 2292:1 2581:1 5006:1 5448:1 
-0.1131737068472826 1028:1 2472:1 4206:1 4954:1 5368:1 
-1.504676431454704 1974:1 2079:1 4163:1 4532:1 
-0.6462424434126894 2636:1 4440:1 5039:1 5473:1 
-0.5342837015474882 1735:1 2156:1 2354:1 2446:1 2498:1 2919:1 3419:1 4446:1 4793:1 4796:1 5454:1 
-10 3082:1 
-0.0360635999303965 167:1 1270:1 1894:1 3446:1 3565:1 3858:1 4876:1 
-7.215796359534316 2178:1 
-1.015003696630606 1978:1 2715:1 2943:1 3720:1 5286:1 5911:1 
-1.456485988987779 5477:1 
-0.2215908291998736 80:1 827:1 1937:1 2640:1 4078:1 5795:1 
-0.2762848792712348 4486:1 4801:1 5041:1 5444:1 5741:1 
-6.108606659588626 440:1 645:1 655:1 705:1 1946:1 2156:1 2414:1 
-0.7351851333076275 1372:1 3877:1 
-9.592577198693217 645:1 
-0.2675811229498946 422:1 789:1 1353:1 1591:1 2939:1 3053:1 3315:1 4080:1 5257:1 5817:1 
-0.1660916521486487 304:1 498:1 1020:1 3642:1 5541:1 
-0.1273043289578533 861:1 1302:1 1670:1 2390:1 4567:1 
-5.440943085262314 2377:1 
-0.02147365712558339 156:1 1551:1 2923:1 4876:1 5404:1 5434:1 5549:1 5860:1 5868:1 
-0.181379980103349 3128:1 3590:1 
-0.1496072441238432 558:1 1937:1 2390:1 2701:1 4357:1 
-1.97314715801607 706:1 1937:1 2698:1 4641:1 5262:1 5368:1 
-0.5288387834654511 717:1 3331:1 3445:1 
-10 1708:1 1936:1 2780:1 
-0.03772074508867661 1327:1 2755:1 2809:1 4071:1 4227:1 
-0.1464334672184216 2705:1 2755:1 3785:1 3899:1 
-2.122365765952985 601:1 2755:1 4446:1 
-0.436536498497413 1227:1 1883:1 2067:1 2755:1 4103:1 4609:1 5316:1 
-0.03498685456515681 205:1 2755:1 2906:1 4348:1 5368:1 5579:1 
-0.04040764155387608 1545:1 2095:1 2755:1 4510:1 
-1.060246551849421 368:1 1393:1 1545:1 2755:1 4510:1 5672:1 
-2.550029389440255 906:1 1906:1 2133:1 2755:1 4353:1 
-0.02075220553826242 2112:1 2329:1 2755:1 2862:1 2929:1 3352:1 3483:1 3785:1 4628:1 5090:1 
-0.5263929848580368 1818:1 2755:1 2767:1 
-1.550408868076474 916:1 1441:1 1861:1 2755:1 
-2.429443919357328 982:1 2755:1 
-0.5536963839174184 1271:1 2755:1 3840:1 4793:1 
-1.236788968690661 2085:1 3161:1 
-1.169034991080209 474:1 652:1 744:1 1842:1 5056:1 5379:1 5826:1 
-10 1572:1 
-0.7344299416472134 139:1 704:1 1722:1 1820:1 3146:1 
-4.913994926592559 1561:1 
-1.456511480927755 1504:1 
-0.1790843608911937 52:1 364:1 518:1 1974:1 2158:1 3875:1 4440:1 4663:1 4797:1 5214:1 5813:1 5948:1 
-0.6723199259365357 134:1 1445:1 2396:1 2804:1 3457:1 3828:1 5665:1 
-0.9344683236224479 4503:1 5404:1 
-0.7281348168851096 1366:1 2101:1 
-0.4854655316531243 605:1 4541:1 4595:1 
-10 3976:1 
-10 4440:1 
-0.3749112932422032 85:1 1412:1 2599:1 2786:1 2843:1 2844:1 3418:1 3441:1 4241:1 4252:1 4457:1 4841:1 5658:1 
-1.017246450298837 3190:1 3726:1 4440:1 
-10 3881:1 
-0.08461135007108662 3881:1 3998:1 
-0.2887220900009263 87:1 1937:1 2212:1 4842:1 
-10 3822:1 4206:1 
-10 2161:1 2329:1 
-0.3144059022692185 2329:1 3900:1 5814:1 
-0.2221305480585407 1271:1 1542:1 2329:1 2434:1 3396:1 3840:1 4607:1 4677:1 5464:1 5541:1 5611:1 
-10 318:1 2329:1 2843:1 
-0.9964433267564996 1160:1 2329:1 
-0.09982604214769818 295:1 640:1 1258:1 1750:1 2329:1 4004:1 4440:1 4589:1 
-0.03986411590563363 422:1 2329:1 3255:1 4492:1 4882:1 5922:1 
-0.987128512616224 727:1 2112:1 2156:1 2329:1 3493:1 
-6.494203699695166 1016:1 2329:1 4894:1 
-0.5544638205019424 1016:1 1961:1 2329:1 5621:1 
-4.494702787130508 2329:1 2906:1 5782:1 
-0.5426359826084182 2329:1 2784:1 5782:1 
-2.246551403111595 265:1 951:1 1520:1 2329:1 3539:1 5782:1 
-10 2156:1 2329:1 4440:1 
-0.3568996078625916 2755:1 3817:1 4676:1 5765:1 5834:1 
-0.3043213986467431 2522:1 2755:1 2902:1 3840:1 3992:1 5007:1 
-0.2076320231348556 1119:1 1859:1 2755:1 3121:1 4801:1 
-0.449452668036725 542:1 2390:1 2755:1 5056:1 
-4.472335505703787 287:1 2755:1 5131:1 
-0.8578510738879328 2329:1 2528:1 
-0.5159971800252759 71:1 297:1 1139:1 1525:1 2329:1 2930:1 3630:1 4566:1 
-5.604110103718851 2074:1 2112:1 2329:1 
-1.912429771582926 2329:1 3166:1 3543:1 3701:1 5239:1 
-10 422:1 1441:1 2329:1 
-3.06096661617519 1160:1 2329:1 
-1.035903998621755 706:1 880:1 1075:1 1878:1 2329:1 3539:1 4906:1 
-2.201003263226117 2329:1 3396:1 
-0.4089271597855515 2329:1 3388:1 3639:1 
-0.7905937927362837 102:1 938:1 
-1.893867695455085 1181:1 3190:1 4440:1 
-0.1657520268557766 297:1 364:1 1139:1 1263:1 1317:1 1564:1 1606:1 2329:1 4192:1 5245:1 5622:1 
-1.177279846812019 2601:1 2851:1 3218:1 3357:1 4130:1 
-0.3091041693388256 186:1 1166:1 1192:1 1214:1 1937:1 3190:1 3356:1 4130:1 
-0.2748647945307778 878:1 1306:1 1937:1 1975:1 3394:1 3635:1 3741:1 4809:1 4851:1 
-0.2167723754469908 1302:1 1480:1 2009:1 2389:1 5442:1 
-0.4413768581965336 563:1 2634:1 2954:1 
-0.2564635138120877 484:1 967:1 1937:1 2787:1 4494:1 5672:1 
-0.6113008642417243 1648:1 2288:1 2669:1 2867:1 3368:1 3939:1 4397:1 5486:1 5852:1 
-0.04592345030872202 1086:1 1271:1 2329:1 3939:1 4525:1 5211:1 
-0.7864348374593646 4034:1 4748:1 
-0.1153676917949719 1424:1 2755:1 2848:1 3343:1 
-2.613028100367957 2337:1 2442:1 2755:1 
-0.419947254160918 297:1 1027:1 2755:1 3425:1 3543:1 4004:1 4442:1 5576:1 
-0.3857625621800483 139:1 297:1 2755:1 3315:1 4366:1 5221:1 
-0.1599453790077547 297:1 534:1 1368:1 2755:1 2924:1 5138:1 5224:1 
-0.2422956806191332 61:1 2755:1 3124:1 3129:1 4430:1 
-0.08052566478379611 851:1 1596:1 2755:1 3009:1 3121:1 3316:1 3356:1 3715:1 5493:1 
-0.4119400960822989 229:1 589:1 676:1 756:1 857:1 1484:1 1521:1 2413:1 2755:1 4087:1 4734:1 
-7.97242719211245 332:1 422:1 773:1 2755:1 4196:1 4206:1 
-0.2050620066836382 422:1 848:1 2329:1 5929:1 
-0.03072841713360861 2329:1 2396:1 3342:1 3793:1 4109:1 5429:1 
-0.8932295025601124 2329:1 2429:1 3539:1 3828:1 4373:1 5283:1 
-0.3427410411974067 2312:1 2329:1 5620:1 
-4.483896419289003 745:1 2329:1 
-0.7355750189980941 364:1 1220:1 1271:1 1601:1 2329:1 2923:1 5494:1 5566:1 
-0.665344812144728 470:1 857:1 1093:1 4120:1 
-1.085969836943449 851:1 857:1 1769:1 3959:1 
-0.145497231624038 45:1 857:1 2450:1 2454:1 2809:1 3190:1 3665:1 3944:1 4190:1 4446:1 4494:1 4998:1 5911:1 
-0.4391054640371848 17:1 857:1 1549:1 2445:1 3211:1 3984:1 
-0.8265249724136885 857:1 1271:1 2548:1 5161:1 
-1.589125324497 474:1 661:1 2478:1 5312:1 
-0.3384390010732846 1036:1 1576:1 2568:1 3815:1 3817:1 4585:1 4783:1 5127:1 5365:1 5782:1 
-0.5531419942226921 70:1 5179:1 5498:1 
-0.7444397040055671 49:1 430:1 664:1 1162:1 1813:1 1924:1 3121:1 4470:1 5664:1 
-0.05020315686754572 1018:1 1702:1 2470:1 2961:1 3842:1 3927:1 5905:1 
-6.100138304562082 68:1 657:1 
-3.38156204122587 389:1 1079:1 2189:1 2390:1 2851:1 3442:1 3642:1 3789:1 4760:1 
-0.8177202804159192 2112:1 2390:1 4219:1 4690:1 5102:1 5810:1 
-0.04057385399611883 1067:1 2505:1 2755:1 2906:1 3351:1 3976:1 4983:1 5579:1 
-1.884422295458897 332:1 1441:1 2755:1 2851:1 4619:1 5448:1 
-0.6045213257137905 851:1 1096:1 1978:1 2494:1 2617:1 2755:1 3642:1 3828:1 5344:1 
-0.2059277563499412 1574:1 1750:1 2755:1 3621:1 3746:1 
-0.650034999050541 2755:1 2821:1 5095:1 5486:1 
-0.0738384833001202 41:1 1003:1 1684:1 2755:1 3020:1 4274:1 5264:1 
-1.194055477439796 1124:1 2603:1 2755:1 4290:1 
-0.6965904644955525 332:1 634:1 2298:1 2755:1 2843:1 4920:1 5148:1 
-1.804521296804608 338:1 857:1 2507:1 2695:1 3356:1 
-0.084424302935649 49:1 235:1 857:1 1580:1 
-0.5228699286702168 857:1 1811:1 
-0.5252192223489803 531:1 857:1 1271:1 1455:1 
-0.5433051538130977 857:1 2156:1 3566:1 
-10 857:1 3642:1 
-1.99763280938533 857:1 4155:1 
-2.039489884559492 857:1 5136:1 
-1.664726508615109 332:1 469:1 857:1 1099:1 1937:1 3453:1 
-1.028309291063746 857:1 949:1 1378:1 2321:1 2797:1 3330:1 4916:1 4955:1 
-1.944348905128765 422:1 2390:1 4876:1 5865:1 
-2.694462792926589 642:1 816:1 1577:1 2390:1 4453:1 
-0.7420139580624298 1974:1 2390:1 3939:1 4326:1 4453:1 5245:1 
-0.7056542144701332 341:1 364:1 1215:1 1757:1 1906:1 2390:1 4234:1 4320:1 5469:1 
-0.9359644832919234 534:1 1271:1 2390:1 2516:1 2705:1 3798:1 
-0.3479944302743819 87:1 104:1 2390:1 2934:1 4160:1 5324:1 
-0.525270558062502 1688:1 2185:1 2390:1 2835:1 
-0.4958982318272906 1899:1 2329:1 2390:1 3089:1 5782:1 
-0.3787565298646318 1256:1 1786:1 2390:1 3860:1 
-0.1060466440535762 1112:1 2080:1 2390:1 2488:1 
-3.694818879951739 1021:1 2414:1 
-0.7115821187541325 642:1 2414:1 4793:1 5135:1 5736:1 
-0.08918931894489268 857:1 1750:1 3976:1 4029:1 4572:1 
-0.2814526328199679 364:1 857:1 1878:1 2129:1 4641:1 5269:1 
-0.01779040336318535 857:1 2140:1 2157:1 3008:1 3024:1 3664:1 4182:1 4663:1 5011:1 
-0.1135942259208535 159:1 458:1 857:1 959:1 2201:1 2478:1 2843:1 4996:1 
-0.1868427771903723 857:1 1791:1 
-9.661483262750293 857:1 3815:1 
-0.3046546144858274 857:1 1681:1 2843:1 3862:1 
-1.007759674434056 861:1 1165:1 2681:1 
-0.7281868146993555 3765:1 4489:1 
-0.7227094077326746 2416:1 2695:1 3352:1 5147:1 5456:1 
-0.5333046565358421 181:1 332:1 1106:1 1937:1 1980:1 3485:1 
-0.7282870547959871 34:1 3836:1 
-6.329512806090481 2329:1 4494:1 
-0.6249434879144334 2329:1 3268:1 3614:1 3840:1 4968:1 5579:1 
-0.06246054806272539 2222:1 2329:1 2450:1 3022:1 4411:1 5812:1 
-0.3820607663842036 3951:1 4028:1 5462:1 5907:1 
-0.6945892473182638 254:1 364:1 642:1 1302:1 3029:1 
-2.703588283193127 1271:1 1937:1 1947:1 2027:1 2755:1 2984:1 3406:1 3539:1 5360:1 5394:1 
-0.04835205577513514 297:1 2755:1 3121:1 4538:1 4716:1 
-0.09667790205197999 297:1 2755:1 3121:1 4229:1 
-0.1004330964994393 920:1 1497:1 1974:1 2271:1 2755:1 3311:1 3642:1 4453:1 4663:1 5877:1 
-2.247523441878248 2237:1 2755:1 3874:1 4453:1 
-0.03701340173805064 584:1 2523:1 2551:1 2755:1 3177:1 3700:1 4015:1 4641:1 4828:1 5203:1 
-6.760435751449834 2755:1 2797:1 
-0.9406357311861331 228:1 2755:1 3811:1 5198:1 5816:1 
-0.4624903358275301 377:1 1937:1 2414:1 
-0.4853956970236231 230:1 4902:1 5702:1 
-1.065396375175101 124:1 1271:1 1867:1 2377:1 2889:1 3840:1 5409:1 
-0.4523476033374128 14:1 108:1 1948:1 4103:1 5053:1 5120:1 5330:1 5346:1 5485:1 
-0.6725928736982769 232:1 422:1 925:1 1816:1 2543:1 3295:1 3687:1 3809:1 4577:1 
-0.004543223383572404 2011:1 3332:1 5746:1 
-1.253341370910844 2519:1 3042:1 4177:1 
-0.5907595655700697 3190:1 4062:1 5338:1 
-0.01110447023942618 1754:1 
-10 4057:1 
-0.9977996941560497 553:1 2109:1 2353:1 3559:1 5161:1 
-1.101583216160629 1771:1 1865:1 2189:1 2425:1 2662:1 2755:1 3228:1 3419:1 
-0.5263489826988512 632:1 1818:1 2755:1 
-0.6153027842561408 2755:1 5056:1 
-0.121690038441836 990:1 2731:1 2755:1 3584:1 5188:1 
-0.5061130252885877 393:1 2156:1 2755:1 5214:1 5333:1 
-0.2969706154130735 1864:1 2755:1 5214:1 5691:1 
-1.443967952349401 2755:1 3364:1 5264:1 
-0.3647528825235896 315:1 474:1 2755:1 3580:1 5572:1 5921:1 
-0.2390170973512961 1160:1 1937:1 2000:1 3483:1 3837:1 3939:1 4102:1 4435:1 4946:1 5110:1 5416:1 
-1.456417200865057 3646:1 
-0.4306152356902299 318:1 2287:1 2882:1 3858:1 4516:1 
-0.2039455642247481 403:1 565:1 830:1 1291:1 2949:1 3604:1 4004:1 4861:1 5683:1 5872:1 
-0.7365141589877959 1304:1 2067:1 3607:1 5911:1 
-0.3011604308908248 2096:1 2485:1 4206:1 4569:1 4591:1 4651:1 5715:1 
-3.334201578371316 364:1 2705:1 3465:1 3621:1 3842:1 
-0.4193224277329655 297:1 2923:1 3128:1 4066:1 4462:1 4715:1 4813:1 5368:1 5428:1 
-10 2705:1 
-1.519704522531001 4057:1 4653:1 
-0.1408983506740637 587:1 851:1 1695:1 1729:1 4206:1 
-1.781212776805622 165:1 332:1 714:1 1937:1 2945:1 3070:1 3453:1 4630:1 
-0.7533542094659936 2382:1 2755:1 2903:1 5672:1 5921:1 
-0.7014014750293918 2156:1 2755:1 3114:1 3148:1 3828:1 
-0.2303947589248797 730:1 2755:1 2843:1 2888:1 3286:1 3357:1 4813:1 
-0.2545675918589357 497:1 2112:1 2705:1 2755:1 2917:1 4427:1 
-0.4144954503154753 27:1 1271:1 2337:1 2755:1 
-0.6509837024415942 116:1 283:1 1214:1 2293:1 2550:1 2755:1 4980:1 5343:1 5850:1 
-2.914579588890851 1843:1 2156:1 2222:1 2755:1 4120:1 
-0.1624285793140031 212:1 1067:1 1545:1 2755:1 3356:1 5586:1 
-0.480925033027458 1750:1 2043:1 2669:1 3486:1 4345:1 5494:1 
-0.7692654260774512 58:1 1256:1 3307:1 
-1.08068729273902 803:1 3790:1 4453:1 
-0.7545001875642029 61:1 803:1 1689:1 1853:1 2065:1 2866:1 4740:1 
-10 422:1 1346:1 4453:1 
-0.07591167164348821 1502:1 1767:1 2153:1 2695:1 3842:1 5307:1 5810:1 
-0.009299435100648309 4247:1 
-1.447194236762461 4247:1 
-0.728196135041602 1571:1 2015:1 
-0.7282121660267976 813:1 2799:1 
-1.456435024010993 1397:1 
-3.118224689193267 2017:1 2271:1 
-0.2912076438358719 322:1 1874:1 2916:1 4866:1 5875:1 
-3.561466592161125 312:1 4494:1 
-0.2064788463977258 892:1 1216:1 2179:1 2677:1 3858:1 4397:1 
-0.1599286003032056 21:1 3856:1 4440:1 
-1.076928550117099 3930:1 5684:1 
-0.1939477553787561 42:1 1984:1 2669:1 2718:1 2937:1 3016:1 
-2.110149776448375 308:1 
-10 2005:1 
-0.700270958098246 1295:1 2478:1 2759:1 4176:1 
-0.5878608885532177 2779:1 3516:1 5176:1 
-0.03835501341693986 205:1 1671:1 2755:1 3366:1 
-0.967295950182847 566:1 3366:1 
-1.456572087766031 5589:1 
-1.456628841701944 2148:1 
-1.113911174280552 22:1 1581:1 2355:1 3629:1 5306:1 
-0.2723608290408396 102:1 3295:1 3361:1 5100:1 5335:1 
-6.220188037306262 812:1 1974:1 3532:1 
-8.232273893456153 2123:1 
-3.812209252967037 87:1 2271:1 3358:1 
-0.3873735897611759 775:1 1271:1 2156:1 2755:1 
-0.5840536577142975 404:1 2755:1 3000:1 3121:1 4446:1 
-9.726442038861729 364:1 2755:1 5550:1 
-6.100215467572467 1906:1 1960:1 2755:1 3828:1 5239:1 
-0.2311951561551903 906:1 1545:1 2755:1 2997:1 3065:1 3122:1 3373:1 3828:1 5024:1 5735:1 
-1.328753031726837 6:1 1271:1 2755:1 
-0.3155804173407276 3157:1 5596:1 
-0.3156663679741962 3355:1 5596:1 
-0.3157986135084025 1420:1 5596:1 
-0.1935720045139271 43:1 757:1 2599:1 2628:1 2705:1 3075:1 3642:1 4485:1 5596:1 5808:1 
-1.515665967415108 908:1 1814:1 
-0.02551659407617306 364:1 911:1 1796:1 2934:1 
-4.305084127093648 525:1 
-2.488808280601499 525:1 
-0.09025185743216502 431:1 1886:1 3190:1 
-1.047050153659116 1886:1 2090:1 4494:1 
-0.3220240977723231 54:1 1886:1 2601:1 
-1.727742373715864 262:1 
-1.488789287227425 255:1 1771:1 3101:1 3475:1 
-10 1572:1 5448:1 
-0.8788922438088868 219:1 2032:1 3128:1 4569:1 5699:1 
-1.456516412688841 5358:1 
-0.7511998037488905 755:1 1158:1 1791:1 2271:1 3414:1 4988:1 5413:1 
-1.004259352503309 910:1 2271:1 3927:1 
-0.982275878000095 1530:1 
-10 2434:1 
-0.5806620174986102 451:1 4907:1 4920:1 5512:1 
-1.445698584935073 2919:1 5602:1 
-0.4494236586967931 12:1 50:1 425:1 2164:1 3911:1 
-1.617780502979555 538:1 1192:1 2222:1 2271:1 3828:1 4430:1 5735:1 
-2.598297939692771 1098:1 
-1.965575133680839 49:1 148:1 4566:1 4935:1 
-2.072170140415116 156:1 1310:1 1940:1 3828:1 5785:1 
-10 156:1 2731:1 
-9.936781955528154 389:1 3828:1 3840:1 5948:1 
-1.456320769082042 1923:1 
-0.459457739773599 1718:1 1938:1 2828:1 3266:1 3408:1 3432:1 3521:1 3559:1 3706:1 4826:1 5887:1 
-10 1937:1 2450:1 
-0.3241244586359695 84:1 1937:1 2391:1 2450:1 5018:1 
-5.678567366720655 642:1 851:1 1271:1 1937:1 2450:1 3843:1 3976:1 4569:1 
-7.800997391626561 642:1 1576:1 2450:1 
-1.116932764303941 888:1 1818:1 1924:1 2450:1 2508:1 
-5.032951309884421 58:1 2222:1 2450:1 2736:1 2851:1 3309:1 
-0.3167491680416434 2450:1 2461:1 2691:1 2768:1 3441:1 4732:1 4827:1 5926:1 
-4.737676129040088 942:1 2450:1 
-0.8712184220792206 306:1 645:1 2450:1 2705:1 3008:1 5137:1 
-0.9794548708349798 21:1 2221:1 2450:1 2851:1 
-10 2450:1 2851:1 
-0.4114504051315868 2450:1 2631:1 3113:1 4442:1 4556:1 
-1.974684950918697 2450:1 3453:1 3858:1 4206:1 5813:1 
-0.2606471232143103 86:1 440:1 579:1 2450:1 2755:1 3147:1 4024:1 4559:1 
-3.261373576130078 534:1 990:1 2402:1 4691:1 
-1.996386764215328 1925:1 3744:1 
-0.8910941999060187 864:1 972:1 
-10 3105:1 
-7.78554558126378 3008:1 3262:1 5475:1 
-1.44536105100705 1754:1 
-10 4057:1 
-10 4057:1 
-2.745814719570644 2506:1 4057:1 5761:1 
-0.4417714028929084 364:1 503:1 625:1 2032:1 3155:1 4057:1 4433:1 4843:1 5566:1 
-0.5110182729127225 528:1 706:1 1407:1 1533:1 2051:1 2430:1 3810:1 4057:1 4513:1 
-1.199191134486633 2274:1 4057:1 
-0.8386200128249595 209:1 1750:1 3190:1 4057:1 5541:1 
-10 4057:1 
-3.456554475530078 3784:1 
-0.3981642528388852 2416:1 2809:1 3483:1 4449:1 4453:1 5058:1 
-0.04552655709402203 236:1 1271:1 1937:1 2554:1 3139:1 5058:1 5935:1 
-0.159816889325454 199:1 1520:1 1937:1 2329:1 2718:1 2923:1 3130:1 3896:1 4193:1 4446:1 
-1.784473082331742 1102:1 
-0.02450123454893204 1113:1 3190:1 3398:1 5238:1 
-1.19580285449295 526:1 1271:1 1738:1 
-0.9601734752610429 642:1 4633:1 4793:1 
-1.007559317285004 711:1 1950:1 2527:1 3643:1 
-2.603444008016543 2597:1 3643:1 5031:1 5314:1 
-0.7282004759908347 3021:1 5071:1 
-6.60963360969993 904:1 4010:1 4440:1 4967:1 
-10 1098:1 
-0.0590149625957293 120:1 3307:1 4442:1 4664:1 
-0.3648549505412735 1937:1 2002:1 3398:1 3858:1 4126:1 4273:1 5016:1 
-0.9064523978543209 2283:1 2358:1 2882:1 4769:1 4779:1 5016:1 
-10 2535:1 3445:1 4777:1 5016:1 
-0.1260873153597638 474:1 2329:1 2401:1 2733:1 3326:1 3991:1 4898:1 4978:1 5157:1 
-2.193646040595297 154:1 2450:1 2669:1 2685:1 2896:1 
-0.7674487756259526 2685:1 4026:1 5181:1 
-0.4794686153510143 364:1 1089:1 1398:1 3330:1 3468:1 4153:1 5933:1 
-0.1485380357307065 1939:1 2215:1 2416:1 2491:1 2911:1 3944:1 5217:1 
-0.7988796665136183 2416:1 2851:1 3190:1 3356:1 5156:1 
-4.229866007676375 332:1 990:1 2272:1 2416:1 2851:1 2906:1 
-0.4741067289238694 422:1 1530:1 3802:1 3828:1 4181:1 5541:1 5922:1 
-3.341173723827643 2961:1 3851:1 5613:1 
-1.398740966269874 3939:1 
-1.499851299260837 157:1 1310:1 2069:1 2109:1 2268:1 2908:1 5463:1 
-10 5463:1 
-7.191878553696032 427:1 5463:1 
-3.969617099792788 773:1 3822:1 5463:1 
-6.495051129360878 364:1 1084:1 2705:1 3146:1 4206:1 5463:1 
-4.160748548674448 3789:1 3880:1 4940:1 5463:1 
-1.022215033485789 652:1 933:1 1792:1 4411:1 5463:1 5572:1 5579:1 5921:1 
-1.456879606887496 4953:1 5463:1 
-0.3916032681347428 21:1 1523:1 2036:1 3736:1 4442:1 5463:1 5952:1 
-0.2967212011222327 880:1 1184:1 1388:1 2009:1 2312:1 2705:1 2731:1 3613:1 5226:1 5430:1 5463:1 
-10 5463:1 
-0.3248343372678386 1491:1 1621:1 3063:1 4206:1 5463:1 
-5.09656389180333 1937:1 3976:1 5463:1 
-10 4206:1 5463:1 
-0.8307044028330707 43:1 1925:1 2036:1 3539:1 4501:1 4579:1 5257:1 5463:1 5595:1 
-0.2174108410275928 926:1 3135:1 3810:1 3845:1 5319:1 5463:1 5749:1 
-10 3630:1 
-2.128484266054628 4018:1 4057:1 
-1.335629710813248 4442:1 
-10 
-0.8428399337281183 188:1 297:1 440:1 1589:1 2967:1 4318:1 5691:1 
-1.796095703643821 5893:1 
-0.008115748466081398 126:1 575:1 1007:1 1021:1 1310:1 1892:1 3858:1 4163:1 5893:1 
-3.868433548789292 5948:1 
-0.02687724572468358 165:1 332:1 337:1 2164:1 2562:1 4493:1 5368:1 5948:1 
-5.945098634552964 280:1 1750:1 4440:1 
-0.1207406208026467 961:1 1192:1 3371:1 3984:1 4208:1 5647:1 
-1.142674880390122 618:1 2210:1 2923:1 3024:1 3828:1 
-0.0630469795263897 2755:1 2923:1 3190:1 3396:1 4781:1 
-0.06281517777295947 2069:1 3390:1 4435:1 4575:1 4970:1 5282:1 5709:1 
-0.7283129960617333 1029:1 4434:1 
-2.000137046621086 2705:1 2769:1 5541:1 
-0.4468526244762041 21:1 597:1 1271:1 1750:1 2051:1 2317:1 3486:1 
-10 
-1.266187044863435 21:1 803:1 4560:1 4599:1 
-10 21:1 2535:1 3822:1 
-0.07693274850334128 1506:1 1690:1 2164:1 2420:1 3763:1 4183:1 4997:1 
-9.999771010846784 3427:1 3872:1 
-1.942458371290937 3427:1 
-0.009033950715764384 575:1 1974:1 2396:1 2408:1 3295:1 4133:1 4249:1 5124:1 5748:1 
-0.7280199655129242 1638:1 4202:1 
-1.345149238128742 1214:1 2290:1 4642:1 4782:1 5475:1 
-1.360814781541183 19:1 543:1 1016:1 2568:1 2843:1 3330:1 4103:1 4158:1 4723:1 5153:1 
-0.7282104132982242 1236:1 5631:1 
-0.05851036891420073 1735:1 1836:1 2329:1 3752:1 4043:1 4606:1 5109:1 5460:1 5618:1 
-0.5413052541038952 1937:1 2154:1 2582:1 3128:1 3920:1 4352:1 
-3.217435234761313 75:1 490:1 1710:1 3840:1 4992:1 5813:1 
-3.984265675026148 60:1 1133:1 
-10 3927:1 
-10 1520:1 4979:1 
-0.2827193933115747 857:1 2295:1 5161:1 
-0.0500617930773618 46:1 
-3.353868094928888 2069:1 
-8.27366988809845 933:1 1974:1 
-10 426:1 
-0.1554873335996717 1024:1 5320:1 
-2.208608146790865 1147:1 2597:1 
-10 5368:1 
-0.5132953960106372 997:1 1342:1 2365:1 2675:1 2843:1 
-1.093849947270192 332:1 1195:1 2112:1 2158:1 2696:1 3394:1 4002:1 
-1.456209383542829 651:1 
-0.1027339561362852 507:1 585:1 1226:1 2835:1 3579:1 4347:1 4446:1 4853:1 5138:1 5728:1 
-0.03363721670868303 700:1 917:1 1946:1 2426:1 3110:1 3893:1 
-0.03423314178896046 1206:1 3453:1 3701:1 4639:1 5569:1 
-1.7206485090373 2619:1 3016:1 
-1.39383004403367 3539:1 4555:1 5493:1 5694:1 
-5.635122630461804 538:1 851:1 4569:1 
-0.9999999999999998 1139:1 4271:1 5292:1 
-4.24079211685553 495:1 2681:1 
-0.191675574759315 1057:1 2014:1 2964:1 4339:1 4892:1 5117:1 5343:1 5538:1 
-0.7282510973937438 1279:1 2204:1 
-10 
-0.1862744216667946 364:1 645:1 851:1 2160:1 5393:1 
-0.308924068070149 2087:1 2424:1 2523:1 2588:1 2664:1 5412:1 
-0.4074247798096343 1116:1 1864:1 1939:1 2774:1 3976:1 
-0.3218214753785041 545:1 741:1 4206:1 
-10 341:1 
-0.951284890741676 3530:1 4255:1 
-0.8170493906422767 1719:1 4428:1 
-1.853334035777035 857:1 870:1 1750:1 3789:1 
-2.384229485105631 103:1 
-4.73903486037163 379:1 
-10 
-0.2429381034524746 1878:1 3169:1 3696:1 4569:1 
-4.409607691257741 1214:1 2851:1 3553:1 5541:1 5757:1 
-2.769272680976321 1546:1 5541:1 5917:1 
-0.5535267495796929 740:1 1194:1 1379:1 4706:1 5061:1 5858:1 
-2.579262151882638 4979:1 
-0.7289326991250444 565:1 4814:1 
-0.9086577227320749 1103:1 1421:1 2593:1 3174:1 3960:1 
-10 1139:1 1545:1 2755:1 
-0.04166740055113653 1295:1 3830:1 4978:1 5584:1 5839:1 
-0.02586280741872238 15:1 186:1 388:1 655:1 1380:1 1664:1 3226:1 4015:1 4641:1 4645:1 5368:1 
-10 4206:1 4679:1 
-0.4991718466422584 79:1 409:1 422:1 2135:1 2247:1 5191:1 5871:1 
-10 1750:1 
-0.7282345746876092 363:1 4505:1 
-1.964961665251028 3642:1 4494:1 5094:1 
-10 1302:1 1717:1 3061:1 
-2.000160765013881 1271:1 2693:1 
-10 1750:1 1937:1 4851:1 
-0.6645384458106575 700:1 2597:1 2837:1 2955:1 
-0.4337160488169868 859:1 1538:1 5481:1 
-7.098402781261906 3265:1 3309:1 5116:1 
-0.6935558210498628 460:1 1396:1 2030:1 2823:1 2923:1 3315:1 
-0.04278260037286388 869:1 1735:1 1937:1 2306:1 2467:1 3139:1 3329:1 3992:1 
-10 
-0.8779952402969781 164:1 4169:1 5911:1 
-1.217667971021322 638:1 1294:1 2032:1 
-0.1858041671456764 1064:1 1092:1 1490:1 3617:1 3906:1 3963:1 
-10 
-0.2474174632860587 880:1 1441:1 3041:1 3510:1 4382:1 
-1.456340880848388 3320:1 
-1.456539988426157 722:1 
-0.4854219459980634 929:1 3397:1 5640:1 
-1.0424836968699 157:1 337:1 1406:1 4796:1 
-0.001289175541620021 1210:1 2329:1 2604:1 
-10 
-0.4497461904586914 599:1 781:1 2727:1 3404:1 3415:1 5507:1 
-10 
-0.53332761592466 510:1 761:1 2051:1 2329:1 4831:1 5622:1 5735:1 
-2.854713081688401 133:1 239:1 982:1 2317:1 2705:1 3483:1 
-0.4175031256219394 318:1 559:1 609:1 5193:1 
-0.6567883991853656 156:1 219:1 2705:1 3592:1 3642:1 4663:1 4867:1 5782:1 
-0.969307470709082 440:1 1271:1 1673:1 2851:1 5494:1 5826:1 
-0.3986610197545052 459:1 535:1 1120:1 
-1.576668155472353 157:1 5238:1 
-3.037459292448629 157:1 364:1 3509:1 5881:1 
-1.728345953239467 3090:1 3277:1 5486:1 
-0.08417637615976817 188:1 1067:1 2302:1 2416:1 2873:1 3400:1 4126:1 5261:1 5456:1 5924:1 
-10 3842:1 
-3.006083899447 1750:1 3828:1 4209:1 5697:1 
-10 2074:1 3976:1 
-10 
-0.7033579445084964 4155:1 5698:1 
-1.456652725748553 88:1 
-0.9747110195695676 518:1 548:1 4206:1 5808:1 5813:1 
-0.5878345489885332 801:1 5426:1 5585:1 
-0.2952678352819746 266:1 276:1 447:1 1312:1 2042:1 2843:1 3009:1 3354:1 3668:1 
-2.070132533013312 1005:1 1969:1 4163:1 4453:1 5313:1 
-0.0732738614073478 1636:1 2166:1 4894:1 5379:1 
-0.7106684659549365 383:1 1116:1 1455:1 1473:1 2042:1 2100:1 2112:1 4742:1 
-0.2097934455073757 2645:1 3212:1 5242:1 
-0.4855055506100804 328:1 2841:1 3759:1 
-1.70660562802989 1818:1 2156:1 2551:1 3479:1 4067:1 4158:1 4641:1 5178:1 
-3.640102088011061 5442:1 
-0.3991287916150691 1697:1 2329:1 2731:1 
-0.2221740043948019 1144:1 1780:1 3304:1 3585:1 3973:1 4310:1 4657:1 4862:1 5146:1 5745:1 
-1.592085090617679 2774:1 2851:1 3008:1 
-0.174486462484077 252:1 446:1 581:1 851:1 1264:1 1329:1 1727:1 1842:1 2607:1 3693:1 
-1.456680231283727 855:1 
-0.4317316672534889 1544:1 4011:1 5627:1 
-10 2194:1 
-10 
-10 5368:1 
-0.4101166244058349 422:1 2329:1 2338:1 
-0.7606704091968572 482:1 1360:1 2396:1 4796:1 
-0.6446712812421346 404:1 817:1 946:1 964:1 1119:1 
-0.6218470576622093 359:1 400:1 401:1 3009:1 4196:1 
-4.293424982452628 623:1 952:1 2161:1 4510:1 5048:1 5157:1 
-10 
-1.456598416444378 5630:1 
-10 
-0.008505064800646547 1238:1 2597:1 2913:1 4163:1 5058:1 5784:1 
-10 364:1 2705:1 
-5.359897496533952 1735:1 1937:1 2906:1 
-1.406528649986585 46:1 
-1.561241520438173 557:1 2566:1 
-0.9528116390872038 2390:1 2890:1 3507:1 
-0.2441392475447391 612:1 2660:1 2762:1 4494:1 
-1.781867938270451 2043:1 
-8.442808208990376 1937:1 5952:1 
-0.04506676966678485 2512:1 3975:1 3985:1 4234:1 4325:1 4971:1 
-4.810642691930981 569:1 1475:1 
-0.8619245357847656 4567:1 
-1.456561040616961 3531:1 
-0.9022621013866056 2156:1 2965:1 3061:1 4148:1 
-10 
-10 
-10 712:1 
-0.2600849940921025 557:1 794:1 1066:1 1886:1 2139:1 4722:1 
-1.456393061328962 4694:1 
-10 
-1.772976385821458 1750:1 4942:1 
-0.3550935928162489 1937:1 4465:1 
-0.0763939359812853 2329:1 4447:1 5552:1 
-0.4268900075491976 2156:1 2762:1 3052:1 3978:1 4433:1 
-0.5496152155295544 4954:1 
-1.456607340130798 2918:1 
-0.1270611743681995 1238:1 2597:1 2913:1 4163:1 5058:1 5784:1 
-0.364143879322559 298:1 2620:1 4211:1 4319:1 
-0.05282240721077551 671:1 1199:1 1391:1 1937:1 2845:1 3428:1 3481:1 3582:1 4645:1 4658:1 5657:1 
-0.03210401935020688 204:1 2442:1 4430:1 4780:1 4843:1 
-1.807664681371935 991:1 1160:1 3453:1 
-10 
-1.192382412329017 2222:1 2835:1 
-2.522318485156873 1239:1 1925:1 3539:1 
-10 
-8.111086860408006 3592:1 
-0.5869048037973484 2619:1 3632:1 5272:1 5541:1 
-1.64549373352081 332:1 428:1 2398:1 3008:1 3825:1 5368:1 
-0.4481998673763506 1187:1 3701:1 4129:1 4875:1 
-0.7536266782380787 850:1 1696:1 3379:1 5128:1 5698:1 
-1.181202613595851 1441:1 4192:1 5373:1 
-0.8493206338720294 752:1 3729:1 4438:1 
-1.456207187909643 3597:1 
-0.1610077527955932 1937:1 2763:1 4188:1 
-0.2656969537284419 1271:1 2229:1 2416:1 
-10 1735:1 4984:1 5328:1 
-1.27490596885101 427:1 
-0.815779774703258 2144:1 4214:1 4801:1 
-1.456587581461691 5483:1 
-10 5697:1 
-0.6258144495659239 1750:1 2871:1 3067:1 
-1.968456405380794 1937:1 2109:1 2324:1 2430:1 3392:1 3421:1 3643:1 
-10 
-4.497324699752952 3243:1 
-2.833412257747031 3927:1 4411:1 
-3.860402627028857 49:1 4257:1 
-10 4206:1 
-10 216:1 
-0.2865348809830016 318:1 1750:1 4064:1 4181:1 
-3.176592023022828 857:1 
-0.3436367607681669 5158:1 5368:1 
-1.297241954862466 3503:1 
-0.9747987641191755 825:1 1264:1 2487:1 2580:1 4206:1 
-1.011460961748451 441:1 1893:1 2220:1 2984:1 3024:1 3828:1 4975:1 
-0.3055405149307789 1808:1 1950:1 2032:1 4679:1 5442:1 5560:1 5701:1 5840:1 
-0.9050173507447756 1071:1 2283:1 3150:1 5379:1 5626:1 
-0.1420363436002519 851:1 1037:1 1851:1 2051:1 3305:1 3932:1 4023:1 4494:1 4998:1 5756:1 5934:1 
-0.5624441566412817 1224:1 1654:1 3378:1 
-0.364210749895884 462:1 747:1 847:1 2077:1 2296:1 2683:1 2988:1 
-0.3202680974328667 630:1 1027:1 4040:1 4206:1 
-10 
-0.3029141740515476 294:1 1746:1 1759:1 3097:1 5384:1 
-0.4639328288858453 1032:1 1313:1 4185:1 
-1.456277968148363 3965:1 
-0.3560221665677399 312:1 1850:1 1956:1 2112:1 3274:1 
-10 
-1.309081874421015 87:1 1122:1 
-0.5086303088617703 137:1 730:1 2374:1 3887:1 4125:1 
-10 219:1 
-1.452582600696588 997:1 1231:1 2156:1 2316:1 3147:1 5276:1 
-0.4110470725534311 347:1 823:1 1240:1 1620:1 3929:1 
-0.8208940360128398 725:1 3425:1 3435:1 3483:1 3532:1 4179:1 5038:1 
-1.456625992123467 5856:1 
-7.848646163823642 2796:1 5294:1 
-1.456353031599194 5435:1 
-0.4125357995990014 1725:1 2415:1 3380:1 3756:1 4832:1 4833:1 
-0.2849311439841863 419:1 3839:1 4238:1 4558:1 
-0.5522457362264288 846:1 850:1 1937:1 3023:1 4851:1 4871:1 
-0.09102490298624619 687:1 1045:1 1617:1 3101:1 3151:1 5343:1 5911:1 
-0.13919904554905 683:1 1669:1 2233:1 2396:1 4546:1 4796:1 
-0.491112033614814 2940:1 3563:1 4796:1 
-0.843425053823402 706:1 1483:1 1757:1 1937:1 2014:1 2810:1 4824:1 5610:1 
-0.6175924329845286 1696:1 2416:1 3379:1 4918:1 5464:1 
-0.5622346706130886 706:1 1519:1 1721:1 1757:1 2669:1 2790:1 3286:1 4158:1 4574:1 4960:1 5728:1 
-0.6055936157624638 2027:1 2272:1 3356:1 3405:1 4091:1 4453:1 
-1.075576697756433 1151:1 1750:1 1954:1 2601:1 3077:1 4056:1 
-0.6715018337514481 621:1 628:1 1188:1 1835:1 2404:1 3449:1 3768:1 3913:1 4312:1 4799:1 5942:1 
-1.600366840504389 1676:1 2906:1 4003:1 5257:1 
-0.3818402008493294 904:1 4206:1 
-0.8295310213636587 1452:1 2615:1 4422:1 4562:1 5052:1 5295:1 
-10 319:1 
-0.3967652911399667 186:1 706:1 1052:1 2299:1 2906:1 2952:1 3298:1 4057:1 4445:1 4943:1 5030:1 
-0.6917315662301986 1434:1 2768:1 3009:1 3356:1 3811:1 5106:1 
-0.7079654529006099 2597:1 4163:1 4523:1 
-2.910351040192969 364:1 389:1 
-1.150066766014917 931:1 1271:1 3225:1 5911:1 
-0.5547504720461092 310:1 1937:1 2250:1 2669:1 3077:1 3955:1 4108:1 5541:1 
-0.645135931432106 206:1 1897:1 3665:1 
-0.5258141646655764 454:1 526:1 3088:1 4004:1 4453:1 5294:1 5948:1 
-0.3548701651261825 472:1 4435:1 4690:1 
-1.09815371711289 998:1 
-10 4206:1 
-1.511453894711989 3309:1 3994:1 4196:1 4206:1 
-0.02004574478805297 263:1 2216:1 4206:1 4350:1 
-10 
-3.069214674851324 87:1 2599:1 
-0.1448709825304509 682:1 1302:1 1869:1 2272:1 3008:1 3488:1 4030:1 5488:1 5911:1 
-1.456224218076312 769:1 
-0.5730772618338954 2211:1 3309:1 3884:1 3953:1 
-1.38202024062782 684:1 1089:1 2851:1 4057:1 4165:1 
-0.259584445467347 422:1 778:1 1692:1 2649:1 3310:1 3349:1 3751:1 4380:1 5940:1 
-10 3976:1 
-0.5439931118328833 157:1 2365:1 4571:1 
-0.05174949404808078 994:1 3348:1 5442:1 
-10 216:1 
-1.601981098354418 2153:1 2187:1 3828:1 3962:1 
-0.1650979864118475 244:1 2611:1 2773:1 3413:1 3429:1 4260:1 4312:1 4889:1 5368:1 5642:1 
-10 2438:1 
-1.456481606171221 2713:1 
-9.830301251915092 681:1 
-0.371459181079707 1023:1 1161:1 3819:1 4926:1 
-1.390983488173765 422:1 2436:1 3231:1 
-3.108150332166313 2236:1 2603:1 
-1.599515387326039 1020:1 3218:1 
-0.1823475041172495 3352:1 4893:1 5869:1 
-0.3135783605163392 100:1 157:1 1260:1 1976:1 2312:1 2546:1 3145:1 3309:1 3945:1 4015:1 
-10 
-1.903217446898597 884:1 990:1 1310:1 1427:1 1649:1 1970:1 1974:1 2272:1 2412:1 2731:1 4992:1 5636:1 
-0.9001721873792101 1861:1 2477:1 2623:1 2886:1 3495:1 
-0.7069015599876509 307:1 4796:1 
-0.6857365472611037 1139:1 2158:1 2478:1 2833:1 4000:1 4106:1 
-0.7582873582074531 61:1 1053:1 1322:1 2887:1 3121:1 3440:1 4933:1 5752:1 
-1.224411460359674 1469:1 1735:1 2315:1 2390:1 
-1.762460188699255 1733:1 1757:1 1952:1 
-0.5013958127887268 1480:1 1644:1 3166:1 3543:1 3574:1 
-0.2603280681684138 535:1 1733:1 4497:1 
-10 4057:1 
-10 3309:1 3828:1 
-1.991716742814442 487:1 5383:1 
-1.514344511767366 906:1 4233:1 4736:1 
-0.9794332574823356 495:1 737:1 3725:1 
-0.7469520961348609 332:1 1328:1 1937:1 3742:1 4206:1 4245:1 4560:1 5793:1 
-0.2200508020307055 212:1 451:1 1337:1 4897:1 
-0.7275434665454111 498:1 688:1 1735:1 3132:1 3542:1 
-0.8954698633492642 356:1 1214:1 2378:1 4263:1 
-1.456619827262284 694:1 
-0.3640316547094684 1463:1 2481:1 2574:1 3823:1 
-1.45627945754851 1255:1 
-10 
-0.2019233474539831 2558:1 3887:1 4251:1 4947:1 5583:1 5593:1 
-1.71224545152875 154:1 902:1 1750:1 2705:1 2855:1 3483:1 3532:1 3539:1 3922:1 4812:1 
-10 
-0.5675685651765133 171:1 180:1 1958:1 2793:1 3501:1 5122:1 
-10 1750:1 
-0.5482682607745849 2611:1 
-0.4398563262123112 297:1 2731:1 3214:1 4296:1 
-10 440:1 
-0.1281080819238332 2368:1 3656:1 3790:1 5376:1 5761:1 
-2.505853823769045 1160:1 1750:1 3310:1 4206:1 
-2.035702202469126 1160:1 1937:1 2494:1 2723:1 3330:1 3483:1 
-0.1267148985068018 102:1 1119:1 1160:1 1410:1 2409:1 3070:1 3128:1 3842:1 3948:1 5545:1 5566:1 
-0.2581511745447572 1580:1 3269:1 4158:1 
-1.2795963067675 2705:1 3447:1 3493:1 4569:1 
-10 364:1 2705:1 
-0.5246258133534066 216:1 297:1 1267:1 4298:1 
-1.442801187823096 1034:1 2283:1 2494:1 5746:1 
-1.636164018188247 805:1 897:1 3008:1 3132:1 4389:1 
-1.356176366316731 422:1 1119:1 1847:1 2215:1 2222:1 2760:1 4458:1 
-0.3159216177514892 77:1 830:1 1103:1 1940:1 2843:1 3364:1 
-2.039466671537441 4954:1 
-1.493557116216434 2037:1 4061:1 4879:1 
-4.451745745226613 2112:1 2158:1 4878:1 
-2.597702579897633 1:1 
-10 
-0.617057574856396 29:1 652:1 1132:1 2036:1 3218:1 4737:1 
-2.306245621781867 4673:1 
-3.330516672442697 1441:1 1962:1 4120:1 4519:1 
-10 
-10 
-10 
-10 
-1.001400132371763 2002:1 2156:1 2312:1 3873:1 5455:1 
-10 
-10 642:1 
-9.317533746727051 3406:1 
-0.1267324268137559 2021:1 3295:1 3642:1 3793:1 3840:1 4684:1 4850:1 4914:1 4954:1 5541:1 
-10 
-0.1483955138671625 512:1 2835:1 
-1.407225302006902 496:1 906:1 1441:1 4560:1 4684:1 
-0.8734781889744211 372:1 672:1 1696:1 3450:1 
-0.1625766674451437 1750:1 1937:1 3419:1 3828:1 4402:1 5720:1 
-0.8466653736884452 1510:1 1818:1 1937:1 1954:1 4125:1 5098:1 
-0.04199473469834779 1292:1 3029:1 3820:1 4453:1 4629:1 
-10 2773:1 
-0.5392037372022676 165:1 745:1 3737:1 
-10 1937:1 
-0.7206304918011595 157:1 1027:1 1551:1 1981:1 4535:1 
-2.497910285106925 232:1 1014:1 1520:1 4397:1 5442:1 
-10 
-0.7346192890778424 364:1 1139:1 2687:1 3227:1 3708:1 4469:1 
-1.735688386163627 2843:1 3419:1 4851:1 5484:1 5541:1 
-1.236957516450349 1119:1 2373:1 2951:1 3842:1 5532:1 
-10 982:1 1970:1 2278:1 3858:1 4453:1 4991:1 5541:1 
-10 805:1 2268:1 
-1.456569890790427 3628:1 
-4.211133281089452 1522:1 3190:1 
-1.456561487563566 1990:1 
-1.456642136821248 5807:1 
-0.4357348238832148 156:1 645:1 850:1 4971:1 5377:1 5575:1 
-3.181029922013673 1564:1 
-1.231691407374696 3218:1 5368:1 
-0.4986079299052504 3347:1 3569:1 3768:1 
-0.1890366927454094 1808:1 2551:1 3443:1 3479:1 4679:1 
-0.6586439895641425 653:1 1752:1 5300:1 
-10 1886:1 
-1.456503519525911 4768:1 
-5.270147848024289 61:1 1014:1 2156:1 4916:1 5243:1 
-0.289121224942677 2751:1 2902:1 3310:1 3324:1 3577:1 
-10 
-7.098027353626504 688:1 1946:1 5823:1 
-1.05196195876577 1226:1 1827:1 2164:1 2456:1 3309:1 3364:1 3600:1 3828:1 
-0.5075991267316401 157:1 261:1 1084:1 1816:1 4475:1 4924:1 
-4.556565443613013 2894:1 4010:1 
-0.3520893208693068 2293:1 4607:1 5389:1 
-1.872427127173858 1937:1 2327:1 2705:1 3127:1 3785:1 4440:1 5579:1 5772:1 
-0.3988759186514453 3799:1 5300:1 
-2.123003936296773 1302:1 2272:1 3008:1 
-10 
-0.3129881280321966 237:1 389:1 1937:1 2403:1 3009:1 3486:1 3553:1 3822:1 4569:1 
-10 
-2.378389457081204 424:1 1392:1 3840:1 4783:1 5886:1 
-2.000075265906968 2156:1 4808:1 
-1.964700206946051 87:1 2797:1 4158:1 4468:1 5006:1 
-0.1717624718791505 218:1 5066:1 5368:1 
-10 3364:1 
-2.729291210654693 880:1 3008:1 5738:1 
-0.8782801099444429 723:1 1753:1 5911:1 
-0.9309422737084392 474:1 2866:1 3058:1 4738:1 4898:1 
-1.566829692528893 136:1 1143:1 3008:1 5911:1 
-0.624087169776588 525:1 642:1 
-2.000000000000001 422:1 5232:1 
-0.02589693319386524 1831:1 1937:1 2569:1 2923:1 3588:1 4030:1 4206:1 
-10 589:1 951:1 1793:1 1954:1 4056:1 
-1.453674209330561 3654:1 4498:1 
-0.1951415133065992 621:1 1339:1 1886:1 2328:1 2833:1 2923:1 3092:1 3218:1 3650:1 4569:1 5882:1 
-0.5478716360298352 431:1 718:1 953:1 1882:1 3190:1 
-0.3354258404386791 212:1 318:1 951:1 1491:1 2195:1 2550:1 3190:1 3356:1 3405:1 4641:1 5796:1 
-0.9466102963793036 220:1 2152:1 2271:1 2762:1 4184:1 
-0.01770456844455685 850:1 3128:1 3770:1 4769:1 4801:1 5411:1 5613:1 
-1.86563591387119 2843:1 4067:1 4757:1 
-0.7281989974475025 3085:1 4872:1 
-10 2809:1 
-0.382896843188354 2371:1 2762:1 3985:1 
-10 
-1.456468279751159 603:1 
-0.03013847535464532 1961:1 2951:1 3393:1 3972:1 
-0.3824987625598567 2:1 2112:1 2178:1 2458:1 3405:1 4196:1 
-0.5849860744073475 668:1 4726:1 5724:1 
-0.212666151535657 516:1 2434:1 2441:1 2893:1 3400:1 4358:1 4440:1 
-0.618697598606014 364:1 1496:1 1973:1 2716:1 2874:1 4163:1 
-0.1703242061745384 2018:1 2076:1 2271:1 2434:1 2715:1 2835:1 5911:1 
-1.289839432378028 4199:1 4920:1 
-1.456616901541729 516:1 654:1 
-0.4936697320286617 1261:1 4206:1 
-0.500438937418105 1147:1 1310:1 3072:1 3682:1 3773:1 4765:1 4894:1 5925:1 
-0.2434866169359148 1833:1 1937:1 4777:1 
-1.52303924692207 2597:1 2843:1 2900:1 3364:1 
-1.379501952866651 4997:1 
-0.1591729493597191 419:1 2133:1 2520:1 3503:1 5422:1 5475:1 
-0.7281141090203055 101:1 1354:1 
-0.7770397822644329 2399:1 3828:1 3858:1 5368:1 
-0.790553471995682 354:1 1772:1 3323:1 4510:1 5519:1 
-10 5541:1 
-0.6701292502004536 2882:1 2985:1 3674:1 3988:1 5016:1 5804:1 
-0.1459971599066323 422:1 880:1 4582:1 4835:1 
-10 
-0.8531406915747231 199:1 2281:1 3358:1 4530:1 
-10 2454:1 2843:1 
-0.4031351023400431 500:1 2068:1 2843:1 4867:1 
-0.0003841237983855235 1917:1 3243:1 3754:1 3769:1 4152:1 4391:1 5668:1 5706:1 
-1.016972060736354 332:1 374:1 1937:1 2156:1 3107:1 
-10 3828:1 
-1.180970897333494 2650:1 3532:1 4439:1 4978:1 5691:1 
-0.09108044924411218 452:1 1144:1 2965:1 3008:1 4201:1 5368:1 5403:1 
-8.711064556369713 3077:1 4236:1 
-5.625903024422888 937:1 1144:1 5541:1 
-1.456583896121075 5788:1 
-0.7859313676777924 3768:1 3828:1 4221:1 4558:1 5697:1 
-0.0503699263130256 7:1 154:1 2208:1 2312:1 3378:1 3504:1 3881:1 4051:1 4442:1 
-1.089629916858129 1787:1 2128:1 2494:1 
-0.1804641952119098 2687:1 3251:1 5285:1 5397:1 
-1.430991070587719 1796:1 
-0.5796656025319636 261:1 901:1 1747:1 4003:1 4283:1 5214:1 
-1.420471638471161 1747:1 2156:1 
-0.05822230238070323 706:1 1974:1 2718:1 2731:1 3405:1 4607:1 4892:1 4942:1 5339:1 5368:1 
-0.05752739128985135 364:1 389:1 1783:1 2329:1 4896:1 4958:1 5006:1 
-1.135306667780916 5225:1 5885:1 
-10 
-0.1701420397814146 1886:1 3925:1 3953:1 
-1.398963604987282 1482:1 
-0.2893582139849954 91:1 1301:1 1416:1 2112:1 2131:1 2907:1 4206:1 4330:1 5738:1 
-0.1116965190042705 2751:1 3305:1 3324:1 3577:1 
-1.456547074097605 3529:1 
-0.5363761285340652 1408:1 3352:1 4719:1 
-1.99968714368378 478:1 3185:1 
-1.261928579080299 157:1 1805:1 2301:1 3237:1 4820:1 5224:1 5893:1 
-0.6991637048456203 1266:1 4391:1 5127:1 5502:1 
-0.4853753821368287 1749:1 2624:1 4084:1 
-0.8008270967835617 1124:1 1937:1 3062:1 3255:1 3473:1 5020:1 5395:1 5509:1 5806:1 
-1.297772968014572 199:1 1302:1 1400:1 1587:1 2156:1 3976:1 5911:1 
-0.2327798774480367 490:1 853:1 857:1 1974:1 2156:1 2351:1 2961:1 
-0.5711377994138166 2273:1 5890:1 5901:1 
-4.022865732034041 219:1 681:1 1041:1 5224:1 
-0.3164232018885672 135:1 836:1 1442:1 1539:1 4217:1 5113:1 
-0.01557547747815769 196:1 1181:1 1439:1 1521:1 2597:1 2849:1 4163:1 
-0.3906609984758473 162:1 297:1 2755:1 2903:1 3121:1 3563:1 3788:1 5911:1 
-0.6856437927253161 159:1 355:1 642:1 
-0.8891883404711339 131:1 764:1 1099:1 2359:1 3476:1 3534:1 4979:1 5610:1 5910:1 
-0.06919683977837468 35:1 1646:1 2210:1 2828:1 3350:1 3711:1 5130:1 5326:1 
-0.4563944081180331 4517:1 
-1.095334869089439 1664:1 3212:1 
-10 4569:1 
-0.8062992664957157 877:1 1848:1 3638:1 4213:1 
-1.560269471145407 2189:1 2705:1 3214:1 
-0.01783868795643614 1937:1 2051:1 2964:1 3515:1 3797:1 4569:1 5405:1 5952:1 
-0.06279852431495946 1268:1 1805:1 4801:1 5817:1 
-0.06937951638553821 1378:1 1937:1 2838:1 3339:1 3395:1 3919:1 5613:1 
-1.088248453818594 749:1 4321:1 
-3.011791488729207 2731:1 5408:1 
-9.573318044007417 1937:1 
-1.072224365377432 721:1 1974:1 2478:1 3029:1 3421:1 4397:1 4813:1 4845:1 
-0.314547991374455 461:1 517:1 850:1 1482:1 2770:1 3753:1 3997:1 4762:1 
-3.89825119886116 297:1 425:1 2843:1 5399:1 
-0.3175221027310867 1490:1 1928:1 2217:1 2468:1 
-2.886398027758214 2611:1 
-0.4562899917803999 587:1 2611:1 3621:1 3630:1 
-0.119691955822905 165:1 2611:1 3179:1 
-1.707527865030097 2164:1 2965:1 3967:1 
-3.372397899595536 452:1 
-0.04826366495103774 2210:1 4129:1 5911:1 
-0.2652179711372882 3061:1 
-10 1937:1 
-2.682021530507001 4567:1 
-10 2705:1 
-0.2849251190195979 4258:1 4429:1 4484:1 5688:1 
-10 422:1 3128:1 3874:1 4206:1 
-0.1909871742702311 492:1 518:1 540:1 1204:1 1330:1 1443:1 1878:1 2032:1 2112:1 2329:1 3858:1 4004:1 4611:1 5633:1 
-10 3828:1 
-0.1786668164360893 1582:1 3136:1 3146:1 3252:1 4250:1 4404:1 4576:1 5317:1 5348:1 5500:1 
-1 4517:1 
-0.3244700989002471 742:1 2189:1 3218:1 4569:1 5117:1 
-10 
-0.8650487027749603 1441:1 1875:1 2998:1 
-0.2696909745843094 1237:1 2998:1 4366:1 
-0.3217450273603303 488:1 1640:1 4206:1 
-0.5242450352086356 1512:1 1961:1 2092:1 3460:1 3593:1 4100:1 4306:1 4651:1 4810:1 4813:1 
-10 1139:1 5523:1 
-0.05055824622764095 203:1 237:1 1139:1 2023:1 2325:1 3723:1 4081:1 4952:1 5012:1 5373:1 5607:1 
-0.5167221008906664 64:1 773:1 1139:1 1886:1 2851:1 4196:1 
-0.4298523511066943 425:1 1139:1 1252:1 1273:1 2302:1 2534:1 3622:1 3761:1 3858:1 4076:1 5235:1 
-0.5270884917470288 318:1 2715:1 3317:1 3933:1 4206:1 5911:1 
-0.4951216104835535 318:1 1154:1 1839:1 3642:1 4728:1 5697:1 5951:1 
-1.639669125940388 2975:1 3858:1 3944:1 5253:1 5352:1 5662:1 
-0.1199076856025218 2112:1 2254:1 2581:1 3284:1 3517:1 4397:1 4567:1 
-0.583387127392558 1139:1 2216:1 3578:1 4206:1 
-10 4206:1 
-0.1291439941641406 1160:1 2609:1 3029:1 3308:1 4151:1 5019:1 
-0.4780604628390949 972:1 2798:1 3523:1 3612:1 4908:1 
-0.1499301965584386 669:1 1261:1 3212:1 4284:1 4440:1 4453:1 4475:1 4873:1 
-4.013960917238756 3906:1 
-0.3654338147459402 1505:1 2441:1 2611:1 2891:1 3841:1 4783:1 5132:1 
-1.191727526264511 3790:1 4783:1 
-4.836206321765961 1562:1 1947:1 4783:1 
-1.700509424502866 2772:1 4641:1 4783:1 4982:1 5466:1 
-1.864243812047597 1139:1 1933:1 2651:1 2975:1 2984:1 3522:1 3542:1 4543:1 5641:1 
-1.456595025188167 1128:1 
-2.63197328875582 719:1 1452:1 1926:1 2494:1 2906:1 4759:1 5189:1 
-0.471872641573343 354:1 420:1 2191:1 2457:1 2961:1 3128:1 3840:1 5392:1 
-0.4834791235839058 148:1 2047:1 2935:1 3046:1 3357:1 
-1.456407482823849 5703:1 
-1.456517767578714 1386:1 
-3.081826222011392 1364:1 1678:1 2113:1 2117:1 2961:1 5417:1 
-0.08007469240910166 870:1 1271:1 3218:1 3343:1 3506:1 4002:1 5313:1 
-2.073222188628803 1441:1 2318:1 3008:1 5810:1 
-1.482253072908014 2066:1 5464:1 
-0.02988807833843425 364:1 1002:1 1290:1 1974:1 2493:1 3360:1 4206:1 5376:1 
-0.3870756687416537 4430:1 4610:1 4669:1 
-0.6990719704852435 661:1 852:1 4530:1 5418:1 
-0.5426193150805066 3120:1 3744:1 
-10 2076:1 3984:1 
-10 3405:1 4453:1 4569:1 5491:1 
-0.2759625576987609 526:1 1219:1 1390:1 3556:1 4015:1 4569:1 4857:1 4901:1 5081:1 5572:1 5921:1 
-0.4376141202114801 2125:1 2161:1 2277:1 3495:1 3976:1 4676:1 
-0.01131505990420454 343:1 373:1 511:1 731:1 2249:1 2454:1 2838:1 2843:1 3559:1 4389:1 
-0.7280386560082065 1534:1 3102:1 
-2.212363236305978 297:1 3817:1 3976:1 4796:1 4977:1 
-0.5345772402376495 58:1 153:1 2313:1 2851:1 4957:1 4987:1 5371:1 
-0.6577559475277289 157:1 1160:1 2178:1 2580:1 2929:1 3285:1 3840:1 3873:1 5927:1 
-1.638500701623967 886:1 3828:1 5697:1 
-1.456643307964223 4198:1 
-0.6028578859930211 922:1 2923:1 4739:1 5368:1 
-0.5829555218516826 652:1 3019:1 4474:1 5388:1 
-1.456529541102461 2417:1 
-1.45648374700124 3505:1 
-0.1430609969790521 389:1 2209:1 4262:1 4453:1 5249:1 
-1.639824255030195 4366:1 5099:1 5691:1 
-10 1278:1 1937:1 3828:1 
-0.8378505061751146 141:1 332:1 642:1 837:1 880:1 1474:1 2615:1 3789:1 
-0.7280567475668117 336:1 3610:1 
-0.5895150278978974 2568:1 2613:1 2782:1 4494:1 4569:1 4728:1 5675:1 
-0.4886720629578979 568:1 2478:1 2835:1 
-0.9140677890183104 2868:1 4011:1 5613:1 5813:1 
-4.492178607242783 5380:1 
-0.4666055837809705 318:1 972:1 1091:1 3364:1 5490:1 
-10 1974:1 
-0.7281815041367276 518:1 1531:1 1886:1 3938:1 
-0.1303666723235651 1937:1 2472:1 3128:1 4206:1 4366:1 4753:1 5157:1 5921:1 
-1.519919562135326 1214:1 1302:1 2322:1 2438:1 3008:1 4206:1 5379:1 
-3.998665805942763 4394:1 
-0.5051011843475136 390:1 463:1 563:1 2016:1 
-0.1820784098438299 1416:1 1750:1 1937:1 2139:1 2903:1 3976:1 4150:1 4641:1 5842:1 
-0.5023080389540944 1602:1 2047:1 2985:1 3357:1 
-0.7141752160590961 310:1 1911:1 2105:1 4511:1 4711:1 
-1.456496344037698 2707:1 
-0.3947883313333599 443:1 706:1 2189:1 2237:1 2835:1 3603:1 4206:1 
-1.75691120471395 1937:1 2241:1 2695:1 
-0.7283148586918873 2880:1 4654:1 
-10 
-10 
-0.5725070258344113 665:1 2836:1 3356:1 4251:1 4818:1 5951:1 
-0.396778622010354 4877:1 4909:1 5581:1 5626:1 
-0.3027478552418099 212:1 2163:1 5626:1 
-1.06906998010227 3083:1 3679:1 4206:1 4305:1 4804:1 5198:1 
-1.184426088894141 2777:1 4569:1 
-0.3871343784181538 4567:1 4852:1 5364:1 
-10 
-0.1366572357692545 176:1 891:1 979:1 4890:1 5471:1 
-1.443060084806031 216:1 364:1 2961:1 4494:1 4849:1 
-0.5391192645384524 2252:1 3419:1 4416:1 5345:1 5428:1 
-10 4760:1 
-10 1302:1 4760:1 
-0.1251274013012124 3795:1 4760:1 
-1.456533970390664 4168:1 
-0.7501108217353368 734:1 4370:1 
