svm_type c_svc
kernel_type linear
nr_class 2
total_sv 1560
rho -0.0394581
label 1 0
probA -1.06644
probB 0.0149952
nr_sv 770 790
SV
1 556:1 
0.9603348535252045 770:1 
0.6935033007389175 893:1 1029:1 2282:1 
0.000292091697546884 3467:1 3495:1 
0.5126989799370033 614:1 3754:1 
0.6140378728736071 382:1 406:1 825:1 1472:1 1637:1 1697:1 2399:1 
0.4313378917109907 237:1 1068:1 2223:1 2862:1 3273:1 
0.2975886912780875 682:1 2378:1 3330:1 
0.1538140919627612 115:1 137:1 245:1 2203:1 3208:1 
0.4802181160345864 716:1 1880:1 
0.4738046233485009 2231:1 3319:1 
1 3273:1 
0.1031664025041948 591:1 1075:1 2383:1 2867:1 
0.4802957478906215 1546:1 3739:1 
1 1356:1 2623:1 
0.6854095295810376 1157:1 1962:1 3577:1 
1 
0.4801832645092478 3047:1 3197:1 
0.7091855835780135 704:1 1069:1 2282:1 2875:1 
0.652438060491259 15:1 1332:1 1360:1 1597:1 1977:1 2636:1 3291:1 3626:1 
1 3260:1 
0.6813972666026782 1221:1 2776:1 
1 1245:1 1697:1 
1 3350:1 
0.2566601238243823 1108:1 1244:1 1487:1 1681:1 2524:1 
1 2140:1 3754:1 
0.4793180059279968 2107:1 2493:1 
1 266:1 1245:1 3014:1 3305:1 3545:1 
0.05253145220281041 3136:1 3437:1 3523:1 3591:1 
1 1370:1 2542:1 
0.2220946761018939 17:1 365:1 1264:1 1596:1 1943:1 2001:1 2203:1 2884:1 3650:1 
0.2792282525284595 31:1 1881:1 
1 2314:1 
0.1213581542970407 511:1 1922:1 
0.2920413732108941 879:1 1511:1 3732:1 
0.6461922022639994 37:1 818:1 1747:1 2952:1 3682:1 3765:1 
0.3620333064073171 1205:1 1802:1 3148:1 3657:1 
0.4249701956720141 337:1 894:1 1663:1 2735:1 2776:1 3574:1 
0.08022189043735518 639:1 1632:1 2289:1 2396:1 2629:1 3116:1 3366:1 
0.3201810793287159 579:1 873:1 3301:1 
0.9790774092983388 208:1 2306:1 2687:1 3135:1 
1 201:1 747:1 1179:1 2282:1 
0.2812862638504826 332:1 1082:1 3408:1 
0.253780511557243 269:1 842:1 1258:1 2142:1 2363:1 2827:1 2970:1 3231:1 3661:1 3725:1 
0.9601904585327571 2256:1 
0.1328332557307834 2295:1 2967:1 
0.4725043293009628 271:1 612:1 3074:1 3135:1 3400:1 
0.01026895621552623 65:1 973:1 1264:1 1431:1 3140:1 3160:1 3527:1 
0.9602722306821612 552:1 
0.3959649848295583 136:1 1937:1 2818:1 
0.2940499796581892 496:1 1003:1 1901:1 3745:1 
1 981:1 1185:1 1245:1 2879:1 
0.8767350518904723 115:1 1480:1 3227:1 
0.2534460189422867 741:1 1801:1 3422:1 
0.4802457415355247 670:1 1307:1 
0.2304495495108162 85:1 152:1 1348:1 
0.3198619886977108 1047:1 1119:1 1771:1 2019:1 3061:1 3190:1 
0.06334963068124025 618:1 1651:1 1801:1 2797:1 3214:1 3422:1 
0.320261321114313 1160:1 1377:1 3627:1 
0.3558266677075375 685:1 1023:1 1316:1 3363:1 
0.4017335257780708 1140:1 
0.9603786610284177 3006:1 
0.4803672059391931 131:1 483:1 
0.2417597045912146 145:1 1165:1 1607:1 2012:1 2285:1 2308:1 2783:1 
1 3074:1 
0.4860313199340248 2408:1 3009:1 3754:1 
1 1626:1 
0.1753085897433375 143:1 266:1 426:1 1041:1 1245:1 1623:1 2301:1 2319:1 2984:1 3483:1 
0.2867468249067075 266:1 1253:1 1577:1 3569:1 3697:1 
0.218106501514909 1041:1 1847:1 2274:1 2365:1 2911:1 3734:1 
1 
0.5891279012994262 747:1 2629:1 3535:1 
1 
0.04291758380990428 22:1 96:1 1185:1 2280:1 2776:1 
0.1385491407169022 638:1 686:1 1067:1 1760:1 3106:1 3290:1 
0.7215045272113662 680:1 1758:1 1759:1 1800:1 1801:1 3156:1 
0.3201731900532606 90:1 1203:1 3429:1 
0.1043960359052933 1997:1 2305:1 2628:1 3135:1 3477:1 3561:1 
0.08020587632136235 152:1 190:1 556:1 1279:1 1394:1 2143:1 2549:1 3172:1 3201:1 3679:1 
0.1985426414062641 997:1 1136:1 2136:1 2359:1 2737:1 3000:1 3745:1 
0.5069020416813308 1057:1 1801:1 3176:1 
1 842:1 2951:1 
0.4205549543449933 422:1 887:1 969:1 3129:1 3167:1 3762:1 
0.425742680440538 862:1 1504:1 1570:1 2083:1 3135:1 3265:1 
0.6048075162794642 1144:1 1480:1 
0.2281168091851804 280:1 690:1 939:1 1245:1 1863:1 2121:1 2601:1 2629:1 
1 603:1 
0.631876214504832 603:1 1059:1 3265:1 
1 
1 
1 2958:1 
1 1807:1 
0.1690832449938311 53:1 1575:1 2026:1 
0.2699583087719076 559:1 1127:1 1801:1 3283:1 3615:1 
0.5126833853798058 967:1 3754:1 
0.02897138219508437 316:1 2083:1 3030:1 
1 1069:1 
0.2302315349802484 3049:1 3135:1 
1 1895:1 3439:1 
0.09430362339457393 63:1 616:1 931:1 1281:1 2528:1 3509:1 3766:1 
0.05894452460070572 2026:1 2519:1 2776:1 
1 637:1 852:1 2737:1 
0.2401897371626076 1686:1 1925:1 3322:1 3547:1 
1 1346:1 
0.1533202825069706 111:1 379:1 832:1 871:1 1143:1 1409:1 2629:1 3513:1 
1 2140:1 
0.414748155861219 745:1 752:1 1138:1 
0.1697444247543288 173:1 378:1 929:1 1180:1 1232:1 1360:1 3342:1 
0.7345980311632233 108:1 2520:1 
0.5942559166189562 936:1 1245:1 1296:1 1737:1 
0.2451180135579172 15:1 533:1 674:1 803:1 1021:1 1450:1 2323:1 2795:1 2945:1 
0.7920969417104409 1157:1 1782:1 
0.6944873249295235 60:1 461:1 3360:1 
0.2946698447641326 807:1 1895:1 2536:1 
0.9606389413488967 1287:1 
0.2689188221483518 52:1 62:1 539:1 856:1 3112:1 
0.323146936018044 2542:1 2575:1 3135:1 
0.2925024814710847 1887:1 3298:1 
0.9264194647936367 964:1 2199:1 
0.9602999237060806 2935:1 
0.2805326887964525 731:1 747:1 1299:1 1922:1 1932:1 2282:1 2838:1 3143:1 3273:1 3363:1 
0.05738839626949514 143:1 536:1 738:1 954:1 1922:1 2353:1 2401:1 3378:1 
1 2233:1 3135:1 
0.960384718683998 1475:1 
1 47:1 815:1 1245:1 2575:1 
0.3846497815401439 457:1 542:1 815:1 3154:1 3359:1 
1 
1 1240:1 
0.4802219191590645 19:1 3724:1 
0.4519012177375922 459:1 752:1 1245:1 1912:1 1984:1 2918:1 3316:1 
1 
0.2550662023064909 281:1 747:1 2242:1 3649:1 
0.384708499377276 316:1 955:1 995:1 1103:1 1946:1 2140:1 2314:1 
1 2263:1 3135:1 
1 3495:1 
0.9602663653722777 276:1 
1 3630:1 
0.9053135480666674 236:1 1308:1 2623:1 
0.1850510588094663 13:1 183:1 1922:1 
0.1441029045372456 306:1 1085:1 1530:1 2666:1 2746:1 3235:1 3240:1 3420:1 3637:1 
0.7713664612104929 920:1 1544:1 2282:1 3017:1 
0.759915146344309 1220:1 
0.9602404071588463 407:1 
0.9603465221142256 2068:1 
0.9602645022826883 650:1 
0.9603039202159996 2039:1 
1 
1 143:1 3178:1 3722:1 
0.5542198560153395 1541:1 2621:1 
0.1567747516505804 667:1 957:1 1010:1 1365:1 1702:1 2323:1 2374:1 2409:1 2727:1 3225:1 
1 1304:1 2629:1 
0.1153330188887977 454:1 752:1 772:1 791:1 1047:1 1324:1 1852:1 2280:1 2820:1 2845:1 
0.9163662140596389 3588:1 
0.2657233281877428 9:1 722:1 1060:1 1480:1 1602:1 2043:1 2817:1 2888:1 
0.3697753626144537 326:1 747:1 777:1 1245:1 1958:1 2091:1 3128:1 3192:1 
0.2434190025557718 56:1 2235:1 2301:1 2532:1 2789:1 3428:1 3461:1 
0.9805104561168235 542:1 1332:1 1570:1 1933:1 2717:1 3018:1 
0.4245247888270923 1245:1 1762:1 2629:1 2893:1 3018:1 
0.9603572140446301 48:1 
0.2140140777303625 1255:1 1491:1 2093:1 2122:1 2939:1 3156:1 
0.2521773288208851 512:1 914:1 931:1 1632:1 
1 1048:1 
0.3054866841748375 10:1 351:1 1801:1 2552:1 
1 2829:1 3135:1 
0.3333803176516107 1331:1 2719:1 2772:1 2860:1 3188:1 
1 2884:1 
0.6799756053845976 229:1 1176:1 
0.1638165944647946 302:1 366:1 1140:1 1245:1 1958:1 1960:1 
0.9602758697932209 1247:1 
1 351:1 
0.4751018370703103 1431:1 3543:1 
1 
0.1424544235038586 1061:1 2083:1 2862:1 3260:1 
0.4801681040086882 2670:1 2819:1 
1 
0.6474985273796986 1857:1 
0.1888197579451331 322:1 1969:1 2663:1 3230:1 
0.3593921138347304 664:1 3133:1 3520:1 3618:1 3661:1 
0.138687568282593 547:1 1184:1 1275:1 1344:1 1561:1 3145:1 3662:1 
0.3201930277941484 199:1 1087:1 2088:1 
0.4931507846767506 3337:1 3363:1 3437:1 3580:1 
1 769:1 1883:1 
0.3901724619531275 314:1 502:1 887:1 890:1 
1 2010:1 
0.9601873389613872 2178:1 
1 
0.422195409023515 1226:1 1646:1 2119:1 2245:1 2459:1 2491:1 3575:1 
0.8300324799818712 41:1 519:1 1413:1 2061:1 2286:1 2566:1 3754:1 
1 351:1 1229:1 
1 
0.5411415807587002 292:1 1232:1 1837:1 
1 665:1 1245:1 2133:1 2736:1 
0.1850123864522365 1000:1 1538:1 1873:1 2224:1 2300:1 2741:1 3135:1 3553:1 3736:1 
0.6001648881199498 573:1 709:1 1951:1 2205:1 2663:1 
1 1069:1 
0.3201008931516285 660:1 857:1 2828:1 
0.781473752025668 622:1 1245:1 1374:1 1452:1 3158:1 
1 
0.6443887383771754 1411:1 3135:1 3505:1 
0.9604420567317549 3370:1 
0.4335634162587538 159:1 545:1 842:1 1214:1 2758:1 3333:1 
0.3421899128738548 132:1 210:1 1534:1 2406:1 2572:1 
0.004330203721430011 147:1 470:1 561:1 1005:1 1695:1 2272:1 2494:1 2776:1 3319:1 3331:1 3510:1 
0.04174800767463369 566:1 710:1 1953:1 2033:1 3593:1 
0.5313131022536728 258:1 694:1 761:1 1433:1 2388:1 3719:1 
0.3202802431379654 1027:1 2674:1 3678:1 
0.3632324447262524 981:1 1252:1 1282:1 1694:1 2016:1 2143:1 3377:1 3589:1 
1 699:1 1647:1 2737:1 2976:1 
0.2565498995552586 385:1 520:1 1047:1 1482:1 2103:1 2462:1 3308:1 3619:1 3691:1 3702:1 
0.2557062846419915 85:1 990:1 1643:1 1666:1 2469:1 3118:1 
0.500432896722409 562:1 2682:1 3418:1 3661:1 
1 1801:1 
0.1759532183394558 59:1 157:1 792:1 1227:1 2897:1 
0.4046783536245402 246:1 1789:1 
0.1494774590302738 227:1 413:1 445:1 612:1 1105:1 1710:1 2072:1 
0.002320605666689484 278:1 1010:1 2013:1 2221:1 2446:1 2458:1 2920:1 2946:1 3087:1 3520:1 
1 1245:1 
0.1395135720137761 27:1 385:1 984:1 986:1 1698:1 2132:1 2664:1 2928:1 3030:1 3442:1 
0.9066069053367273 1069:1 1966:1 2295:1 3743:1 
1 3419:1 3626:1 
0.8638966097966921 1477:1 3009:1 3392:1 
0.4801519790253475 2065:1 3669:1 
0.2029831302229088 1649:1 1734:1 2730:1 3234:1 
1 1395:1 2029:1 
0.201420422446397 301:1 1465:1 1922:1 2124:1 2959:1 3517:1 
0.1151240057345786 813:1 1155:1 2031:1 3634:1 
0.5296697708010593 539:1 851:1 919:1 
0.3328542316842458 266:1 406:1 900:1 1443:1 1480:1 
0.0396838273731893 152:1 264:1 724:1 1209:1 1252:1 2754:1 2854:1 
0.3091991826194231 632:1 677:1 1721:1 2210:1 
0.2133441411230734 364:1 954:1 1111:1 1831:1 3717:1 
0.9330869886208469 1233:1 2510:1 
1 1335:1 3273:1 
0.2559504213051308 448:1 2083:1 2205:1 2560:1 2629:1 3032:1 3345:1 
0.537204298551594 267:1 1562:1 2118:1 3630:1 
0.211037671271578 251:1 1076:1 1566:1 2750:1 2911:1 3088:1 3417:1 
1 2164:1 
0.1594626896176874 931:1 1967:1 
0.237998128742902 305:1 473:1 1819:1 1887:1 2081:1 
0.05059416727072452 10:1 58:1 931:1 1926:1 2282:1 2710:1 2884:1 2954:1 3249:1 
0.1638289013544294 329:1 803:1 817:1 1018:1 
0.1744847429788427 1173:1 1375:1 1488:1 1890:1 2215:1 2548:1 3250:1 
0.4801116567493354 1327:1 1903:1 
0.4295765643981337 215:1 2713:1 2725:1 2776:1 3182:1 
1 
0.08328668203522888 98:1 734:1 1130:1 2580:1 
0.2356343163091933 1697:1 1740:1 2282:1 2849:1 2877:1 
1 
1 1241:1 1597:1 
1 1372:1 
0.2772536230834705 557:1 747:1 1701:1 2242:1 2776:1 3693:1 
0.2401077631654356 767:1 822:1 1329:1 2377:1 
0.9602731216902872 2448:1 
0.9603026794548855 771:1 
1 137:1 747:1 3754:1 
1 931:1 
0.0001906975298375141 487:1 946:1 1220:1 
0.2772293148273581 200:1 2548:1 3009:1 3613:1 3644:1 
0.4624246767807527 98:1 319:1 645:1 1100:1 2322:1 3105:1 
1 212:1 747:1 1332:1 3135:1 
0.3201599072788843 850:1 1583:1 2924:1 
0.4340591592756828 260:1 351:1 613:1 981:1 3674:1 
0.681279221509693 2776:1 2953:1 
0.1712381379369546 169:1 438:1 1820:1 2451:1 3373:1 
0.9689274849764546 1622:1 1865:1 2962:1 
0.3864458026991648 816:1 1332:1 1497:1 2047:1 2169:1 2575:1 2651:1 3393:1 3630:1 3663:1 
0.02968821210229398 691:1 839:1 1252:1 2139:1 2665:1 2951:1 2979:1 3086:1 3747:1 
1 266:1 325:1 454:1 516:1 793:1 2271:1 3396:1 
1 2540:1 
0.9603600099923643 607:1 
1 
0.1657336519920272 175:1 1032:1 1285:1 1975:1 3202:1 3434:1 3526:1 
0.960346647289035 2531:1 
0.1168816518052475 330:1 1581:1 2181:1 3408:1 3516:1 
0.7692244247855817 351:1 2007:1 2310:1 
0.2305969879223501 743:1 2199:1 3268:1 
0.9777450763386909 2623:1 2684:1 2721:1 
0.191342934641158 905:1 1173:1 1246:1 1871:1 1922:1 3645:1 
0.4454685473383134 1020:1 1642:1 3661:1 
0.890937877872751 453:1 3661:1 
0.01538190499179895 34:1 64:1 551:1 1291:1 2221:1 2575:1 2612:1 2639:1 2692:1 2780:1 3074:1 3661:1 
1 152:1 1199:1 
1 
0.3789511584356053 3017:1 3018:1 3630:1 
1 803:1 2029:1 
1 3260:1 
1 3260:1 
0.2271678825699356 249:1 401:1 539:1 919:1 
0.4289645174225611 10:1 47:1 3596:1 
0.3200990803442962 872:1 1073:1 2995:1 
0.3924572978132861 266:1 406:1 1110:1 2340:1 2383:1 3135:1 3363:1 
0.2547787698059713 59:1 712:1 948:1 1433:1 2466:1 
0.5588078912247367 898:1 1626:1 2015:1 3009:1 3661:1 3699:1 
0.5673043825934753 275:1 1640:1 2944:1 
1 
0.4802010392165778 2428:1 3502:1 
0.7489367189341007 3665:1 
0.24033869401788 442:1 1245:1 1797:1 2495:1 2560:1 2892:1 
1 
0.06112859939919446 59:1 130:1 666:1 704:1 756:1 1656:1 1983:1 2058:1 2852:1 3512:1 
0.4683831313382792 508:1 1434:1 2200:1 2282:1 3597:1 
1 2548:1 3467:1 
0.9601974505126313 3770:1 
0.8159680624405473 756:1 791:1 1092:1 2646:1 2686:1 3174:1 
1 
1 
0.9603288182286133 2038:1 
1 
0.4041759984103845 248:1 535:1 2961:1 
1 1779:1 
0.7391114709186902 46:1 351:1 2338:1 
1 106:1 351:1 
0.9165164904411602 409:1 1807:1 2722:1 3610:1 
1 747:1 1268:1 1922:1 
0.1213268338412913 1922:1 2774:1 
0.1860713287198108 852:1 1922:1 
1 919:1 1922:1 
0.238108013653662 535:1 604:1 1326:1 1332:1 1882:1 3457:1 
1 1477:1 2871:1 
0.5551232583090766 1274:1 1922:1 
0.2341047504774632 311:1 834:1 1332:1 1433:1 1969:1 2020:1 2137:1 
0.5014757904392445 1932:1 2958:1 
1 2958:1 
0.1212683568225855 806:1 1922:1 
1 2768:1 3135:1 
0.4348384020860206 1652:1 2590:1 2644:1 
0.09202591213415776 2161:1 2629:1 2978:1 3178:1 3444:1 
0.1491165826062394 197:1 732:1 1245:1 1496:1 1511:1 2161:1 2945:1 3084:1 3293:1 3527:1 
0.07719845555364369 166:1 263:1 710:1 812:1 950:1 1577:1 1854:1 2259:1 2329:1 2504:1 2621:1 3368:1 3711:1 
0.7858687603538264 931:1 1898:1 2125:1 2143:1 2775:1 3260:1 
0.4165586232519221 546:1 2788:1 2822:1 3274:1 
0.3917621579042029 341:1 542:1 939:1 1306:1 2094:1 
0.2125907870269002 109:1 602:1 627:1 886:1 983:1 1341:1 2360:1 
0.3200837765958109 2172:1 2987:1 
1 919:1 3108:1 
0.3200706987819947 567:1 858:1 962:1 1245:1 2232:1 2367:1 2796:1 
0.06594124351303787 327:1 479:1 535:1 1116:1 1876:1 2496:1 3164:1 3389:1 3700:1 
0.03148987111797805 931:1 2047:1 3091:1 3227:1 
0.3461482497932629 659:1 1232:1 1251:1 1963:1 2592:1 2748:1 
0.2117331214401492 434:1 1837:1 
0.01944729702702892 10:1 62:1 1429:1 1456:1 2382:1 2629:1 2981:1 2990:1 3165:1 3334:1 
0.1167994414352743 388:1 803:1 1309:1 1746:1 2027:1 2203:1 2477:1 2975:1 
0.1777680949647676 243:1 2776:1 3420:1 
0.3201613850155536 28:1 2183:1 2320:1 
0.1475618679658719 152:1 2561:1 2908:1 2976:1 3472:1 
0.3201888652233005 11:1 2755:1 3582:1 
1 2422:1 3527:1 
0.3775649867684087 3404:1 3527:1 3762:1 
1 44:1 414:1 
0.4370108482292017 32:1 847:1 2912:1 
1 1354:1 2560:1 2642:1 
0.0694031627623817 287:1 318:1 374:1 597:1 600:1 652:1 793:1 860:1 1316:1 1438:1 2585:1 2681:1 2684:1 2956:1 2975:1 3339:1 
0.927631361392882 1070:1 1245:1 1347:1 1803:1 
0.3684889735717993 931:1 1800:1 1978:1 2513:1 2663:1 
0.4145680579916096 1199:1 1844:1 
0.1813441574905224 1158:1 3495:1 
0.419607932946204 605:1 3015:1 3625:1 3630:1 
0.1638703037959878 2047:1 2503:1 3630:1 
1 1754:1 3135:1 
0.392207149108572 323:1 1032:1 2095:1 2630:1 
0.9418713677688431 2301:1 2975:1 3474:1 
0.2116183504182381 1597:1 1707:1 3273:1 
1 539:1 639:1 3112:1 
0.119321365412959 150:1 1813:1 3603:1 
0.9602780817065291 1830:1 
1 1140:1 
0.7907785799292296 1680:1 2282:1 3105:1 3716:1 
1 1140:1 
1 2269:1 3308:1 
0.2424900112059832 1383:1 1426:1 2578:1 2954:1 3055:1 3187:1 3240:1 3265:1 
1 1922:1 3363:1 
1 
0.375657436228566 461:1 1269:1 2775:1 3539:1 
0.9604108379185256 692:1 
0.2652913361577747 2854:1 2920:1 3371:1 
0.05528504702881288 137:1 184:1 1107:1 1405:1 2029:1 2568:1 2628:1 3362:1 3484:1 3762:1 
0.3113149832106007 3:1 550:1 853:1 2540:1 2569:1 3605:1 
0.1129826011495704 182:1 328:1 335:1 531:1 602:1 1690:1 2159:1 2679:1 3403:1 3504:1 3557:1 
0.3089096852419078 798:1 1501:1 2508:1 2710:1 3375:1 3630:1 
0.232384258267524 1922:1 2393:1 2710:1 
1 1628:1 
1 1812:1 
1 931:1 2307:1 3227:1 
0.2317964103196481 378:1 715:1 2288:1 2779:1 3617:1 
1 
1 1354:1 3257:1 3463:1 
0.389377288238418 1936:1 2169:1 3536:1 
0.2429806659871495 201:1 1311:1 1392:1 1473:1 2083:1 
0.09559325240228841 517:1 661:1 748:1 924:1 1148:1 1342:1 1690:1 2780:1 3321:1 3621:1 3649:1 3759:1 
1 2687:1 3222:1 
0.1999664081315408 32:1 1220:1 2047:1 3121:1 3414:1 
0.2201452514216647 33:1 1351:1 1580:1 2094:1 3488:1 
0.1574973736116977 842:1 1986:1 2083:1 2169:1 2326:1 2753:1 3135:1 3288:1 3379:1 3655:1 
0.01146798358924488 567:1 1684:1 2075:1 3074:1 
0.1097588021477242 152:1 375:1 460:1 1349:1 1388:1 1942:1 3620:1 3733:1 
1 338:1 1837:1 
0.2727810755600175 1138:1 2637:1 
0.808949701464363 1179:1 1407:1 2267:1 
0.7809208802755294 10:1 931:1 1052:1 
0.05299048950577151 93:1 502:1 791:1 801:1 1857:1 3135:1 
1 629:1 639:1 
1 539:1 895:1 
0.5943659100420829 395:1 879:1 1120:1 1703:1 1870:1 2176:1 2207:1 3018:1 3178:1 3527:1 
0.7160619419994115 1052:1 1252:1 1521:1 
0.6296050415947173 209:1 2687:1 
1 
1 1333:1 
1 
0.9560075409484223 2494:1 
0.01676458879748258 704:1 848:1 1471:1 2047:1 2252:1 2271:1 3454:1 3705:1 
0.2808488741499907 479:1 1558:1 2776:1 3135:1 
1 2958:1 3363:1 
0.6061689356016454 26:1 2958:1 3363:1 
0.1825598915089695 22:1 49:1 779:1 852:1 1300:1 1370:1 1934:1 3687:1 
0.2629447589289831 981:1 1648:1 
0.9158448865450953 539:1 
0.9312469899833916 1266:1 1282:1 1363:1 
0.01828110204070839 1252:1 2548:1 2926:1 3071:1 
0.3201028888132014 544:1 3372:1 3680:1 
0.3201429890249269 548:1 1817:1 3584:1 
0.9601757017025662 3043:1 
0.05788934180725983 619:1 669:1 707:1 803:1 1697:1 1842:1 1922:1 2112:1 2512:1 2542:1 
0.03474568651078027 655:1 710:1 953:1 1468:1 1933:1 2318:1 2461:1 3661:1 3736:1 
0.5549282314484023 10:1 931:1 1664:1 2040:1 2798:1 3018:1 
0.4806910793470482 316:1 2624:1 
0.3986322261671697 1883:1 1926:1 2461:1 3273:1 
1 1843:1 2607:1 3273:1 
0.2165852589581077 86:1 107:1 249:1 347:1 833:1 931:1 1483:1 1807:1 2226:1 2807:1 3213:1 3521:1 
0.1817605527081116 82:1 575:1 720:1 743:1 1294:1 1927:1 2118:1 2143:1 2482:1 2635:1 2701:1 3420:1 
0.02801740025507559 905:1 2249:1 2629:1 2904:1 3273:1 
0.01812944583988951 609:1 2629:1 2923:1 
0.3607711839167208 144:1 500:1 
0.5944237603814251 274:1 312:1 535:1 747:1 2067:1 2282:1 2560:1 2606:1 
0.01215984929427131 576:1 980:1 2023:1 2247:1 
0.115312975578179 1290:1 1727:1 1922:1 3156:1 
0.5812003824051493 731:1 855:1 
0.6232224321057218 390:1 2964:1 
1 2003:1 2710:1 
0.7450455283091586 351:1 1660:1 1926:1 
0.5160915806469012 165:1 1173:1 1192:1 1524:1 2129:1 2542:1 3248:1 3266:1 3457:1 3753:1 
0.20783967542698 1570:1 2651:1 3038:1 
0.4802346436219833 923:1 2052:1 
0.1169090384023518 168:1 398:1 1061:1 1874:1 2876:1 3027:1 3715:1 
0.6967780943966574 47:1 1772:1 2425:1 
1 673:1 1845:1 2524:1 
0.4169946390656161 939:1 1965:1 
0.1542805294351255 151:1 316:1 516:1 676:1 761:1 1606:1 1801:1 3726:1 
0.180981685196956 760:1 768:1 1975:1 3445:1 
0.5485180159932698 22:1 1849:1 2422:1 3101:1 3135:1 
0.1385689443401389 1486:1 1569:1 2102:1 2791:1 3290:1 3441:1 
0.9483083909143872 2247:1 
0.9853465901191961 1009:1 2493:1 
1 2135:1 
0.1517615898631354 372:1 1276:1 1661:1 2257:1 3250:1 
0.4800847307809923 2672:1 3506:1 
0.1643350545210863 231:1 1605:1 3266:1 3363:1 3631:1 
0.2767532766896349 282:1 493:1 1834:1 1922:1 3135:1 
1 931:1 
1 2737:1 
0.9801670004126372 971:1 2054:1 
0.6632935295597078 127:1 173:1 1245:1 2621:1 3767:1 
0.320196245455354 1084:1 1503:1 3677:1 
0.3587596380770516 2:1 226:1 262:1 603:1 816:1 980:1 1107:1 1755:1 2085:1 2224:1 2684:1 2917:1 3352:1 
0.2683028285323854 47:1 112:1 158:1 694:1 1824:1 2203:1 
0.0002453352762059207 351:1 452:1 1390:1 2651:1 3612:1 
1 10:1 2269:1 2651:1 
0.3288486842274003 104:1 1035:1 2266:1 
0.2129759386558976 117:1 206:1 408:1 703:1 3232:1 
0.1511986294669223 915:1 1172:1 1789:1 2008:1 2219:1 2269:1 2830:1 3139:1 
0.4073855911995111 522:1 1518:1 2046:1 3235:1 
0.3606294004741174 2047:1 2392:1 2776:1 3281:1 
0.3451903605903269 499:1 996:1 1973:1 3382:1 3496:1 
0.155395458651038 78:1 747:1 2867:1 3029:1 3178:1 3541:1 
0.06766008962312754 914:1 2581:1 2879:1 2898:1 3330:1 
0.01004894349945774 1910:1 
0.2844508771527722 335:1 593:1 1142:1 2199:1 2523:1 3691:1 
0.7065709038395704 462:1 919:1 1214:1 1342:1 2864:1 3260:1 
0.9422589925794808 1111:1 2118:1 2271:1 2451:1 3452:1 3536:1 3661:1 
0.8909409711088435 1402:1 3661:1 
0.8915495837358872 462:1 1245:1 2067:1 2344:1 
0.5232118868762838 1756:1 2499:1 3719:1 
0.03162201942914492 222:1 411:1 502:1 931:1 1430:1 1680:1 3016:1 
1 
0.2279577231552094 177:1 747:1 1179:1 1623:1 1749:1 2236:1 2560:1 
0.9603613899066498 3243:1 
0.2479879658579321 294:1 965:1 3521:1 
0.05062152782505283 2047:1 
1 2047:1 
0.2735258234212674 454:1 608:1 758:1 1484:1 2394:1 2454:1 2629:1 
0.96053656739945 3572:1 
1 1910:1 
1 
0.1530061400324567 297:1 1667:1 2305:1 2376:1 2381:1 2427:1 2926:1 3748:1 
0.6428501968659595 2032:1 2199:1 
0.4138460805773317 245:1 316:1 919:1 1387:1 2199:1 2902:1 3754:1 
0.09930236159810633 410:1 1044:1 1801:1 2610:1 3074:1 
0.3504503922258744 173:1 1812:1 2737:1 2860:1 3273:1 
0.461016532542465 181:1 1214:1 1961:1 2580:1 2880:1 3074:1 3112:1 3472:1 
0.8910515367598042 1215:1 3661:1 
0.6659098231247044 816:1 1201:1 1356:1 2697:1 2970:1 
0.01443403363835092 201:1 261:1 333:1 373:1 931:1 1759:1 2189:1 2548:1 3012:1 3044:1 3538:1 
0.7023128305812821 482:1 3763:1 
1 1623:1 2932:1 
0.3817117115240708 1655:1 1693:1 1697:1 1827:1 
1 2560:1 
0.1254900518071526 311:1 410:1 940:1 1987:1 3270:1 
0.03173730036190784 163:1 1565:1 2072:1 2083:1 2455:1 2669:1 3185:1 3319:1 3391:1 
0.5637987628039426 351:1 1343:1 2823:1 
1 
0.3218679606217659 796:1 1437:1 2390:1 3459:1 3757:1 
0.490757595074638 201:1 535:1 3260:1 
0.1500219244534629 10:1 535:1 1922:1 3135:1 
0.1454785494053119 25:1 1237:1 2026:1 2080:1 3016:1 3309:1 3624:1 
0.03263996497366621 2651:1 2661:1 3002:1 3405:1 
0.9774884038446551 542:1 1697:1 2203:1 
0.3185612873360295 20:1 47:1 648:1 1697:1 1824:1 3503:1 3762:1 
0.09067819119589472 805:1 912:1 1260:1 1922:1 2297:1 2821:1 2854:1 3290:1 
0.1233707480765334 747:1 1662:1 1922:1 2683:1 
0.3744216460181538 1180:1 1922:1 2229:1 2925:1 3121:1 3326:1 
0.1197908456693648 118:1 237:1 560:1 972:1 1120:1 1922:1 2829:1 3465:1 
0.06032465548636547 535:1 565:1 1167:1 1314:1 1480:1 1573:1 1697:1 1972:1 2157:1 2498:1 
0.8083976021638195 535:1 1114:1 
0.511288571532211 10:1 535:1 3226:1 
0.2434309376389624 786:1 2026:1 2570:1 
0.5146901785206929 279:1 688:1 1332:1 1570:1 2743:1 3260:1 
0.6634798068654411 10:1 2765:1 
1 249:1 351:1 551:1 
0.4659018903974522 10:1 1171:1 1291:1 
0.05557098572365108 599:1 720:1 928:1 944:1 1395:1 1558:1 2397:1 2575:1 3289:1 3469:1 3661:1 
0.1094463878348715 212:1 1664:1 1697:1 1825:1 2135:1 
1 1245:1 1922:1 2269:1 2629:1 2737:1 3363:1 3616:1 
0.01022014117885164 275:1 1179:1 1480:1 1922:1 2639:1 2815:1 3135:1 3675:1 
0.3219891362734498 919:1 1922:1 3457:1 
0.3201181795895223 1924:1 2172:1 
0.188977878246923 162:1 542:1 746:1 2776:1 2974:1 
0.05489152606016805 94:1 749:1 1301:1 1374:1 1999:1 2629:1 2718:1 2970:1 2980:1 3191:1 3351:1 3446:1 
1 1442:1 
1 1529:1 2203:1 
0.3114529724251786 171:1 694:1 805:1 1182:1 1262:1 2560:1 2800:1 2848:1 3381:1 3550:1 3578:1 3719:1 
0.0886409110340443 152:1 2705:1 
0.9243387683601982 83:1 1336:1 1824:1 2349:1 
0.6353226670616335 1602:1 2246:1 
0.594999093960183 1257:1 1671:1 1675:1 
0.1948854710304099 1169:1 1985:1 2671:1 3445:1 
0.5554982360697783 340:1 580:1 747:1 
0.5983990222192223 747:1 981:1 1260:1 2357:1 3247:1 3706:1 
0.1983736514324349 478:1 1563:1 3308:1 3527:1 
1 1952:1 3135:1 3527:1 
0.6362375120305044 1962:1 
1 15:1 2845:1 
1 1922:1 3135:1 
0.6641070763503435 2459:1 2472:1 2485:1 
0.8487800275370135 57:1 2301:1 
0.301929369784241 156:1 1112:1 1136:1 1251:1 1460:1 1631:1 2541:1 3135:1 3193:1 
0.5480483118183578 752:1 1245:1 1249:1 1667:1 1808:1 1844:1 2211:1 2857:1 
0.6298770637273063 2687:1 3251:1 
0.4466859667828498 386:1 842:1 1034:1 1608:1 
0.4292320040237022 747:1 3527:1 3750:1 
0.1684735437891591 538:1 539:1 2041:1 2592:1 3135:1 3324:1 3527:1 3713:1 
1 3032:1 3527:1 3762:1 
2.775557561562891e-17 649:1 1962:1 2187:1 2350:1 
1 85:1 
0.1721315691230972 702:1 931:1 1711:1 1922:1 2524:1 3221:1 3630:1 
1 2829:1 3135:1 
1 2967:1 
0.2468219947864279 271:1 539:1 629:1 639:1 2193:1 3221:1 3401:1 
0.975217799651614 1662:1 1800:1 1910:1 3190:1 
1 266:1 
0.4215152363753853 528:1 861:1 1124:1 1245:1 2703:1 
0.4411466400888386 597:1 1045:1 2223:1 2916:1 
0.0126328846741432 228:1 747:1 942:1 1063:1 1609:1 2562:1 2629:1 2890:1 2998:1 3636:1 
0.9603244491401419 3287:1 
0.4239071131042618 1910:1 2242:1 
0.6398019933317478 710:1 1922:1 3053:1 3135:1 
0.960382473699637 357:1 
1 1525:1 1938:1 
1 1922:1 
0.3346164812669552 824:1 1599:1 2115:1 2240:1 
0.9602860569719488 1421:1 
1 3665:1 
0.7211810175868204 143:1 2535:1 3335:1 
0.4802333145663249 1485:1 1878:1 
0.9603518881235551 735:1 
0.3201299361289079 864:1 1478:1 1940:1 
0.9602349163136746 1836:1 
1 2775:1 
0.4206451685813257 150:1 1930:1 
1 981:1 
0.2572789672468619 101:1 404:1 1354:1 1469:1 2592:1 2665:1 2708:1 3437:1 3738:1 
0.3324705054308475 163:1 931:1 1241:1 1660:1 2271:1 2862:1 2967:1 3100:1 
0.2645695781851302 790:1 1066:1 1639:1 2641:1 
0.120950432979756 1271:1 1660:1 1899:1 2743:1 3495:1 
0.5229524196211806 810:1 2958:1 3536:1 3630:1 3762:1 
0.5545674897393601 1331:1 2083:1 3727:1 
0.4404869403327821 358:1 1741:1 1773:1 2629:1 2772:1 3399:1 3469:1 
0.4802766250859999 763:1 1378:1 
0.960351045101886 2358:1 
1 747:1 2296:1 
1 137:1 
1 639:1 909:1 2010:1 
0.2815733723637522 230:1 1556:1 1768:1 1819:1 2647:1 
0.5136022683575531 68:1 170:1 2654:1 3443:1 3496:1 
0.1825230103505888 217:1 721:1 1210:1 1282:1 1363:1 1531:1 1660:1 3078:1 3612:1 
0.9267516181455103 2161:1 2460:1 2560:1 3630:1 
0.9604456714624467 922:1 
0.8225364356174908 577:1 1397:1 2776:1 2981:1 3052:1 
0.05547827747850698 704:1 2998:1 3275:1 
0.4020972507337908 31:1 2776:1 
0.134413593540675 147:1 590:1 829:1 1183:1 2153:1 2440:1 2931:1 3279:1 3554:1 3609:1 
0.04241437281630498 1017:1 1767:1 2829:1 3273:1 
0.1487176940354418 433:1 480:1 1734:1 2433:1 2794:1 2829:1 
0.9603235954324646 1704:1 
0.638834392482327 281:1 310:1 1899:1 2188:1 2958:1 
0.3077965018113129 603:1 1494:1 1508:1 2074:1 2759:1 
0.5362275823268055 10:1 1558:1 
1 1431:1 2271:1 
1 1801:1 2044:1 
0.08266879933731489 273:1 914:1 1374:1 1713:1 3156:1 3250:1 3549:1 
0.2953620163392448 275:1 518:1 733:1 1241:1 1502:1 2097:1 2123:1 2403:1 2563:1 2929:1 3357:1 
0.1429501192267129 816:1 1326:1 3527:1 
1 
0.5677828665292327 1230:1 1752:1 
0.5214956308838096 309:1 1374:1 1801:1 
0.05828183024314145 1366:1 2176:1 3049:1 3064:1 3135:1 
0.2301282574467389 189:1 547:1 784:1 2527:1 3272:1 
1 238:1 3135:1 
0.366257265793104 316:1 542:1 1133:1 
0.3850940312046747 141:1 643:1 1472:1 1689:1 2740:1 2962:1 3135:1 
1 603:1 1801:1 2869:1 
0.2728670913783047 603:1 1186:1 1904:1 2500:1 
0.181794395211791 51:1 931:1 1013:1 1560:1 1806:1 1813:1 3177:1 
1 2235:1 
0.1278452053194042 919:1 1363:1 1922:1 2015:1 2203:1 2548:1 
0.2314230485559101 519:1 1050:1 1477:1 1668:1 2207:1 2211:1 3199:1 
0.2625506625728619 543:1 1358:1 1412:1 1597:1 1660:1 2776:1 3342:1 3363:1 
1 2687:1 2776:1 
1 1801:1 
1 406:1 
0.8036327579445779 957:1 
1 
1 1083:1 2629:1 3760:1 
0.1549600166101836 2136:1 2564:1 2629:1 3424:1 
0.04549189525826857 485:1 742:1 1282:1 1801:1 2436:1 
0.4269508770350904 555:1 752:1 1506:1 1804:1 
0.1114809573983503 92:1 339:1 1217:1 1706:1 1723:1 2303:1 2389:1 2560:1 2621:1 2667:1 2710:1 3058:1 
0.960276541942086 1006:1 
0.3242560861795341 402:1 2083:1 2907:1 
1 2282:1 
0.3812190960882419 747:1 875:1 994:1 1244:1 1693:1 1697:1 2070:1 2161:1 3260:1 
0.5553021272760724 153:1 3748:1 
0.803167473769392 1480:1 1620:1 3439:1 
0.5289057648487719 80:1 315:1 356:1 1208:1 1699:1 2207:1 2990:1 
1 
0.2906607128088352 59:1 945:1 1245:1 1619:1 1855:1 2113:1 2152:1 2270:1 3040:1 3141:1 
0.9642781694643642 3486:1 
0.1104418788022915 114:1 1085:1 1201:1 1376:1 2514:1 3319:1 3335:1 3524:1 
0.3257670659595623 360:1 774:1 1047:1 3525:1 
0.5873487545339111 280:1 634:1 1526:1 2262:1 
0.7788707827842462 266:1 1481:1 
0.4282879100647836 1899:1 2424:1 2753:1 3203:1 
0.8674269363830358 1117:1 2629:1 3762:1 
0.2287189302117066 868:1 2629:1 
0.2499999999999999 617:1 1595:1 2298:1 2629:1 3285:1 
0.3201758671037739 979:1 3385:1 3707:1 
0.3200924941781547 696:1 1617:1 1956:1 
0.2633905235672199 750:1 1202:1 1773:1 2007:1 
0.0002529044546665503 1220:1 2028:1 
1 3630:1 
0.3201519407210728 429:1 3075:1 3195:1 
0.4761475515220824 1016:1 2060:1 2094:1 2117:1 3190:1 3432:1 
0.5462928505291546 2629:1 
1 2629:1 
0.239091132910844 500:1 1840:1 1883:1 2067:1 
0.3201917435801025 2767:1 2851:1 3010:1 
1 2282:1 
1 1922:1 2282:1 3308:1 
0.01701435573978826 152:1 535:1 1488:1 1782:1 2580:1 2713:1 3315:1 
0.4216012598103759 519:1 1961:1 2105:1 2920:1 3696:1 
0.09105550850929472 293:1 468:1 558:1 646:1 698:1 1204:1 1891:1 2582:1 3152:1 3314:1 3573:1 3672:1 
0.9604851325812611 3261:1 
0.6724868259264272 2920:1 
0.6139485714390995 2829:1 
1 2560:1 
1 
0.6440149642635277 430:1 931:1 995:1 1102:1 1125:1 1155:1 1245:1 2406:1 2737:1 
1 816:1 2620:1 
0.7798169550201897 2638:1 2700:1 3711:1 
0.2993448459314634 816:1 977:1 2424:1 2737:1 3074:1 3203:1 
0.4288497628216034 1122:1 1130:1 1245:1 1660:1 3020:1 3054:1 3641:1 3742:1 
0.3206687765345688 1959:1 2560:1 3273:1 
0.7188048229710862 1055:1 1910:1 
0.4604093427258128 2295:1 2724:1 
0.3941549153669125 742:1 2221:1 2649:1 2866:1 3207:1 
1 1245:1 
0.03641101582824103 59:1 149:1 694:1 1023:1 1585:1 2560:1 
0.3380612648188815 1993:1 2026:1 
0.3202060708766983 42:1 1079:1 1784:1 
0.2330955275025063 1447:1 1570:1 2643:1 2877:1 2934:1 
0.4802057770117666 2785:1 3501:1 
0.7276097883152827 1245:1 1922:1 2884:1 2967:1 
0.3661573217010409 367:1 858:1 1758:1 2157:1 2206:1 3659:1 
0.04274421693842498 296:1 597:1 1195:1 1241:1 1738:1 1986:1 2625:1 2858:1 3011:1 3311:1 
1 
1 
0.7227283395554677 15:1 403:1 405:1 569:1 1336:1 2269:1 3358:1 
0.2944532363631098 2586:1 2879:1 2927:1 
0.9603986626998534 2709:1 
1 1199:1 2737:1 2775:1 
0.5406572522149575 615:1 1473:1 
0.3887247059985552 1141:1 2704:1 2776:1 
1 2359:1 3000:1 
0.07542495630645449 536:1 1697:1 1947:1 2359:1 2663:1 
1 1062:1 1336:1 1729:1 2271:1 2958:1 
0.331614197961323 2873:1 2892:1 
1 1245:1 
0.007769582287194585 1509:1 1722:1 2456:1 2663:1 2920:1 3224:1 3691:1 
0.867160527487146 1907:1 2314:1 
1 47:1 3119:1 3235:1 
0.2818188589608878 600:1 1110:1 1318:1 
0.02926500904295943 1941:1 3488:1 3536:1 3698:1 
0.320251192461445 1239:1 1708:1 1766:1 
0.1450399516479765 1698:1 2171:1 2197:1 2362:1 2470:1 2835:1 2856:1 2896:1 2967:1 
0.2595707710637158 266:1 313:1 1691:1 3701:1 
1 
0.5643458019705296 963:1 1090:1 2209:1 2628:1 2804:1 3689:1 3755:1 
1 47:1 1245:1 
0.3366363452738071 59:1 535:1 629:1 3633:1 
0.1768235567280748 102:1 221:1 447:1 1187:1 1474:1 1801:1 1934:1 2128:1 2714:1 3076:1 3384:1 
0.2597103274964199 164:1 247:1 409:1 1857:1 3610:1 
1 1140:1 
1 
0.3143121936499986 152:1 858:1 1613:1 1883:1 2684:1 3567:1 
0.1187196668376903 47:1 506:1 1787:1 2101:1 2629:1 3008:1 3018:1 
0.0439224477239122 155:1 414:1 653:1 877:1 1801:1 1958:1 2432:1 2457:1 2708:1 2958:1 2967:1 3588:1 3762:1 
1 1801:1 
0.9602512385056025 687:1 
0.2545649659048125 74:1 280:1 1597:1 1861:1 2634:1 2665:1 2726:1 
1 161:1 1887:1 3014:1 
0.2959156491259864 171:1 1277:1 2967:1 
0.341586068298402 1050:1 2577:1 2628:1 
1 772:1 886:1 995:1 1883:1 2629:1 
0.4735679223033326 1540:1 2170:1 3247:1 
1 3049:1 3135:1 
0.08859585567750834 346:1 1159:1 1275:1 2009:1 2207:1 2620:1 
0.05699675276934713 149:1 1673:1 1933:1 2892:1 2900:1 3135:1 3544:1 
0.4058128595845706 1933:1 1967:1 
0.3886104280799632 752:1 1602:1 2022:1 2600:1 
0.9603306370748079 2837:1 
0.3328684080803986 2651:1 
1 1922:1 
0.9602989366573069 2691:1 
1 2313:1 2582:1 
0.9602720275777783 204:1 
0.2177510596470296 414:1 415:1 1884:1 2524:1 3527:1 
0.382315010561399 1334:1 2775:1 
0.5312844447512886 1021:1 1612:1 3380:1 3480:1 3706:1 
1 406:1 2147:1 
0.5348555601565206 1129:1 2943:1 3156:1 
1 1179:1 1729:1 1922:1 
0.3095981746091325 480:1 852:1 2108:1 2406:1 2737:1 
0.0947723840876098 129:1 330:1 383:1 575:1 590:1 1161:1 1480:1 2110:1 
0.313975090166142 2029:1 2180:1 2413:1 2629:1 
0.0001799509573950516 2339:1 2651:1 3050:1 
0.09699494077618682 119:1 1124:1 1804:1 2423:1 
0.9603661044777935 631:1 
0.04776553350993419 272:1 972:1 1025:1 1130:1 1418:1 1462:1 2776:1 2854:1 
0.5962749374033671 171:1 546:1 1272:1 
0.5828647647067228 751:1 842:1 845:1 1245:1 1697:1 1980:1 2121:1 2299:1 
0.7170862859833625 1697:1 2416:1 3074:1 3260:1 
1 519:1 1245:1 1594:1 
-0.4337934414564804 1733:1 1883:1 2201:1 
-0.09741875093243636 305:1 754:1 816:1 2310:1 2433:1 2509:1 3481:1 
-0.04069645597930266 128:1 
-1 1612:1 
-1 1332:1 2422:1 3273:1 
-1 1090:1 
-0.5101333532282616 919:1 1685:1 
-0.6929172031872336 2145:1 2654:1 
-1 2970:1 2976:1 
-1 2271:1 
-0.2765335008543841 2580:1 2653:1 2776:1 3189:1 3500:1 
-0.1927820276492819 465:1 904:1 2097:1 
-0.8456865918425707 1697:1 2636:1 2952:1 3115:1 3227:1 3236:1 3527:1 
-1 3343:1 
-0.09234590552531022 22:1 68:1 210:1 1520:1 1683:1 2194:1 3180:1 3229:1 3562:1 3610:1 
-0.3440620405896805 10:1 406:1 887:1 1633:1 2007:1 2443:1 2590:1 2607:1 3522:1 
-0.4821152643529437 498:1 905:1 1477:1 1845:1 2809:1 
-0.02192885543982223 1179:1 1201:1 1245:1 1547:1 1608:1 2282:1 2419:1 3037:1 3156:1 3332:1 
-0.7689313220423356 290:1 3032:1 
-0.6974346929456161 312:1 356:1 1480:1 3109:1 
-1 351:1 1397:1 2203:1 
-0.8031890780917109 695:1 2062:1 2958:1 
-0.6568578360675534 955:1 1180:1 
-0.04098678143658389 142:1 847:1 1097:1 1635:1 2212:1 2729:1 2769:1 3548:1 
-0.5197664838580867 1971:1 3299:1 
-1 
-0.3931104783675613 894:1 1392:1 2548:1 2967:1 3215:1 
-0.5557605537738421 931:1 1664:1 1806:1 2203:1 2333:1 
-0.1732058480891425 1645:1 2398:1 2782:1 2938:1 3169:1 3558:1 
-0.2354648317723726 1064:1 1249:1 2560:1 2903:1 3433:1 
-0.355592148837328 1408:1 1919:1 3135:1 
-1 1431:1 
-0.7343977023715997 1453:1 2911:1 
-0.1368621449197919 351:1 606:1 1333:1 2759:1 3203:1 3248:1 3381:1 3602:1 
-1 454:1 2629:1 2962:1 3178:1 3762:1 
-0.5822904660521971 667:1 3749:1 
-0.0568005339315567 15:1 3067:1 3079:1 
-1 1179:1 1525:1 2629:1 
-0.6132479058557712 510:1 2282:1 
-0.8565607385973901 2282:1 3461:1 
-0.450842440409682 747:1 1883:1 2070:1 2258:1 
-1 262:1 
-1 971:1 
-1 
-0.2923190633420498 351:1 598:1 1098:1 1835:1 
-0.7226493259281196 2737:1 3156:1 3313:1 3467:1 3630:1 
-0.9688750263774704 1260:1 2737:1 3674:1 
-0.4380674023102818 1529:1 1778:1 1918:1 2018:1 3535:1 3579:1 
-1 1356:1 
-0.007243176584931286 1483:1 1537:1 2654:1 
-0.5196416993778 889:1 1454:1 
-0.4029258411792986 608:1 2405:1 2526:1 2879:1 3671:1 
-1 208:1 2958:1 3711:1 
-0.197805464688951 1351:1 2179:1 2850:1 3347:1 3491:1 
-0.03820715651188605 587:1 840:1 931:1 1004:1 1047:1 1413:1 1423:1 1905:1 1972:1 2248:1 2733:1 3422:1 3569:1 
-0.2250882273896478 1302:1 3740:1 
-0.1433628129779302 529:1 1131:1 3630:1 
-0.1290911184491403 43:1 460:1 505:1 516:1 708:1 1915:1 2271:1 2483:1 2628:1 2665:1 3074:1 
-1 2010:1 3135:1 
-0.366775352850945 81:1 198:1 1043:1 1819:1 2109:1 2629:1 3566:1 
-1 747:1 
-0.5196956553298381 179:1 2696:1 
-1 1582:1 2623:1 2687:1 
-0.1096772758130382 689:1 1039:1 1120:1 2510:1 
-0.7872152058253538 373:1 665:1 3363:1 
-1 3233:1 3273:1 
-1 747:1 981:1 1245:1 
-0.3150404661394554 1991:1 2143:1 3381:1 3743:1 
-0.4081397963798932 122:1 1826:1 2976:1 3616:1 
-0.3862236389116104 2227:1 2571:1 3203:1 
-0.4212961690170675 811:1 919:1 1632:1 
-0.2462010584476797 928:1 1047:1 1191:1 1488:1 3570:1 3606:1 
-0.1329582839506913 507:1 536:1 958:1 1245:1 2228:1 2255:1 2616:1 3754:1 
-0.3153574943662322 450:1 859:1 1179:1 
-1 
-0.5546280811035091 1357:1 3072:1 3661:1 
-0.05507377908081659 338:1 372:1 1660:1 1933:1 2073:1 2628:1 2986:1 3473:1 
-0.03728982818210522 461:1 1658:1 1853:1 1939:1 2025:1 2191:1 2490:1 2738:1 2745:1 3353:1 
-0.6243206462063722 1333:1 1654:1 3345:1 
-0.1332879485716259 752:1 1770:1 2007:1 2605:1 
-0.2786140952017143 1012:1 2143:1 2776:1 
-0.316240771313521 1627:1 2399:1 2535:1 2781:1 2862:1 3184:1 
-1 
-0.3118438437385013 887:1 2073:1 
-0.1483606505872571 1465:1 1922:1 2124:1 3034:1 3490:1 
-1 938:1 
-1 3576:1 
-0.03914562460154561 191:1 224:1 730:1 788:1 928:1 2126:1 2291:1 2510:1 2535:1 3487:1 3630:1 
-0.3309119743677551 1139:1 2415:1 3003:1 
-0.1981481343988176 315:1 519:1 
-0.2317023185418711 406:1 842:1 860:1 3638:1 
-0.4875484640400367 2282:1 3001:1 3148:1 
-1 
-0.3324291675718555 1154:1 1174:1 1553:1 2026:1 2591:1 2645:1 
-1 
-0.3611240098678335 930:1 1320:1 1542:1 1962:1 2282:1 2962:1 3248:1 
-0.6676323244009927 577:1 1336:1 2085:1 2245:1 2542:1 3260:1 
-0.2641052202120002 816:1 925:1 1436:1 1572:1 
-1 542:1 551:1 1354:1 1570:1 2450:1 2621:1 2623:1 3260:1 
-1 554:1 1070:1 1140:1 3273:1 3469:1 3630:1 
-0.3464807864861669 1189:1 2812:1 2910:1 
-0.8369663523598858 406:1 931:1 1413:1 3577:1 
-0.7100896254882788 441:1 843:1 2582:1 
-0.1241071101410961 464:1 1146:1 1864:1 1975:1 2476:1 2520:1 2788:1 2945:1 3331:1 3685:1 
-0.8251539114276674 2209:1 
-0.6882530632943367 747:1 1922:1 3119:1 3153:1 
-1 1623:1 2560:1 
-1 
-0.5564777337948684 3016:1 3123:1 
-0.03046583843994013 1106:1 1232:1 1410:1 1805:1 2463:1 
-1 223:1 
-0.3438427738330415 755:1 1346:1 3135:1 3444:1 3598:1 
-0.4068949885353731 2072:1 2435:1 2855:1 
-0.09762317356600878 271:1 654:1 679:1 1049:1 1164:1 1523:1 1761:1 2776:1 3405:1 
-0.2710230635262695 47:1 1323:1 2121:1 2601:1 3034:1 
-0.3798370054049869 432:1 1100:1 1827:1 2301:1 
-0.255652521693252 24:1 739:1 976:1 1523:1 1680:1 1697:1 2903:1 3758:1 
-0.1344164152471704 789:1 1493:1 2083:1 2433:1 
-0.2274460669016319 676:1 1937:1 3111:1 
-0.3465914884382095 835:1 2005:1 3622:1 
-0.1868181506226242 939:1 1325:1 1775:1 1801:1 2808:1 2854:1 2894:1 3074:1 
-1 2313:1 
-0.6104647901139263 621:1 1199:1 2282:1 
-0.1666433606719016 534:1 819:1 1564:1 1614:1 1696:1 1726:1 2275:1 2554:1 2967:1 3284:1 
-0.8222123774081527 266:1 3433:1 3630:1 
-0.1281889380929906 610:1 853:1 1156:1 1500:1 1829:1 2203:1 2777:1 2811:1 3258:1 3586:1 
-1 1833:1 
-0.1289527721999644 207:1 2652:1 2977:1 
-1 1916:1 
-1 
-1 2282:1 
-1 2271:1 
-1 989:1 2282:1 2629:1 
-0.2237174201428306 842:1 1259:1 2425:1 3540:1 
-0.132550622453843 1451:1 2116:1 2221:1 2445:1 2498:1 
-0.7019758178875007 1499:1 1729:1 1807:1 1933:1 2071:1 2461:1 
-1 
-1 1245:1 3630:1 
-1 1168:1 
-0.3213968136743379 3014:1 
-0.07226243868937651 406:1 793:1 1245:1 1396:1 1511:1 2662:1 2815:1 3298:1 
-1 
-1 931:1 3260:1 
-1 1245:1 3754:1 3762:1 
-0.9989878268768217 128:1 
-0.8119606419905779 1433:1 2895:1 
-0.4492383831637919 3009:1 3531:1 3720:1 
-0.2647598879109352 1576:1 2687:1 3161:1 3414:1 
-0.70971775151862 1232:1 2120:1 
-1 1245:1 3760:1 
-1 171:1 1459:1 
-1 1457:1 
-0.1909449650127993 143:1 373:1 1801:1 2992:1 
-1 
-1 
-1 1843:1 
-0.3169617021393741 2426:1 2868:1 3190:1 3717:1 
-0.4403660899596206 663:1 3711:1 
-0.404499810252334 2149:1 3478:1 
-1 601:1 
-0.007199513091759341 919:1 2269:1 3546:1 
-1 
-0.8888614024859914 747:1 1235:1 
-0.2173817386624025 71:1 1245:1 
-0.6934567276918081 23:1 2282:1 2772:1 
-0.4441107922642553 359:1 1801:1 2567:1 3414:1 3763:1 
-0.1352757606521776 3393:1 
-1 14:1 
-0.2290433934909848 754:1 3033:1 3163:1 3485:1 
-0.0846540862421952 635:1 995:1 
-0.02362861380744111 505:1 764:1 1212:1 1245:1 1744:1 1751:1 2794:1 3120:1 3259:1 3592:1 3600:1 
-0.2134317287898093 491:1 720:1 809:1 2036:1 3757:1 
-1 1477:1 2566:1 3018:1 
-1 
-0.7735719707460662 2029:1 3610:1 
-0.9789441805159178 1214:1 1480:1 3210:1 
-1 
-1 1570:1 
-0.01607864702043141 1392:1 2006:1 
-0.2719873367728227 1669:1 1998:1 2737:1 3032:1 
-0.4988076621460719 266:1 1101:1 2165:1 2271:1 3471:1 3527:1 
-0.3998912408168092 1032:1 1845:1 2484:1 3094:1 
-0.1008168543518595 620:1 1095:1 1657:1 2199:1 3123:1 
-0.5240323792921411 191:1 603:1 3107:1 
-0.6032551372868354 1392:1 1910:1 2776:1 2967:1 3522:1 3762:1 
-0.3464784422852264 6:1 174:1 1949:1 
-1 1739:1 
-0.1086334100246618 1245:1 3098:1 3415:1 
-0.3363670663918908 2051:1 2476:1 3273:1 
-1 1361:1 2169:1 3754:1 
-1 1091:1 
-0.580502966188188 852:1 1305:1 3168:1 
-1 2573:1 
-0.1999008356070495 3119:1 
-0.4444218331981479 747:1 2439:1 3683:1 
-0.05794008775963596 538:1 623:1 
-0.1908677907008442 756:1 816:1 877:1 1521:1 2687:1 2936:1 3395:1 3712:1 
-0.6162011535401335 1125:1 1185:1 1245:1 1693:1 1703:1 2262:1 3580:1 
-1 
-1 756:1 
-1 3190:1 3719:1 
-0.1621797759837034 519:1 2159:1 3104:1 
-0.09335741476219191 351:1 412:1 3157:1 3180:1 
-1 2406:1 3292:1 
-1 3135:1 
-1 535:1 
-0.1172946111155634 747:1 816:1 3004:1 3082:1 
-0.5095943008684993 15:1 847:1 
-1 1883:1 
-0.1136353913587327 1730:1 2271:1 
-1 1401:1 
-0.2926272814657377 2141:1 2686:1 2922:1 3135:1 3258:1 
-0.5891442104261714 201:1 301:1 668:1 1131:1 1337:1 1745:1 1922:1 
-0.3993719319386373 2064:1 2776:1 
-0.1355449385389061 464:1 590:1 642:1 881:1 1224:1 2085:1 2777:1 2853:1 3381:1 3536:1 
-0.166726723968912 909:1 1274:1 1333:1 2010:1 2313:1 2793:1 3132:1 3492:1 
-0.4709111580459779 563:1 2176:1 2301:1 2803:1 2975:1 
-0.2756430784758102 351:1 416:1 920:1 1804:1 1814:1 
-0.1465731324838807 911:1 1031:1 1385:1 1542:1 2203:1 2687:1 2689:1 2695:1 3312:1 3327:1 3390:1 
-0.4817694734104777 486:1 1093:1 3176:1 
-0.0411109188600834 308:1 1579:1 1944:1 2129:1 2920:1 3124:1 
-0.1465648690686359 1194:1 1310:1 1629:1 1928:1 2195:1 2202:1 3208:1 
-0.02286757425461053 10:1 639:1 892:1 1091:1 1996:1 2400:1 3096:1 3099:1 
-0.162543936928374 1634:1 2659:1 2731:1 3135:1 
-0.2487687324537396 13:1 611:1 927:1 1032:1 1117:1 1407:1 1522:1 2127:1 2720:1 3302:1 
-1 
-0.2078903184017144 456:1 718:1 740:1 775:1 2309:1 
-0.7036979333822061 280:1 1358:1 2113:1 
-0.3443867377451564 2677:1 3089:1 3406:1 
-1 1598:1 
-0.3716383493193127 800:1 831:1 1014:1 1292:1 1697:1 
-1 
-0.4315015569468885 220:1 2917:1 
-0.4099832932537809 1896:1 2131:1 2349:1 2944:1 3560:1 
-1 542:1 
-0.5131464073217831 556:1 1801:1 2002:1 2244:1 2580:1 3194:1 
-0.02689111334237542 711:1 1333:1 1612:1 1662:1 2269:1 2510:1 2746:1 3042:1 3363:1 
-0.2862209256095912 390:1 892:1 1743:1 2138:1 2467:1 
-0.8581867288554115 2029:1 2282:1 3762:1 
-0.3807403462595111 985:1 1199:1 1834:1 1883:1 2175:1 
-0.3639818094459344 1201:1 1225:1 1336:1 1460:1 1473:1 1869:1 3228:1 
-1 3534:1 
-1 2067:1 3490:1 
-1 3340:1 
-0.1829248134613009 932:1 933:1 1105:1 1994:1 2216:1 3388:1 
-0.3699363491257421 315:1 1071:1 2206:1 3246:1 
-0.6695570315637743 300:1 981:1 1021:1 1245:1 2192:1 2199:1 
-0.0425345020541053 1525:1 1747:1 2186:1 2684:1 
-0.133242524499196 381:1 461:1 564:1 1796:1 2212:1 2723:1 3661:1 
-0.1775899485920321 167:1 295:1 537:1 842:1 1780:1 2425:1 
-0.2541878979356443 86:1 842:1 1522:1 
-0.3436187895314351 146:1 678:1 772:1 869:1 1286:1 1837:1 2125:1 2894:1 3178:1 3229:1 3476:1 
-0.8888616856976369 47:1 539:1 1472:1 2143:1 2870:1 3112:1 
-0.09123620436178929 542:1 562:1 620:1 1095:1 1910:1 1994:1 2116:1 2476:1 
-0.490567811297961 414:1 747:1 1282:1 1363:1 2989:1 2990:1 
-0.1340228313950781 849:1 1601:1 1615:1 2021:1 2144:1 2421:1 2441:1 3095:1 3462:1 3649:1 3727:1 
-0.1595945034833985 565:1 1970:1 2639:1 3762:1 
-1 2359:1 3135:1 
-0.3881839068052244 1505:1 1932:1 2079:1 2914:1 3736:1 3750:1 
-1 133:1 
-0.2760269164318045 113:1 439:1 460:1 1236:1 1464:1 1837:1 1866:1 2210:1 2759:1 2775:1 3762:1 
-0.5458572903541571 271:1 539:1 1439:1 1621:1 2118:1 3426:1 
-1 931:1 995:1 
-0.6579807005001498 523:1 2418:1 3273:1 3661:1 
-0.2501600286362014 494:1 1136:1 1750:1 
-0.005212839422696645 47:1 436:1 1181:1 1373:1 2067:1 2641:1 3740:1 
-0.5618635379549943 1222:1 3684:1 3765:1 
-0.8133702500911164 424:1 
-1 3135:1 
-1 462:1 919:1 3121:1 3135:1 
-0.1662207059489521 581:1 641:1 2015:1 3135:1 
-0.2872989580211049 335:1 974:1 1367:1 1532:1 1848:1 
-1 
-0.4445767286818491 220:1 2981:1 
-1 1990:1 
-0.6157545364672247 919:1 1622:1 2004:1 2513:1 
-0.6672379555496559 1096:1 2775:1 2857:1 3045:1 3630:1 
-0.2092180225514869 349:1 719:1 920:1 1040:1 1979:1 2056:1 2629:1 3568:1 3653:1 
-1 2560:1 
-0.2602033622018616 406:1 2368:1 2653:1 
-1 310:1 1241:1 3630:1 
-0.1489455595792228 1037:1 2313:1 2570:1 
-1 535:1 
-0.8246174214054353 1671:1 1795:1 1922:1 2529:1 
-0.2598644332097159 2211:1 2476:1 2524:1 2594:1 2775:1 3499:1 
-0.1345541947130427 2161:1 2646:1 3015:1 3277:1 
-1 2540:1 
-1 3271:1 
-0.3038343130121246 519:1 562:1 1819:1 
-0.3039928572102323 1187:1 2151:1 2889:1 3559:1 
-1 617:1 2530:1 2629:1 
-0.9192705371715474 2064:1 3000:1 
-0.6771506259993684 599:1 694:1 
-0.1769096903149989 1044:1 1099:1 3563:1 
-1 
-0.4257145614350037 466:1 629:1 1199:1 1332:1 1372:1 1690:1 2143:1 2292:1 2734:1 3221:1 3396:1 3457:1 
-0.2379131179688276 1052:1 2655:1 2996:1 3402:1 3412:1 
-0.6819942559856412 778:1 842:1 
-0.4885977598087776 2204:1 2632:1 2663:1 2958:1 3227:1 3608:1 
-0.1753101985010748 160:1 502:1 1207:1 1230:1 2763:1 3302:1 3436:1 3714:1 
-0.7570560381568165 75:1 2241:1 3009:1 3754:1 
-0.5662131746834554 700:1 772:1 1278:1 
-0.4473828390098528 46:1 448:1 595:1 1483:1 1537:1 
-0.1633729610905365 1846:1 2399:1 2571:1 2628:1 3341:1 
-0.06395225821831393 1373:1 3065:1 3104:1 3237:1 
-1 2775:1 
-1 919:1 1922:1 
-1 1265:1 2307:1 
-0.2191416649177142 705:1 2369:1 3223:1 
-0.3345738098463425 955:1 1912:1 1913:1 
-0.2916050806354916 981:1 1163:1 1179:1 1245:1 1854:1 
-0.9674241164602564 316:1 1245:1 1952:1 2035:1 3135:1 3265:1 3397:1 3527:1 
-0.095625715663698 213:1 1141:1 2271:1 2321:1 2394:1 2687:1 2970:1 3536:1 3610:1 3630:1 
-0.3995921299316717 522:1 1104:1 1176:1 3479:1 
-0.9109102320393201 85:1 454:1 1299:1 1800:1 3754:1 
-0.4215773297191919 908:1 3156:1 3193:1 3314:1 
-1 1818:1 
-0.2598416826634259 2163:1 2673:1 3346:1 3769:1 
-1 419:1 
-0.2313996996923638 538:1 1801:1 3540:1 
-1 
-0.1742890213201183 647:1 1688:1 2349:1 2841:1 2872:1 2874:1 
-0.3070846735563442 747:1 884:1 1336:1 1460:1 1480:1 1812:1 2447:1 2618:1 3260:1 3640:1 
-1 
-0.1125282024087791 446:1 452:1 891:1 1295:1 1398:1 3482:1 
-1 747:1 
-1 3014:1 
-0.1097541935669383 629:1 995:1 2253:1 2699:1 3059:1 
-1 1140:1 
-0.1523758592715561 1293:1 3308:1 3594:1 
-0.1820810125861519 497:1 2899:1 3308:1 
-0.0996532395939196 437:1 1336:1 2487:1 3308:1 3378:1 
-0.1339053964771145 1015:1 1728:1 2073:1 2688:1 3319:1 
-0.517871511201994 747:1 920:1 3018:1 3135:1 
-0.9211933819470046 1245:1 1336:1 2047:1 2710:1 3018:1 3310:1 
-0.9946859628379947 1413:1 
-0.139477606137115 286:1 574:1 2894:1 
-0.7785073135676273 351:1 1248:1 1374:1 3260:1 
-1 931:1 3260:1 
-0.5248260943973578 535:1 752:1 3263:1 3425:1 
-0.2981919201045483 2176:1 2680:1 2710:1 3286:1 
-0.7175340018247309 85:1 266:1 2083:1 2457:1 3681:1 
-0.2674577287590871 351:1 417:1 805:1 1822:1 2678:1 2687:1 3135:1 3421:1 
-0.03791795353737674 596:1 1100:1 
-1 842:1 919:1 1245:1 1807:1 1922:1 
-0.7317126368602526 59:1 1007:1 2012:1 2029:1 2221:1 2629:1 3407:1 
-0.5875263372686169 1069:1 1192:1 1250:1 2148:1 2776:1 2879:1 
-1 3393:1 
-0.7168616771818765 1008:1 1048:1 2780:1 
-1 1045:1 1697:1 3227:1 
-0.1674468115113139 747:1 783:1 792:1 794:1 853:1 1232:1 3208:1 
-0.9431093012582098 1:1 
-1 
-0.004870571030202461 172:1 419:1 471:1 846:1 1153:1 2048:1 2464:1 3295:1 
-0.09220883891381622 78:1 694:1 728:1 1381:1 1698:1 2949:1 
-0.03958573485263005 562:1 568:1 907:1 1052:1 1507:1 2104:1 3031:1 
-0.7556285147151166 603:1 1283:1 1304:1 2932:1 
-0.04692474900256829 387:1 465:1 562:1 1139:1 2815:1 3205:1 
-1 
-1 
-1 
-1 
-0.5067329599065729 1373:1 1697:1 1811:1 2161:1 2915:1 3754:1 
-0.7586419041406858 1395:1 1801:1 1966:1 2312:1 2517:1 
-1 
-1 1660:1 
-1 1157:1 
-0.3075503342804253 519:1 2010:1 3728:1 
-0.2582011554871124 587:1 887:1 977:1 1166:1 1452:1 2077:1 2207:1 2623:1 2737:1 3393:1 
-1 
-0.3750479738637605 1326:1 3610:1 
-0.3817771903148718 316:1 587:1 603:1 1297:1 2369:1 
-0.2119134074088165 299:1 620:1 960:1 3438:1 
-0.2486920783869696 458:1 747:1 1179:1 1245:1 1922:1 3318:1 
-0.3065053031786257 939:1 1245:1 1282:1 1591:1 1921:1 2944:1 
-0.02593033587610309 1035:1 1942:1 2090:1 2476:1 3033:1 3326:1 3632:1 
-0.1792759634374976 47:1 310:1 481:1 2155:1 3344:1 
-0.07659707828361208 1232:1 1293:1 1419:1 2553:1 3365:1 
-1 3432:1 
-1 1308:1 1945:1 2295:1 
-1 1245:1 
-0.1586149584648585 216:1 265:1 377:1 406:1 2659:1 
-0.3148434168481036 307:1 525:1 1568:1 
-0.6419848124098342 152:1 561:1 2313:1 2620:1 3691:1 
-1 
-0.624313662292587 77:1 709:1 931:1 1856:1 2958:1 3218:1 
-1 192:1 981:1 1179:1 2737:1 2776:1 
-0.02327274302764621 108:1 994:1 2209:1 2221:1 2375:1 
-1 47:1 629:1 1370:1 2161:1 2269:1 2542:1 2737:1 
-1 2083:1 2135:1 
-1 2702:1 
-0.1680837528645211 697:1 1692:1 3531:1 3719:1 
-1 639:1 2713:1 
-1 1368:1 
-1 3435:1 
-0.9233897105678109 1312:1 1354:1 1662:1 1664:1 1895:1 2199:1 
-1 245:1 
-0.2168158818923629 838:1 995:1 1698:1 1837:1 2269:1 2684:1 2958:1 3661:1 
-0.2198504350415046 1033:1 1528:1 2021:1 
-0.4936605473550749 909:1 1238:1 1325:1 2010:1 2854:1 
-0.4194682105765904 753:1 1699:1 2098:1 
-0.02721145476923916 2313:1 2551:1 3565:1 
-1 1120:1 
-1 787:1 
-0.4151094023898548 160:1 239:1 1801:1 2097:1 2620:1 
-0.3032372309846345 920:1 949:1 1545:1 3710:1 3748:1 
-1 
-1 1264:1 1667:1 1800:1 
-0.4359353049300503 97:1 139:1 1374:1 1433:1 2118:1 
-0.301983031326759 919:1 959:1 1069:1 1593:1 1824:1 1922:1 2589:1 3180:1 
-0.5838266949016078 132:1 406:1 1887:1 1899:1 2848:1 3376:1 
-1 2651:1 3513:1 
-0.8214440625091017 791:1 1001:1 1741:1 
-0.9646565250343588 10:1 518:1 1245:1 1602:1 2290:1 2829:1 3260:1 3350:1 
-0.3099950742176267 2096:1 2098:1 
-1 
-0.09671350299800933 271:1 351:1 571:1 995:1 1245:1 1343:1 1558:1 2437:1 3467:1 
-1 
-0.3435069866056581 815:1 1080:1 2207:1 3585:1 3602:1 
-1 876:1 1801:1 
-0.09070196417397171 220:1 1229:1 2565:1 2894:1 3708:1 
-1 1069:1 
-0.6836256962876336 266:1 2284:1 3257:1 
-0.5545361910282584 757:1 3661:1 3676:1 
-0.7887678172659971 363:1 729:1 1111:1 3665:1 3668:1 
-0.6453577557262773 266:1 354:1 2965:1 3661:1 
-0.8758965701270279 1369:1 1660:1 
-1 1923:1 2629:1 
-0.03768985678102033 968:1 1047:1 1245:1 1567:1 2880:1 2899:1 3135:1 
-0.7237216417251876 1282:1 1363:1 1492:1 1524:1 2459:1 
-0.6496683964011515 164:1 1725:1 
-0.004080205004825945 351:1 694:1 1047:1 1120:1 1601:1 1714:1 2134:1 2279:1 2706:1 3486:1 3608:1 
-0.294057643807079 639:1 1106:1 1109:1 2463:1 3524:1 
-0.3259953765983038 1157:1 2174:1 2646:1 2822:1 
-0.3313247164076874 522:1 539:1 625:1 639:1 816:1 1359:1 1917:1 2459:1 2852:1 3074:1 3112:1 
-0.3289494595905433 547:1 1794:1 2140:1 3057:1 3414:1 
-0.1071649393366001 10:1 625:1 2073:1 2362:1 
-0.7563698535127146 10:1 816:1 2140:1 2524:1 2588:1 3190:1 
-0.2638039461424088 519:1 546:1 852:1 2025:1 2044:1 2199:1 3564:1 
-0.5657132183552507 766:1 2776:1 2808:1 
-0.03822080759863508 1214:1 1245:1 1774:1 2161:1 3101:1 3103:1 
-0.5198201287757068 425:1 1022:1 
-1 3536:1 
-0.7760800799426542 747:1 3731:1 
-1 
-1 1557:1 
-0.2563488581544932 495:1 2971:1 2990:1 3135:1 
-0.2513433348637195 108:1 1303:1 2185:1 2553:1 
-0.137233667784894 29:1 1697:1 1870:1 2598:1 3112:1 3121:1 
-0.3464485147646681 219:1 693:1 2930:1 
-1 10:1 343:1 3135:1 
-0.3601930258672709 10:1 1146:1 1335:1 2524:1 2548:1 3601:1 3725:1 
-0.1495027878613208 95:1 931:1 1330:1 3034:1 3280:1 3694:1 
-0.4335102276880714 1445:1 1626:1 2140:1 2451:1 2524:1 3610:1 3661:1 
-0.849587949293281 1173:1 3125:1 
-0.4971480411403404 1335:1 1700:1 
-0.5197728164222417 657:1 1785:1 
-0.504815074611744 3135:1 3245:1 
-0.04641584310625344 653:1 783:1 1100:1 1798:1 2034:1 2970:1 3396:1 3686:1 
-0.9005708191352788 803:1 970:1 1245:1 
-0.2465112058069547 10:1 431:1 931:1 2817:1 3493:1 
-0.09657702492733167 1:1 467:1 573:1 624:1 2036:1 
-0.3389269252336031 1069:1 2776:1 2976:1 3735:1 
-1 1384:1 
-0.0201151183879863 1071:1 1401:1 1747:1 2762:1 3114:1 3594:1 
-0.5487281157602729 256:1 2112:1 
-0.4499803174877551 1922:1 2269:1 2271:1 2430:1 
-0.3257244150214232 802:1 903:1 947:1 1933:1 2676:1 
-1 2737:1 
-0.2668568114470158 747:1 964:1 1179:1 1332:1 2244:1 2560:1 2805:1 3363:1 
-0.5736543947184416 205:1 879:1 1773:1 2608:1 3427:1 3706:1 
-0.3484955768225822 368:1 2284:1 2629:1 3336:1 
-1 
-0.3712093852720906 249:1 1055:1 2173:1 2954:1 
-1 2583:1 2776:1 
-0.1060338056073126 124:1 883:1 2450:1 2776:1 
-0.4858685465388658 371:1 1273:1 1323:1 2629:1 3032:1 
-0.08893068500314845 658:1 756:1 1196:1 1992:1 2999:1 3062:1 3138:1 3682:1 
-0.7644105914740381 469:1 966:1 1245:1 1801:1 3527:1 
-1 1922:1 
-0.2703430328945306 7:1 1351:1 1460:1 3105:1 3133:1 
-1 395:1 414:1 
-1 2433:1 2737:1 2967:1 
-0.02051636830951824 902:1 1612:1 2269:1 
-1 3383:1 
-0.1685582875428093 1046:1 1862:1 2168:1 2459:1 2592:1 
-0.2098727307785222 315:1 1922:1 2021:1 2193:1 3119:1 
-0.1012053326600162 15:1 21:1 1093:1 1403:1 1812:1 1966:1 1995:1 2335:1 2756:1 
-0.4640208293406102 841:1 2710:1 2844:1 
-0.1038024147890584 782:1 2045:1 2355:1 3218:1 
-0.01669494593510963 589:1 964:1 1245:1 1693:1 1735:1 1841:1 2865:1 
-1 867:1 
-0.02787033373298828 132:1 726:1 1882:1 2345:1 2639:1 3371:1 
-1 726:1 1801:1 
-1 2684:1 3135:1 
-0.03978315043985722 836:1 931:1 995:1 1427:1 2282:1 3708:1 3746:1 
-0.4615871183153318 1911:1 2501:1 
-0.1164092797714114 67:1 891:1 1886:1 1911:1 
-1 
-1 1085:1 
-1 681:1 
-0.2350353288543985 1414:1 1697:1 2885:1 3135:1 3257:1 3360:1 3451:1 3658:1 3764:1 
-1 244:1 
-0.320638965197691 1044:1 3590:1 3643:1 
-1 1240:1 2770:1 
-0.4827003869944149 406:1 731:1 894:1 896:1 1910:1 2218:1 3623:1 
-0.2664246698411565 135:1 519:1 1870:1 2425:1 
-0.6603650218733433 540:1 1331:1 2374:1 3682:1 
-0.3465771662019241 736:1 2843:1 3041:1 
-0.215642822275028 886:1 937:1 955:1 1374:1 2047:1 2976:1 3286:1 3410:1 
-0.3680067371153462 378:1 793:1 1245:1 1313:1 1444:1 2351:1 2658:1 2920:1 3431:1 
-0.8931085556022683 303:1 1801:1 2560:1 2736:1 2954:1 3363:1 3661:1 
-0.4248038319612693 137:1 1284:1 1332:1 1801:1 1815:1 1883:1 2334:1 
-0.3945474218698384 2146:1 3614:1 3637:1 
-0.9905505111197063 542:1 628:1 1770:1 1910:1 
-0.1731671955868502 195:1 353:1 662:1 1625:1 3173:1 3508:1 
-0.1127348200824066 38:1 559:1 700:1 747:1 1558:1 2047:1 2055:1 3135:1 3413:1 3731:1 
-0.01598451545999746 502:1 752:1 1522:1 2069:1 2784:1 3661:1 3711:1 3755:1 
-0.2947426375716314 412:1 904:1 1660:1 
-0.3467931278814538 345:1 1318:1 1356:1 1466:1 1976:1 2342:1 2871:1 2931:1 3660:1 
-0.1503874437304941 72:1 245:1 752:1 2209:1 2314:1 
-0.4527608311502254 73:1 1354:1 1758:1 1841:1 1922:1 2106:1 
-0.1754482109853682 1042:1 1666:1 1872:1 2000:1 2162:1 2507:1 2771:1 3539:1 
-0.03963464000986597 211:1 
-0.7010223347481116 516:1 676:1 
-1 351:1 
-0.5061214766952192 1009:1 1687:1 2277:1 3166:1 
-0.2367303388688901 852:1 894:1 3447:1 3529:1 
-0.2787157158810236 546:1 996:1 1132:1 1245:1 2431:1 3578:1 3618:1 
-1 1934:1 3496:1 
-1 1199:1 2392:1 
-1 1245:1 
-0.1782234010960707 310:1 886:1 1185:1 1332:1 1860:1 2049:1 2663:1 3691:1 
-0.1503104932736307 358:1 776:1 1085:1 1448:1 1989:1 2199:1 2626:1 3241:1 
-1 752:1 1083:1 2360:1 2776:1 
-0.1808262875420447 1223:1 2017:1 2627:1 3184:1 
-1 3014:1 
-0.3306291325299119 1517:1 1640:1 1663:1 3014:1 
-0.3138915645929392 622:1 1308:1 3014:1 
-1 5:1 143:1 1824:1 
-0.4343300560518724 3222:1 
-0.2669109034238545 2000:1 2484:1 3661:1 
-0.6848462105476942 995:1 1335:1 2282:1 2575:1 2685:1 3273:1 3661:1 
-0.0760462539018518 373:1 
-0.2244207360757333 541:1 2073:1 2687:1 3538:1 
-1 1245:1 
-0.8866123591296273 338:1 
-1 3260:1 
-0.2598681766579521 509:1 3097:1 3297:1 3756:1 
-1 519:1 2314:1 2629:1 3135:1 
-0.09216995049584234 37:1 423:1 1098:1 1333:1 1346:1 1400:1 1697:1 2269:1 2282:1 2641:1 2991:1 3131:1 3458:1 3537:1 
-1 1922:1 
-0.1039283249206377 291:1 362:1 530:1 684:1 737:1 785:1 1888:1 3278:1 3411:1 3704:1 
-1 211:1 
-0.2975224585345431 351:1 694:1 1635:1 1907:1 1920:1 
-0.1602610611477103 271:1 400:1 2203:1 2654:1 3080:1 3255:1 3439:1 
-1 
-0.6631587818327557 237:1 603:1 3179:1 
-0.4061070127518036 237:1 3206:1 3626:1 
-0.1101590905294484 519:1 1832:1 2089:1 2090:1 2468:1 2520:1 3695:1 
-0.1818759050270879 440:1 1280:1 3135:1 
-0.2463092637758394 125:1 326:1 880:1 886:1 1288:1 1303:1 1571:1 1658:1 1958:1 3448:1 
-1 2684:1 2958:1 
-0.09458196015720229 191:1 489:1 571:1 821:1 1420:1 1455:1 1909:1 2114:1 2839:1 2921:1 2958:1 
-0.1959440938894026 978:1 1120:1 2007:1 2958:1 3121:1 3630:1 
-0.1297373510117616 474:1 578:1 1083:1 1638:1 1679:1 1864:1 2269:1 2831:1 2958:1 3230:1 3282:1 
-0.4044788156484516 816:1 934:1 2451:1 2475:1 3135:1 3661:1 
-0.1924652506054773 105:1 1242:1 2203:1 2802:1 2817:1 
-0.1966093571801753 152:1 454:1 635:1 2563:1 2817:1 
-0.1027706529062926 496:1 816:1 986:1 2623:1 3007:1 3119:1 3753:1 
-0.9836309432124621 173:1 361:1 2235:1 2269:1 2493:1 3053:1 
-0.03604119888184055 338:1 865:1 1424:1 1697:1 2923:1 3528:1 3691:1 
-0.01303731447270347 879:1 992:1 1966:1 3393:1 3691:1 
-0.8993940346113408 1552:1 2015:1 2958:1 3135:1 
-1 3135:1 
-0.2666711267946825 1145:1 1442:1 1618:1 2510:1 3497:1 
-0.206414597366485 10:1 47:1 676:1 1162:1 1748:1 1887:1 2372:1 3245:1 
-0.2814506613863492 725:1 995:1 
-1 2399:1 
-0.07385795088256847 110:1 815:1 1674:1 2208:1 2548:1 3014:1 3489:1 
-0.82963553584386 815:1 858:1 1396:1 
-0.445831436051635 232:1 815:1 2539:1 3074:1 3430:1 
-0.1498949830671719 173:1 201:1 289:1 454:1 1440:1 2958:1 3005:1 3522:1 3587:1 
-0.6053045839579936 37:1 1140:1 1759:1 2209:1 3074:1 3217:1 3222:1 
-1 2937:1 
-0.1312996578255148 945:1 1216:1 1814:1 1855:1 2710:1 3750:1 3762:1 
-0.04198066663707201 549:1 783:1 877:1 1788:1 2282:1 3378:1 
-0.158794697910893 351:1 1068:1 1181:1 1332:1 3242:1 3460:1 
-0.1319509147301445 137:1 519:1 903:1 1072:1 1914:1 2207:1 2332:1 2597:1 
-0.3306756624217554 350:1 382:1 765:1 1054:1 1152:1 
-1 3134:1 
-1 3595:1 
-0.3777611552478731 137:1 2240:1 2416:1 2603:1 2640:1 3493:1 
-0.1775701239366176 235:1 694:1 1018:1 2121:1 2258:1 2636:1 3273:1 
-1 266:1 603:1 2037:1 3439:1 
-0.5198759818823595 1603:1 2533:1 
-0.1882715338666947 931:1 1015:1 1060:1 1234:1 1332:1 2707:1 3135:1 3338:1 
-0.4350261459571576 421:1 559:1 3757:1 
-0.05392928911808303 69:1 79:1 125:1 188:1 723:1 1392:1 1644:1 2194:1 2203:1 2391:1 2609:1 2967:1 3073:1 3293:1 
-0.7699139685040489 249:1 1723:1 2205:1 3175:1 
-0.9610461258717649 1961:1 3060:1 
-1 1626:1 2592:1 
-0.1858550134036727 2148:1 2427:1 2866:1 3758:1 
-0.7879656142233785 47:1 351:1 2593:1 3112:1 
-0.1095742102416405 351:1 993:1 1373:1 1510:1 1555:1 2665:1 2761:1 2815:1 2884:1 3362:1 3597:1 
-0.3559370255120369 575:1 1719:1 1807:1 2160:1 2560:1 3402:1 
-0.09300059122727662 461:1 542:1 1250:1 1951:1 2887:1 3260:1 3293:1 3647:1 
-0.5197196640162904 185:1 2824:1 
-0.6629291304956575 752:1 842:1 1350:1 2136:1 2560:1 
-0.09117122122544198 155:1 394:1 1364:1 2111:1 2239:1 2278:1 3630:1 
-0.2284983048546827 57:1 406:1 868:1 1870:1 2207:1 2312:1 2922:1 3018:1 3692:1 
-0.8388560670400578 1922:1 2294:1 3119:1 
-0.9984805262677884 3124:1 
-0.1510854784051754 214:1 538:1 931:1 2336:1 2361:1 
-0.3834449787649332 88:1 1698:1 1746:1 2323:1 
-0.2672575289724694 280:1 1779:1 2184:1 2251:1 2963:1 3034:1 3503:1 
-1 2480:1 
-1 1404:1 
-0.2581641296979532 47:1 995:1 1954:1 2242:1 3307:1 
-0.9535972100021967 1592:1 3105:1 3626:1 
-0.03174781749302351 667:1 918:1 2411:1 3122:1 3540:1 
-1 707:1 1245:1 1922:1 
-0.01022048256165484 25:1 1345:1 1660:1 2070:1 2166:1 2284:1 2914:1 3527:1 
-0.5198240230634839 854:1 1616:1 
-0.3111438725981863 351:1 496:1 2687:1 2898:1 3023:1 3070:1 3456:1 
-0.2839131972067317 1088:1 2663:1 3610:1 
-0.2031370091936646 15:1 2118:1 3630:1 
-0.5693071231502782 1570:1 2094:1 2652:1 3068:1 
-0.08346779825812919 546:1 2652:1 3444:1 3673:1 
-1 2302:1 
-0.4635111188204142 816:1 1068:1 1069:1 2510:1 2861:1 
-1 1332:1 
-0.2520287181313923 1120:1 1346:1 2042:1 2481:1 
-0.4081312359388079 519:1 759:1 1245:1 1729:1 2642:1 2884:1 3135:1 3626:1 
-0.6114731477499304 266:1 2260:1 2301:1 2540:1 3135:1 3156:1 3363:1 
-1 3688:1 
-0.3769260866315703 1197:1 1434:1 1446:1 2225:1 
-0.5233248121460738 747:1 1245:1 1753:1 2560:1 2997:1 3074:1 3495:1 3658:1 3755:1 
-0.3951367683037819 83:1 202:1 1081:1 1178:1 2023:1 
-1 3262:1 
-0.1677553101224682 1150:1 1837:1 1907:1 2066:1 3135:1 3510:1 3610:1 
-0.8844726952763691 1245:1 2082:1 3235:1 
-0.519773239254267 268:1 3703:1 
-1 
-1 
-0.5018566912349163 539:1 647:1 895:1 2882:1 3613:1 3753:1 
-0.09737221467032588 1038:1 1147:1 1717:1 2975:1 
-0.1420150856853051 1038:1 1147:1 1717:1 2975:1 
-0.1973519003279481 522:1 1816:1 2975:1 
-0.3361463097354242 863:1 1050:1 1790:1 2577:1 3135:1 3446:1 
-0.1463093704981021 1059:1 1228:1 1516:1 1781:1 2126:1 2227:1 2282:1 3203:1 
-0.9691087314940225 351:1 2972:1 
-0.4068387181148637 1245:1 1577:1 2301:1 2687:1 2975:1 3004:1 
-0.06957208026200844 338:1 984:1 2264:1 
-1 
-0.2281406602415316 1094:1 1646:1 2537:1 2547:1 2615:1 
-1 137:1 535:1 931:1 975:1 2687:1 
-0.3113726258926345 308:1 1179:1 2220:1 2443:1 3722:1 
-1 3308:1 
-0.05600989133807761 761:1 1392:1 1393:1 1773:1 3018:1 3308:1 
-1 3308:1 3363:1 
-0.4018535526551135 1056:1 3308:1 
-1 3051:1 
-0.5196205256747848 16:1 3635:1 
-0.3832359436299792 403:1 406:1 516:1 762:1 1193:1 1380:1 1922:1 2410:1 2790:1 
-0.08852683029356719 585:1 1069:1 1806:1 2502:1 2689:1 
-0.002971131488878932 931:1 1170:1 1576:1 2498:1 2566:1 2668:1 2898:1 3123:1 
-0.2484702695464296 732:1 956:1 1942:1 2243:1 2799:1 2847:1 3074:1 3135:1 3482:1 3706:1 
-0.3724940514150908 155:1 816:1 3532:1 
-0.1605695322466772 1646:1 2547:1 3432:1 
-0.08294354670054527 1332:1 1767:1 2544:1 2947:1 3135:1 
-1 
-0.9925109764771503 338:1 
-0.9147793209481588 347:1 1304:1 1597:1 3363:1 
-1 1899:1 3108:1 
-0.1046241757677128 408:1 603:1 1180:1 1753:1 2161:1 2366:1 2826:1 
-0.08443556860932502 2438:1 2646:1 
-0.03631493200670551 329:1 805:1 1245:1 2021:1 2478:1 2542:1 
-0.06509634485924395 266:1 436:1 639:1 1634:1 1843:1 2304:1 3239:1 3740:1 
-0.1618584542344374 10:1 344:1 1489:1 1807:1 2271:1 
-0.422331637265331 852:1 2185:1 2865:1 
-1 143:1 351:1 
-0.7293072930919453 727:1 2044:1 
-1 751:1 
-1 1036:1 1252:1 
-0.3183859524931614 469:1 639:1 994:1 1113:1 1801:1 2396:1 3589:1 
-1 907:1 
-1 
-0.0534540626770082 852:1 1267:1 2524:1 2713:1 2985:1 
-1 639:1 
-0.2084064631809805 639:1 1767:1 2138:1 2212:1 
-1 539:1 895:1 3247:1 
-0.4838247350550118 2101:1 2936:1 
-0.4494160278509331 449:1 1185:1 1314:1 1697:1 2140:1 2665:1 2886:1 
-1 475:1 
-0.1440060396890276 62:1 89:1 1392:1 2031:1 2352:1 2958:1 3204:1 
-1 1636:1 
-0.3465784992391039 392:1 998:1 1011:1 
-0.2839341854880671 285:1 1171:1 2973:1 3066:1 3149:1 3719:1 
-0.6977059746776459 1676:1 2242:1 2860:1 3135:1 
-0.3169698380373384 152:1 694:1 866:1 1432:1 1907:1 2044:1 3013:1 3666:1 
-0.3306420423305185 504:1 572:1 2215:1 
-0.426507606393496 312:1 1002:1 1319:1 2067:1 2118:1 
-1 1549:1 
-0.006345347811211114 428:1 647:1 3089:1 
-1 3470:1 
-0.5196825813595952 2346:1 3216:1 
-0.2237652844030008 706:1 801:1 833:1 1469:1 2222:1 2863:1 3519:1 
-1 1758:1 
-0.05251475369855804 2312:1 
-0.2261947365266909 424:1 546:1 1659:1 2314:1 2357:1 2646:1 3652:1 
-1 1442:1 2129:1 2164:1 
-1 
-1 
-0.2305598493112918 271:1 921:1 1801:1 1810:1 2081:1 2149:1 2203:1 2416:1 2472:1 2524:1 2787:1 3083:1 
-0.4337934414564804 671:1 1850:1 1883:1 
-0.2008107733530776 2387:1 3308:1 3721:1 
-0.1986345539355285 1858:1 2090:1 2282:1 3008:1 
-0.3547572629597333 103:1 1332:1 2962:1 3018:1 
-0.9985121599229764 1525:1 2869:1 
-1 10:1 1382:1 1497:1 2422:1 2829:1 3363:1 
-0.5426613043882157 2143:1 
-0.1035981099271154 1678:1 2073:1 
-0.5545185369197757 652:1 2766:1 
-0.4703560836621155 1245:1 1729:1 2981:1 2988:1 3452:1 3583:1 
-0.7093773897320041 538:1 1480:1 2403:1 
-0.2671948835699877 1274:1 2347:1 2665:1 2969:1 3363:1 
-0.2598413998414484 586:1 2337:1 2594:1 
-0.07279445689945434 50:1 111:1 1219:1 1477:1 2199:1 2405:1 2476:1 2945:1 2994:1 
-0.099894352856039 1417:1 1440:1 1934:1 2690:1 2945:1 3046:1 3290:1 3751:1 
-1 1069:1 1922:1 2282:1 
-1 1100:1 
-0.7626900173053759 1241:1 1550:1 2775:1 3196:1 
-0.125430719684664 87:1 126:1 323:1 551:1 1522:1 1947:1 2182:1 2414:1 
-0.04511711997195929 393:1 860:1 1397:1 2207:1 
-0.01467185881477145 165:1 365:1 472:1 995:1 1677:1 1732:1 1801:1 1819:1 1892:1 1934:1 2169:1 2479:1 3135:1 3468:1 
-0.4782510688304847 1750:1 
-0.3113046243822433 690:1 844:1 931:1 1750:1 
-1 1268:1 1604:1 
-0.3787939589000167 1122:1 1628:1 2245:1 2773:1 3220:1 3656:1 3742:1 
-0.4023550421148353 1232:1 1951:1 2166:1 2595:1 
-1 2629:1 
-0.01939202223623849 1354:1 1950:1 2733:1 2737:1 3178:1 3367:1 3393:1 3511:1 
-0.9527775444974321 1922:1 2230:1 2760:1 3009:1 
-0.284693608526229 280:1 874:1 2386:1 3048:1 
-1 1245:1 
-0.9246333121291626 744:1 1052:1 1597:1 3533:1 
-0.519853760144953 1513:1 2859:1 
-0.8413554602773674 3304:1 3439:1 
-0.5198178249135071 828:1 1218:1 
-0.6334009956134178 1922:1 2180:1 2271:1 3416:1 
-1 917:1 2269:1 3527:1 
-1 
-1 2646:1 
-1 393:1 461:1 747:1 1697:1 
-0.2684094750629545 2269:1 2343:1 2574:1 
-0.5192427739580024 2737:1 3740:1 
-0.2663682551886152 62:1 2282:1 2737:1 2833:1 
-1 47:1 1362:1 
-1 1306:1 
-0.1351601009313396 988:1 1697:1 2271:1 2975:1 3185:1 
-1 2271:1 
-0.008797521814315078 310:1 830:1 1206:1 2070:1 2084:1 2474:1 3344:1 
-0.2222948158615359 572:1 1173:1 1332:1 
-0.3473374672548968 1045:1 1055:1 1280:1 1336:1 1801:1 2560:1 3571:1 
-0.1316902322299506 931:1 2284:1 2505:1 
-0.1965090928645833 36:1 1047:1 2741:1 2744:1 3762:1 
-0.1135891227971584 15:1 514:1 
-0.02657973983531358 15:1 315:1 808:1 1052:1 1875:1 2546:1 2716:1 
-1 15:1 
-0.1136036802003814 15:1 3212:1 
-0.1137462522814875 15:1 3252:1 
-0.3078455045534802 15:1 1263:1 2560:1 2836:1 3661:1 
-1 15:1 1214:1 2884:1 
-0.2876098763152768 2198:1 2534:1 3563:1 
-0.05839600457241452 240:1 278:1 644:1 1308:1 1336:1 2130:1 3170:1 3193:1 3247:1 
-0.1813870110913361 239:1 1328:1 1809:1 2269:1 2548:1 2909:1 
-0.711123577435204 3135:1 3494:1 
-0.4708622122347981 17:1 1477:1 2817:1 
-0.1286552055665605 427:1 539:1 562:1 633:1 2284:1 3260:1 3723:1 
-0.01571212773910009 252:1 455:1 1065:1 1899:1 2571:1 3117:1 
-0.5114917616101915 1047:1 1799:1 2648:1 
-1 
-0.005670010997648469 1170:1 1245:1 1578:1 1974:1 2243:1 2810:1 2998:1 
-1 2711:1 
-1 3222:1 
-0.01984861211336697 253:1 888:1 1134:1 1463:1 1902:1 2385:1 2817:1 2919:1 3256:1 3514:1 
-0.04824782902285647 196:1 351:1 380:1 951:1 1245:1 2282:1 2518:1 2629:1 2865:1 
-0.09502702943173091 519:1 525:1 1729:1 1988:1 2473:1 
-1 1245:1 1594:1 1922:1 
